{"learner":{"attributes":{"scikit_learn":"{\"_estimator_type\": \"classifier\"}"},"feature_names":["Map_changes","Reverted_changes","restored_map_edits","nodes_Created","nodes_Modified","nodes_Deleted","Ways_Created","Ways_Modified","Ways_Deleted","Relations_Deleted","Median_length","Registered_timeStamp","average_year","efficient_year","weekday","weekend"],"feature_types":["int","int","int","int","int","int","int","int","int","int","float","int","float","float","int","int"],"gradient_booster":{"model":{"gbtree_model_param":{"num_parallel_tree":"1","num_trees":"100"},"iteration_indptr":[0,1,2,3,4,5,6,7,8,9,10,11,12,13,14,15,16,17,18,19,20,21,22,23,24,25,26,27,28,29,30,31,32,33,34,35,36,37,38,39,40,41,42,43,44,45,46,47,48,49,50,51,52,53,54,55,56,57,58,59,60,61,62,63,64,65,66,67,68,69,70,71,72,73,74,75,76,77,78,79,80,81,82,83,84,85,86,87,88,89,90,91,92,93,94,95,96,97,98,99,100],"tree_info":[0,0,0,0,0,0,0,0,0,0,0,0,0,0,0,0,0,0,0,0,0,0,0,0,0,0,0,0,0,0,0,0,0,0,0,0,0,0,0,0,0,0,0,0,0,0,0,0,0,0,0,0,0,0,0,0,0,0,0,0,0,0,0,0,0,0,0,0,0,0,0,0,0,0,0,0,0,0,0,0,0,0,0,0,0,0,0,0,0,0,0,0,0,0,0,0,0,0,0,0],"trees":[{"base_weights":[7.790279E-1,8.300676E-1,3.1160268E-1,8.3912253E-1,3.6910173E-2,-2.014059E-1,8.1752056E-1,7.6364386E-1,9.855938E-1,2.6880765E-1,-9.3121034E-1,2.3312171E-1,2.9717836E-1,7.945788E-1,-3.5455698E-1,3.7043527E-2,3.0105865E-1,-5.3121644E-1,-3.1590682E-1,1.9851446E-1,-1.0708683E-1,8.322912E-1,4.1851002E-1,-2.512172E-1,6.930276E-2,1.903174E-1,-8.034212E-1,2.2225843E-1,3.106206E-1,-1.9731365E-1,3.021388E-1,-5.9908945E-2,-3.1833237E-1],"categories":[],"categories_nodes":[],"categories_segments":[],"categories_sizes":[],"default_left":[0,0,0,0,0,0,0,0,0,0,0,0,0,0,0,0,0,0,0,0,0,0,0,0,0,0,0,0,0,0,0,0,0],"id":0,"left_children":[1,3,5,7,-1,9,11,13,15,-1,17,19,-1,21,23,-1,-1,-1,25,-1,-1,27,29,-1,-1,-1,31,-1,-1,-1,-1,-1,-1],"loss_changes":[3.6725235E0,8.440094E-1,4.79032E0,8.6050415E-1,0E0,8.564447E0,6.966586E-1,3.766243E0,5.9013367E-1,0E0,2.6882358E0,1.0968889E0,0E0,1.0462494E0,1.155641E0,0E0,0E0,0E0,2.754365E0,0E0,0E0,8.737335E-1,7.613865E0,0E0,0E0,0E0,3.5493279E-1,0E0,0E0,0E0,0E0,0E0,0E0],"parents":[2147483647,0,0,1,1,2,2,3,3,5,5,6,6,7,7,8,8,10,10,11,11,13,13,14,14,18,18,21,21,22,22,26,26],"right_children":[2,4,6,8,-1,10,12,14,16,-1,18,20,-1,22,24,-1,-1,-1,26,-1,-1,28,30,-1,-1,-1,32,-1,-1,-1,-1,-1,-1],"split_conditions":[1.6629408E9,7.46E2,1E1,5.3333336E-1,3.6910173E-2,5E0,2E0,8E0,1.212624E9,2.6880765E-1,3E0,4.7E1,2.9717836E-1,1.956E3,2.8E1,3.7043527E-2,3.0105865E-1,-5.3121644E-1,2.3E1,1.9851446E-1,-1.0708683E-1,2E1,1E0,-2.512172E-1,6.930276E-2,1.903174E-1,1E0,2.2225843E-1,3.106206E-1,-1.9731365E-1,3.021388E-1,-5.9908945E-2,-3.1833237E-1],"split_indices":[11,9,4,13,0,3,8,2,11,0,6,4,0,3,1,0,0,0,3,0,0,7,1,0,0,0,4,0,0,0,0,0,0],"split_type":[0,0,0,0,0,0,0,0,0,0,0,0,0,0,0,0,0,0,0,0,0,0,0,0,0,0,0,0,0,0,0,0,0],"sum_hessian":[1.6377946E2,1.4695692E2,1.6822542E1,1.4491418E2,2.0427372E0,8.651593E0,8.170949E0,9.973364E1,4.5180542E1,3.3645084E0,5.2870846E0,2.4032202E0,5.767729E0,9.733042E1,2.4032202E0,1.0814492E0,4.409909E1,1.4419322E0,3.8451524E0,1.3217711E0,1.0814492E0,8.7357056E1,9.973364E0,1.0814492E0,1.3217711E0,1.2016101E0,2.6435423E0,6.3445015E1,2.391204E1,3.4846694E0,6.4886947E0,1.3217711E0,1.3217711E0],"tree_param":{"num_deleted":"0","num_feature":"16","num_nodes":"33","size_leaf_vector":"1"}},{"base_weights":[6.7964876E-1,7.313198E-1,2.5831407E-1,7.408169E-1,3.0108448E-2,-1.5282173E-1,7.3709667E-1,6.615486E-1,9.028427E-1,5.7546866E-1,-8.2472473E-1,2.0247301E-1,2.762567E-1,6.9391567E-1,-2.8200662E-1,3.178395E-2,2.7693757E-1,2.4728522E-1,-3.7692136E-3,-2.4535054E-1,-4.755318E-1,1.9100069E-1,-1.1424282E-1,8.146606E-1,5.366303E-1,-2.2661364E-1,7.747603E-2,-2.3830557E-1,1.92991E-1,2.0631208E-1,3.1396192E-1,4.3001488E-2,2.0185137E-1,1.9218372E-1,-1.1437797E-1],"categories":[],"categories_nodes":[],"categories_segments":[],"categories_sizes":[],"default_left":[0,0,0,0,0,0,0,0,0,0,0,0,0,0,0,0,0,0,0,0,0,0,0,0,0,0,0,0,0,0,0,0,0,0,0],"id":1,"left_children":[1,3,5,7,-1,9,11,13,15,17,19,21,-1,23,25,-1,-1,-1,-1,27,-1,-1,-1,29,31,-1,-1,-1,33,-1,-1,-1,-1,-1,-1],"loss_changes":[2.8441086E0,6.6600037E-1,3.412738E0,9.6401215E-1,0E0,5.2936025E0,5.913353E-1,2.802868E0,5.033531E-1,7.8795624E-1,2.0487452E0,1.079972E0,0E0,1.1358299E0,1.1010149E0,0E0,0E0,0E0,0E0,1.1937642E0,0E0,0E0,0E0,6.0281944E-1,1.9874439E0,0E0,0E0,0E0,1.0689995E0,0E0,0E0,0E0,0E0,0E0,0E0],"parents":[2147483647,0,0,1,1,2,2,3,3,5,5,6,6,7,7,8,8,9,9,10,10,11,11,13,13,14,14,19,19,23,23,24,24,28,28],"right_children":[2,4,6,8,-1,10,12,14,16,18,20,22,-1,24,26,-1,-1,-1,-1,28,-1,-1,-1,30,32,-1,-1,-1,34,-1,-1,-1,-1,-1,-1],"split_conditions":[1.6629408E9,7.46E2,1E1,5.3333336E-1,3.0108448E-2,1.3E1,2E0,8E0,1.212624E9,5E0,5E0,5E1,2.762567E-1,6E0,1.2E1,3.178395E-2,2.7693757E-1,2.4728522E-1,-3.7692136E-3,4.3E1,-4.755318E-1,1.9100069E-1,-1.1424282E-1,8E0,4E0,-2.2661364E-1,7.747603E-2,-2.3830557E-1,7.5E0,2.0631208E-1,3.1396192E-1,4.3001488E-2,2.0185137E-1,1.9218372E-1,-1.1437797E-1],"split_indices":[11,9,4,13,0,3,8,2,11,3,5,4,0,10,1,0,0,0,0,0,0,0,0,7,4,0,0,0,10,0,0,0,0,0,0],"split_type":[0,0,0,0,0,0,0,0,0,0,0,0,0,0,0,0,0,0,0,0,0,0,0,0,0,0,0,0,0,0,0,0,0,0,0],"sum_hessian":[1.3831604E2,1.2255108E2,1.5764964E1,1.2056229E2,1.9887943E0,8.847947E0,6.917017E0,8.436916E1,3.6193123E1,4.3146873E0,4.53326E0,2.3069825E0,4.610034E0,8.182681E1,2.5423527E0,1.052789E0,3.5140335E1,2.7495146E0,1.5651729E0,3.323545E0,1.2097149E0,1.2700378E0,1.0369447E0,4.392609E1,3.7900723E1,1.1428335E0,1.3995192E0,1.1149496E0,2.2085953E0,3.0947916E1,1.2978172E1,1.0277464E1,2.7623259E1,1.1762003E0,1.0323951E0],"tree_param":{"num_deleted":"0","num_feature":"16","num_nodes":"35","size_leaf_vector":"1"}},{"base_weights":[5.862916E-1,6.3701683E-1,2.1189079E-1,5.661135E-1,7.805438E-1,-1.9650358E-1,6.3436294E-1,5.9788257E-1,-1.8501514E-1,8.243951E-1,1.1543315E-2,2.234234E-1,-5.994129E-1,8.294975E-1,-5.539965E-2,6.558652E-1,2.4549398E-1,8.119283E-2,-1.7289603E-1,2.7272375E-2,8.4721357E-1,-3.6729318E-1,-9.13743E-2,2.804608E-1,9.133641E-2,6.967176E-1,4.120079E-2,-7.8995323E-1,6.5114594E-1,8.693529E-1,8.6660005E-2,1.9309056E-1,-5.159773E-1,2.2840811E-1,1.0556019E-1,-3.7173724E-1,2.3882742E-1,7.0247404E-2,-4.573813E-1,-1.18190624E-1,2.5305727E-1,1.6206223E-1,2.8325897E-1,6.263576E-2,-2.9198846E-1],"categories":[],"categories_nodes":[],"categories_segments":[],"categories_sizes":[],"default_left":[0,0,0,0,0,0,0,0,0,0,0,0,0,0,0,0,0,0,0,0,0,0,0,0,0,0,0,0,0,0,0,0,0,0,0,0,0,0,0,0,0,0,0,0,0],"id":2,"left_children":[1,3,5,7,9,11,13,15,17,19,-1,-1,21,23,-1,25,27,-1,-1,-1,29,-1,31,-1,-1,33,35,37,39,41,-1,-1,43,-1,-1,-1,-1,-1,-1,-1,-1,-1,-1,-1,-1],"loss_changes":[2.1308174E0,6.22303E-1,2.839272E0,1.8677235E0,1.0075436E0,3.7699108E0,1.4269612E0,1.2872906E0,8.2490396E-1,4.2687416E-1,0E0,0E0,2.012275E0,8.1548214E-2,0E0,1.4846821E0,5.392379E0,0E0,0E0,0E0,1.0831833E-1,0E0,1.8211085E0,0E0,0E0,9.904938E-1,5.64393E0,3.1564562E0,2.120235E0,1.6667938E-1,0E0,0E0,1.3895171E0,0E0,0E0,0E0,0E0,0E0,0E0,0E0,0E0,0E0,0E0,0E0,0E0],"parents":[2147483647,0,0,1,1,2,2,3,3,4,4,5,5,6,6,7,7,8,8,9,9,12,12,13,13,15,15,16,16,20,20,22,22,25,25,26,26,27,27,28,28,29,29,32,32],"right_children":[2,4,6,8,10,12,14,16,18,20,-1,-1,22,24,-1,26,28,-1,-1,-1,30,-1,32,-1,-1,34,36,38,40,42,-1,-1,44,-1,-1,-1,-1,-1,-1,-1,-1,-1,-1,-1,-1],"split_conditions":[1.6629408E9,5.3333336E-1,5E0,8E0,7.46E2,5E0,7E0,1.74E2,1.4877216E9,1.212624E9,1.1543315E-2,2.234234E-1,1.680912E9,2.67E2,-5.539965E-2,3.1E1,7.3E1,8.119283E-2,-1.7289603E-1,2.7272375E-2,1.423E3,-3.6729318E-1,1.6919712E9,2.804608E-1,9.133641E-2,3.75E-1,2.7E1,2.99E2,8E0,1.3893984E9,8.6660005E-2,1.9309056E-1,4.5E1,2.2840811E-1,1.0556019E-1,-3.7173724E-1,2.3882742E-1,7.0247404E-2,-4.573813E-1,-1.18190624E-1,2.5305727E-1,1.6206223E-1,2.8325897E-1,6.263576E-2,-2.9198846E-1],"split_indices":[11,13,14,2,9,3,2,6,11,11,0,0,11,6,0,14,7,0,0,0,1,0,11,0,0,13,7,6,8,11,0,0,0,0,0,0,0,0,0,0,0,0,0,0,0],"split_type":[0,0,0,0,0,0,0,0,0,0,0,0,0,0,0,0,0,0,0,0,0,0,0,0,0,0,0,0,0,0,0,0,0,0,0,0,0,0,0,0,0,0,0,0,0],"sum_hessian":[1.18305374E2,1.0357168E2,1.4733698E1,7.263418E1,3.09375E1,7.763636E0,6.9700613E0,6.988251E1,2.7516692E0,2.9106544E1,1.8309549E0,2.072827E0,5.6908092E0,5.6186323E0,1.3514289E0,5.9269073E1,1.0613432E1,1.4137621E0,1.3379072E0,1.0285406E0,2.8078005E1,1.9196836E0,3.7711256E0,4.0294056E0,1.589227E0,5.5450195E1,3.8188808E0,2.7208803E0,7.892552E0,2.6471361E1,1.6066433E0,1.1919491E0,2.5791764E0,4.5679672E1,9.770522E0,1.1785502E0,2.6403306E0,1.4211076E0,1.2997725E0,1.0640588E0,6.828493E0,6.4265733E0,2.0044788E1,1.2080684E0,1.3711079E0],"tree_param":{"num_deleted":"0","num_feature":"16","num_nodes":"45","size_leaf_vector":"1"}},{"base_weights":[4.9973235E-1,7.292341E-2,5.371813E-1,5.498884E-1,-4.6539438E-1,5.6148946E-1,1.7945876E-2,2.4758342E-1,-5.317255E-2,4.6208374E-2,-7.088144E-1,6.951401E-1,4.708182E-1,-6.454554E-1,2.2127144E-1,1.4506186E-2,-4.1034272E-1,8.7192947E-1,4.5689473E-1,-2.4921626E-1,5.6840724E-1,5.5020545E-2,-3.6769485E-1,3.384187E-2,9.147578E-1,-1.3197711E-1,5.426551E-1,-1.0236595E0,2.3906586E-1,-1.1389937E-1,6.0840625E-1,2.8866866E-1,4.3054815E-2,7.1197264E-2,2.5057256E-1,-6.518727E-3,-4.8379803E-1,2.440408E-1,1.407377E-1],"categories":[],"categories_nodes":[],"categories_segments":[],"categories_sizes":[],"default_left":[0,0,0,0,0,0,0,0,0,0,0,0,0,0,0,0,0,0,0,0,0,0,0,0,0,0,0,0,0,0,0,0,0,0,0,0,0,0,0],"id":3,"left_children":[1,3,5,7,9,11,13,-1,-1,-1,15,17,19,21,-1,-1,-1,23,25,27,29,-1,-1,-1,31,-1,33,35,-1,-1,37,-1,-1,-1,-1,-1,-1,-1,-1],"loss_changes":[1.6210442E0,2.7042892E0,1.1932068E0,1.2504919E0,8.6629415E-1,7.7594185E-1,3.0046387E0,0E0,0E0,0E0,1.9538736E0,1.0631142E0,4.170746E0,1.8065708E0,0E0,0E0,0E0,5.0860786E-1,1.5370936E0,6.92347E0,2.1574345E0,0E0,0E0,0E0,5.089054E-1,0E0,1.2182508E0,2.7797499E0,0E0,0E0,1.0215397E0,0E0,0E0,0E0,0E0,0E0,0E0,0E0,0E0],"parents":[2147483647,0,0,1,1,2,2,3,3,4,4,5,5,6,6,10,10,11,11,12,12,13,13,17,17,18,18,19,19,20,20,24,24,26,26,27,27,30,30],"right_children":[2,4,6,8,10,12,14,-1,-1,-1,16,18,20,22,-1,-1,-1,24,26,28,30,-1,-1,-1,32,-1,34,36,-1,-1,38,-1,-1,-1,-1,-1,-1,-1,-1],"split_conditions":[1E0,1.3E1,1.6919712E9,1.6301952E9,1.532304E9,4E0,1.1111112E0,2.4758342E-1,-5.317255E-2,4.6208374E-2,4.2E1,2.6666668E-1,1.3E1,4.5E1,2.2127144E-1,1.4506186E-2,-4.1034272E-1,3E0,1.471392E9,1.5334272E9,3E0,5.5020545E-2,-3.6769485E-1,3.384187E-2,3.25E1,-1.3197711E-1,6E0,1.51E2,2.3906586E-1,-1.1389937E-1,1.578E3,2.8866866E-1,4.3054815E-2,7.1197264E-2,2.5057256E-1,-6.518727E-3,-4.8379803E-1,2.440408E-1,1.407377E-1],"split_indices":[7,3,11,11,11,5,12,0,0,0,0,13,7,0,0,0,0,0,11,11,14,0,0,0,10,0,7,0,0,0,3,0,0,0,0,0,0,0,0],"split_type":[0,0,0,0,0,0,0,0,0,0,0,0,0,0,0,0,0,0,0,0,0,0,0,0,0,0,0,0,0,0,0,0,0,0,0,0,0,0,0],"sum_hessian":[1.0287049E2,8.535701E0,9.433479E1,4.5143576E0,4.021343E0,9.003825E1,4.2965364E0,3.1763735E0,1.3379838E0,1.2380798E0,2.7832637E0,3.369894E1,5.6339314E1,2.2892306E0,2.0073059E0,1.7263525E0,1.0569112E0,1.7817627E1,1.5881313E1,6.53904E0,4.9800274E1,1.224221E0,1.0650097E0,1.1456233E0,1.6672003E1,1.0256929E0,1.485562E1,3.7697208E0,2.7693195E0,1.6722437E0,4.812803E1,1.5472041E1,1.1999625E0,8.155752E0,6.6998687E0,1.7795225E0,1.9901983E0,1.7508999E1,3.0619032E1],"tree_param":{"num_deleted":"0","num_feature":"16","num_nodes":"39","size_leaf_vector":"1"}},{"base_weights":[4.175435E-1,3.1510237E-1,5.8485764E-1,3.686202E-1,-4.0869492E-1,-1.389698E-1,6.481687E-1,5.353146E-1,2.990608E-2,7.8739756E-1,3.741207E-1,8.2610154E-1,3.0917627E-1,-8.334266E-1,3.2604936E-1,9.813106E-3,8.6397934E-1,-3.8988888E-1,7.414633E-1,9.246683E-1,1.8497896E-1,-1.363407E-1,3.6351606E-1,1.9350307E-1,-1.513342E0,7.3062634E-1,-6.0240704E-1,9.0621763E-1,2.0433702E-2,4.0611577E-1,-3.5275516E-1,2.7709275E-1,1.7882006E-2,2.969403E-1,1.1975589E-2,-1.360541E-1,1.8985035E-1,1.2328996E-1,-6.318762E-2,-1.6055469E-1,-6.2863356E-1,-6.27513E-2,2.906622E-1,-4.882549E-1,7.713623E-2,2.865207E-1,2.358412E-2,1.0661113E-2,1.6944352E-1],"categories":[],"categories_nodes":[],"categories_segments":[],"categories_sizes":[],"default_left":[0,0,0,0,0,0,0,0,0,0,0,0,0,0,0,0,0,0,0,0,0,0,0,0,0,0,0,0,0,0,0,0,0,0,0,0,0,0,0,0,0,0,0,0,0,0,0,0,0],"id":4,"left_children":[1,3,5,7,-1,-1,9,11,13,15,17,19,21,23,25,-1,27,29,31,33,35,-1,37,-1,39,41,43,45,-1,47,-1,-1,-1,-1,-1,-1,-1,-1,-1,-1,-1,-1,-1,-1,-1,-1,-1,-1,-1],"loss_changes":[1.3969669E0,5.8336763E0,2.5475025E0,3.277986E0,0E0,0E0,9.3990993E-1,2.3117352E0,5.462107E0,1.1593857E0,3.8828804E0,8.7040234E-1,1.1428154E0,6.470928E0,6.3881617E0,0E0,5.6409645E-1,3.4887524E0,1.0619302E0,7.692232E-1,1.2724341E0,0E0,7.0088124E-1,0E0,1.1807032E0,2.7732553E0,5.1358824E0,6.3636494E-1,0E0,1.6426969E-1,0E0,0E0,0E0,0E0,0E0,0E0,0E0,0E0,0E0,0E0,0E0,0E0,0E0,0E0,0E0,0E0,0E0,0E0,0E0],"parents":[2147483647,0,0,1,1,2,2,3,3,6,6,7,7,8,8,9,9,10,10,11,11,12,12,13,13,14,14,16,16,17,17,18,18,19,19,20,20,22,22,24,24,25,25,26,26,27,27,29,29],"right_children":[2,4,6,8,-1,-1,10,12,14,16,18,20,22,24,26,-1,28,30,32,34,36,-1,38,-1,40,42,44,46,-1,48,-1,-1,-1,-1,-1,-1,-1,-1,-1,-1,-1,-1,-1,-1,-1,-1,-1,-1,-1],"split_conditions":[7E0,3.454E3,9E0,4E0,-4.0869492E-1,-1.389698E-1,1.93E2,1.532304E9,3E0,1.2721536E9,1.3498E4,5.714286E-1,1.5401664E9,1E0,2.6E1,9.813106E-3,4.4E1,3.678E3,1.1198E4,4E0,1.9E1,-1.363407E-1,2.2E1,1.9350307E-1,1.2E1,6E0,3E0,7E0,2.0433702E-2,3.567E3,-3.5275516E-1,2.7709275E-1,1.7882006E-2,2.969403E-1,1.1975589E-2,-1.360541E-1,1.8985035E-1,1.2328996E-1,-6.318762E-2,-1.6055469E-1,-6.2863356E-1,-6.27513E-2,2.906622E-1,-4.882549E-1,7.713623E-2,2.865207E-1,2.358412E-2,1.0661113E-2,1.6944352E-1],"split_indices":[8,3,4,5,0,0,8,11,14,11,4,12,11,14,14,0,2,5,14,15,3,0,4,0,6,5,15,9,0,6,0,0,0,0,0,0,0,0,0,0,0,0,0,0,0,0,0,0,0],"split_type":[0,0,0,0,0,0,0,0,0,0,0,0,0,0,0,0,0,0,0,0,0,0,0,0,0,0,0,0,0,0,0,0,0,0,0,0,0,0,0,0,0,0,0,0,0,0,0,0,0],"sum_hessian":[9.125619E1,5.8389465E1,3.2866722E1,5.734028E1,1.0491885E0,1.5124195E0,3.1354301E1,3.8039246E1,1.9301033E1,1.9549204E1,1.1805097E1,1.5480324E1,2.2558922E1,4.466318E0,1.4834716E1,1.9324733E0,1.7616732E1,3.8131082E0,7.9919887E0,1.3034174E1,2.44615E0,1.0094537E0,2.1549467E1,1.4231339E0,3.043184E0,1.048077E1,4.3539453E0,1.6597227E1,1.0195035E0,2.1345603E0,1.678548E0,6.02707E0,1.9649187E0,1.2029838E1,1.0043362E0,1.003236E0,1.4429141E0,2.0166958E1,1.3825105E0,1.8514396E0,1.1917444E0,2.1443114E0,8.336459E0,1.5782075E0,2.7757375E0,1.552671E1,1.0705175E0,1.0069988E0,1.1275616E0],"tree_param":{"num_deleted":"0","num_feature":"16","num_nodes":"49","size_leaf_vector":"1"}},{"base_weights":[3.4339863E-1,-8.610521E-2,3.858342E-1,3.930787E-1,-4.9848866E-1,3.4144646E-1,7.7663463E-1,2.1477567E-1,-6.677137E-2,-2.953427E-1,-3.784478E-2,3.721056E-1,-2.45233E-1,2.6688665E-1,1.7624957E-2,2.0146209E-1,-2.7474615E-1,3.9769068E-1,-1.1138113E-1,3.2784507E-1,8.326395E-1,1.1170696E-1,-1.0429717E-1,2.790465E-1,2.5467707E-2],"categories":[],"categories_nodes":[],"categories_segments":[],"categories_sizes":[],"default_left":[0,0,0,0,0,0,0,0,0,0,0,0,0,0,0,0,0,0,0,0,0,0,0,0,0],"id":5,"left_children":[1,3,5,7,9,11,13,-1,-1,-1,15,17,-1,-1,-1,-1,-1,19,-1,21,23,-1,-1,-1,-1],"loss_changes":[1.5464029E0,1.8326653E0,1.0486536E0,1.0319172E0,1.0580148E0,2.7841673E0,5.106988E-1,0E0,0E0,0E0,2.827107E0,1.4540339E0,0E0,0E0,0E0,0E0,0E0,1.7589264E0,0E0,1.9118452E0,5.484848E-1,0E0,0E0,0E0,0E0],"parents":[2147483647,0,0,1,1,2,2,3,3,4,4,5,5,6,6,10,10,11,11,17,17,19,19,20,20],"right_children":[2,4,6,8,10,12,14,-1,-1,-1,16,18,-1,-1,-1,-1,-1,20,-1,22,24,-1,-1,-1,-1],"split_conditions":[1E0,1.3E1,7.073333E1,1.6301952E9,4E0,3.455E3,4.678E3,2.1477567E-1,-6.677137E-2,-2.953427E-1,1.5E1,4.6E1,-2.45233E-1,2.6688665E-1,1.7624957E-2,2.0146209E-1,-2.7474615E-1,6.1E1,-1.1138113E-1,1.171E3,7.508E3,1.1170696E-1,-1.0429717E-1,2.790465E-1,2.5467707E-2],"split_indices":[7,3,12,11,6,14,1,0,0,0,6,12,0,0,0,0,0,15,0,6,7,0,0,0,0],"split_type":[0,0,0,0,0,0,0,0,0,0,0,0,0,0,0,0,0,0,0,0,0,0,0,0,0],"sum_hessian":[8.202213E1,7.282681E0,7.473945E1,3.3901665E0,3.8925142E0,6.879888E1,5.940572E0,2.1171103E0,1.2730564E0,1.3407879E0,2.5517263E0,6.768709E1,1.1117908E0,4.9260383E0,1.0145333E0,1.5414199E0,1.0103066E0,6.588453E1,1.8025546E0,5.8279552E1,7.6049786E0,5.5097725E1,3.1818304E0,6.511815E0,1.0931638E0],"tree_param":{"num_deleted":"0","num_feature":"16","num_nodes":"25","size_leaf_vector":"1"}},{"base_weights":[2.7264538E-1,1.6531363E-1,4.7120887E-1,2.4768311E-1,-5.9925866E-1,6.9874823E-1,2.2681367E-1,1.1732035E-1,6.913928E-1,-1.1415789E0,9.456713E-2,-8.895788E-3,8.0969894E-1,-2.225049E-1,6.5760887E-1,2.0546891E-1,-3.1371006E-1,-2.9547764E-2,8.245442E-1,-8.536205E-2,-4.3132916E-1,2.8372857E-1,2.8264964E-1,1.4672348E-1,-3.7050265E-1,2.6044306E-1,6.2913257E-3,3.8577354E-1,-1.3196374E-1,2.7620003E-1,1.2877634E-2,2.0406324E-1,-1.1862236E-1,-5.6831765E-1,6.0462844E-1,1.6974305E-1,-6.0766105E-2,-1.3143793E-1,9.016706E-2,-2.8835684E-1,2.7498685E-2,1.2906819E-2,2.2654557E-1],"categories":[],"categories_nodes":[],"categories_segments":[],"categories_sizes":[],"default_left":[0,0,0,0,0,0,0,0,0,0,0,0,0,0,0,0,0,0,0,0,0,0,0,0,0,0,0,0,0,0,0,0,0,0,0,0,0,0,0,0,0,0,0],"id":6,"left_children":[1,3,5,7,9,11,13,15,17,19,-1,-1,21,23,25,27,-1,-1,29,-1,-1,31,-1,33,-1,-1,-1,35,37,-1,-1,-1,-1,39,41,-1,-1,-1,-1,-1,-1,-1,-1],"loss_changes":[1.5470757E0,3.36239E0,1.2991891E0,2.6246684E0,2.9663897E0,1.0822086E0,2.879222E0,4.044925E0,1.1769328E0,4.8329782E-1,0E0,0E0,5.2684355E-1,3.0441198E0,9.8179793E-1,2.2146087E0,0E0,0E0,6.383138E-1,0E0,0E0,1.271724E0,0E0,2.4736404E0,0E0,0E0,0E0,2.5966566E0,1.870411E0,0E0,0E0,0E0,0E0,8.802626E-1,3.437178E-1,0E0,0E0,0E0,0E0,0E0,0E0,0E0,0E0],"parents":[2147483647,0,0,1,1,2,2,3,3,4,4,5,5,6,6,7,7,8,8,9,9,12,12,13,13,14,14,15,15,18,18,21,21,23,23,27,27,28,28,33,33,34,34],"right_children":[2,4,6,8,10,12,14,16,18,20,-1,-1,22,24,26,28,-1,-1,30,-1,-1,32,-1,34,-1,-1,-1,36,38,-1,-1,-1,-1,40,42,-1,-1,-1,-1,-1,-1,-1,-1],"split_conditions":[2.3333333E0,1.61E3,6E0,2E1,9.7E1,2.76E2,1.3498E4,5E0,3E0,3E0,9.456713E-2,-8.895788E-3,2E0,9.311E3,1.1198E4,3.75E-1,-3.1371006E-1,-2.9547764E-2,1.6E1,-8.536205E-2,-4.3132916E-1,9.23E2,2.8264964E-1,5.2E1,-3.7050265E-1,2.6044306E-1,6.2913257E-3,4E0,4E0,2.7620003E-1,1.2877634E-2,2.0406324E-1,-1.1862236E-1,1.1666667E1,1.2907296E9,1.6974305E-1,-6.0766105E-2,-1.3143793E-1,9.016706E-2,-2.8835684E-1,2.7498685E-2,1.2906819E-2,2.2654557E-1],"split_indices":[12,3,1,7,5,0,4,8,14,8,0,0,8,4,14,13,0,0,15,0,0,3,0,15,0,0,0,5,7,0,0,0,0,12,11,0,0,0,0,0,0,0,0],"split_type":[0,0,0,0,0,0,0,0,0,0,0,0,0,0,0,0,0,0,0,0,0,0,0,0,0,0,0,0,0,0,0,0,0,0,0,0,0,0,0,0,0,0,0],"sum_hessian":[7.524626E1,5.0033596E1,2.521267E1,4.577787E1,4.255726E0,1.20938425E1,1.3118827E1,3.6359722E1,9.418148E0,2.5155706E0,1.7401551E0,1.6954974E0,1.0398345E1,6.658023E0,6.4608035E0,3.4563396E1,1.7963243E0,1.3961508E0,8.021997E0,1.149646E0,1.3659245E0,2.7240689E0,7.6742764E0,5.505448E0,1.1525753E0,4.581931E0,1.8788722E0,2.2433151E1,1.2130247E1,6.9850826E0,1.0369151E0,1.7189549E0,1.005114E0,2.0551322E0,3.4503157E0,1.7206106E1,5.2270436E0,7.095024E0,5.0352225E0,1.00217E0,1.0529622E0,1.0010818E0,2.449234E0],"tree_param":{"num_deleted":"0","num_feature":"16","num_nodes":"43","size_leaf_vector":"1"}},{"base_weights":[2.1997675E-1,5.890393E-1,1.6638546E-1,1.9973313E-2,7.4513215E-1,5.5827964E-3,3.8122654E-1,2.5179115E-1,9.331529E-2,1.17646515E-1,-6.8914723E-1,-1.1179258E-1,4.4680983E-1,-6.0822074E-3,7.2975075E-1,6.589621E-2,-1.0163767E0,2.652068E-1,2.8844103E-1,7.771066E-2,-2.7854416E-1,2.571838E-1,2.4291256E-2,-4.0327102E-2,-4.3236586E-1,-2.5566998E-1,4.4797277E-1,-1.6821729E-1,4.5622922E-2,3.5806827E-2,-2.6962176E-1,2.3411033E-1,4.5768946E-2],"categories":[],"categories_nodes":[],"categories_segments":[],"categories_sizes":[],"default_left":[0,0,0,0,0,0,0,0,0,0,0,0,0,0,0,0,0,0,0,0,0,0,0,0,0,0,0,0,0,0,0,0,0],"id":7,"left_children":[1,3,5,-1,7,9,11,-1,-1,13,15,-1,17,19,21,-1,23,-1,25,27,-1,-1,-1,-1,-1,29,31,-1,-1,-1,-1,-1,-1],"loss_changes":[1.3068085E0,6.527529E-1,2.1886683E0,0E0,5.9947968E-3,2.9837554E0,1.5079036E0,0E0,0E0,2.5005918E0,1.8066916E0,0E0,1.504744E0,2.2678826E0,3.8980293E-1,0E0,1.3397284E0,0E0,1.8628355E0,1.3655465E0,0E0,0E0,0E0,0E0,0E0,1.3620843E0,1.4459352E0,0E0,0E0,0E0,0E0,0E0,0E0],"parents":[2147483647,0,0,1,1,2,2,4,4,5,5,6,6,9,9,10,10,12,12,13,13,14,14,16,16,18,18,19,19,25,25,26,26],"right_children":[2,4,6,-1,8,10,12,-1,-1,14,16,-1,18,20,22,-1,24,-1,26,28,-1,-1,-1,-1,-1,30,32,-1,-1,-1,-1,-1,-1],"split_conditions":[5E0,3E0,3.1E1,1.9973313E-2,4E0,1.8E1,9E0,2.5179115E-1,9.331529E-2,2.7E1,5.5E0,-1.1179258E-1,1.61E3,2.8E1,4.3333335E0,6.589621E-2,4.9E1,2.652068E-1,6.39E2,7E0,-2.7854416E-1,2.571838E-1,2.4291256E-2,-4.0327102E-2,-4.3236586E-1,7.246E3,1.93E2,-1.6821729E-1,4.5622922E-2,3.5806827E-2,-2.6962176E-1,2.3411033E-1,4.5768946E-2],"split_indices":[3,0,5,0,3,5,4,0,0,7,10,0,3,14,12,0,4,0,6,3,0,0,0,0,0,0,8,0,0,0,0,0,0],"split_type":[0,0,0,0,0,0,0,0,0,0,0,0,0,0,0,0,0,0,0,0,0,0,0,0,0,0,0,0,0,0,0,0,0],"sum_hessian":[7.002731E1,7.61239E0,6.2414925E1,2.0792882E0,5.533102E0,3.6283615E1,2.6131308E1,3.7796164E0,1.7534854E0,3.1959099E1,4.3245173E0,1.7166575E0,2.441465E1,2.7408833E1,4.550267E0,1.2319154E0,3.092602E0,5.2736087E0,1.914104E1,2.596579E1,1.443043E0,3.5341916E0,1.0160755E0,1.4333806E0,1.6592213E0,4.203078E0,1.4937963E1,2.0266633E0,2.3939127E1,3.169235E0,1.0338429E0,6.256501E0,8.681461E0],"tree_param":{"num_deleted":"0","num_feature":"16","num_nodes":"33","size_leaf_vector":"1"}},{"base_weights":[1.7427881E-1,5.485731E-1,1.2250351E-1,1.1782151E-4,2.56676E-1,-6.628786E-1,1.8443252E-1,-2.057753E-1,1.8961845E-1,3.9130116E-1,-4.8784816E-1,7.725272E-2,6.1700153E-1,9.692893E-3,1.6667263E-1,1.1967079E-1,-2.7292538E-1,8.0873156E-1,4.808894E-2,5.892827E-2,2.3383053E-1,2.7025777E-1,2.465791E-2,-2.6337948E-1,2.0452352E-1,4.5878097E-2,-2.335229E-1],"categories":[],"categories_nodes":[],"categories_segments":[],"categories_sizes":[],"default_left":[0,0,0,0,0,0,0,0,0,0,0,0,0,0,0,0,0,0,0,0,0,0,0,0,0,0,0],"id":8,"left_children":[1,3,5,7,-1,9,11,-1,-1,13,-1,15,17,-1,-1,19,-1,21,23,25,-1,-1,-1,-1,-1,-1,-1],"loss_changes":[1.2339342E0,1.3253E0,3.0536427E0,2.0918293E0,0E0,5.330543E0,2.5786343E0,0E0,0E0,1.5975043E-1,0E0,2.0574112E0,1.1724629E0,0E0,0E0,1.7778118E0,0E0,4.776907E-1,2.864954E0,3.4840462E0,0E0,0E0,0E0,0E0,0E0,0E0,0E0],"parents":[2147483647,0,0,1,1,2,2,3,3,5,5,6,6,9,9,11,11,12,12,15,15,17,17,18,18,19,19],"right_children":[2,4,6,8,-1,10,12,-1,-1,14,-1,16,18,-1,-1,20,-1,22,24,26,-1,-1,-1,-1,-1,-1,-1],"split_conditions":[1.3471488E9,1.861E4,1.3938048E9,1.2721536E9,2.56676E-1,4.6153846E-1,1.7E1,-2.057753E-1,1.8961845E-1,5E0,-4.8784816E-1,1.24E2,4.323E3,9.692893E-3,1.6667263E-1,1.02E2,-2.7292538E-1,7E0,1.9E1,1.578E3,2.3383053E-1,2.7025777E-1,2.465791E-2,-2.6337948E-1,2.0452352E-1,4.5878097E-2,-2.335229E-1],"split_indices":[11,0,11,11,0,13,15,0,0,5,0,8,5,0,0,5,0,9,2,3,0,0,0,0,0,0,0],"split_type":[0,0,0,0,0,0,0,0,0,0,0,0,0,0,0,0,0,0,0,0,0,0,0,0,0,0,0],"sum_hessian":[6.6140884E1,6.871335E0,5.926955E1,2.8250294E0,4.0463057E0,3.622701E0,5.564685E1,1.3135909E0,1.5114385E0,2.013254E0,1.6094469E0,4.5541416E1,1.0105434E1,1.0077283E0,1.0055257E0,4.4507393E1,1.034023E0,7.2429414E0,2.8624933E0,4.1752666E1,2.7547264E0,6.2149334E0,1.0280083E0,1.0063374E0,1.8561558E0,3.8273487E1,3.4791784E0],"tree_param":{"num_deleted":"0","num_feature":"16","num_nodes":"27","size_leaf_vector":"1"}},{"base_weights":[1.3871048E-1,9.963091E-2,6.168083E-1,1.5346633E-1,-3.7266392E-1,2.2786583E-1,1.6753444E-2,8.425028E-2,5.661147E-1,-8.8692343E-1,2.9028913E-1,1.7181998E-1,-3.1785935E-1,-1.10026434E-1,2.6562497E-1,-2.1793172E-2,-3.9931428E-1,1.9627766E-1,-9.678521E-2,4.2868286E-1,3.164649E-2,1.8648048E-1,-5.77188E-1,-1.7813763E-2,2.1588613E-1,-8.8615395E-2,8.742893E-2,-3.7613362E-1,5.5152517E-2],"categories":[],"categories_nodes":[],"categories_segments":[],"categories_sizes":[],"default_left":[0,0,0,0,0,0,0,0,0,0,0,0,0,0,0,0,0,0,0,0,0,0,0,0,0,0,0,0,0],"id":9,"left_children":[1,3,5,7,9,-1,-1,11,13,15,17,19,21,-1,-1,-1,-1,-1,-1,23,25,-1,27,-1,-1,-1,-1,-1,-1],"loss_changes":[1.1392229E0,1.5980053E0,3.309903E-1,1.5262661E0,2.4709284E0,0E0,0E0,1.7577149E0,2.6304746E0,1.3147337E0,1.0118403E0,1.4398243E0,2.5515022E0,0E0,0E0,0E0,0E0,0E0,0E0,2.0550168E0,2.3964512E0,0E0,4.1292515E0,0E0,0E0,0E0,0E0,0E0,0E0],"parents":[2147483647,0,0,1,1,2,2,3,3,4,4,7,7,8,8,9,9,10,10,11,11,12,12,19,19,20,20,22,22],"right_children":[2,4,6,8,10,-1,-1,12,14,16,18,20,22,-1,-1,-1,-1,-1,-1,24,26,-1,28,-1,-1,-1,-1,-1,-1],"split_conditions":[7.073333E1,1.1E1,6.534E3,2.6E1,3E0,2.2786583E-1,1.6753444E-2,1.7E1,4E0,1.525E1,1.96309E5,1.500336E9,5.714286E-1,-1.10026434E-1,2.6562497E-1,-2.1793172E-2,-3.9931428E-1,1.9627766E-1,-9.678521E-2,1.3333334E-1,3E0,1.8648048E-1,1.2E0,-1.7813763E-2,2.1588613E-1,-8.8615395E-2,8.742893E-2,-3.7613362E-1,5.5152517E-2],"split_indices":[12,2,15,10,9,0,0,10,4,12,0,11,12,0,0,0,0,0,0,13,7,0,12,0,0,0,0,0,0],"split_type":[0,0,0,0,0,0,0,0,0,0,0,0,0,0,0,0,0,0,0,0,0,0,0,0,0,0,0,0,0],"sum_hessian":[6.326273E1,5.9599476E1,3.6632538E0,5.4107044E1,5.4924316E0,2.6379728E0,1.0252808E0,4.736619E1,6.740853E0,2.9028351E0,2.5895967E0,3.9365948E1,8.000242E0,1.6810108E0,5.059842E0,1.4351414E0,1.4676937E0,1.5824198E0,1.0071769E0,1.3171471E1,2.6194479E1,1.4284567E0,6.5717854E0,5.216477E0,7.9549937E0,1.153565E1,1.4658828E1,3.1361375E0,3.4356482E0],"tree_param":{"num_deleted":"0","num_feature":"16","num_nodes":"29","size_leaf_vector":"1"}},{"base_weights":[1.1492817E-1,5.0332767E-1,6.1405078E-2,1.8542977E-2,6.630761E-1,5.513437E-1,9.023814E-3,2.3113592E-1,7.159881E-2,2.4347124E-1,-4.0137187E-2,-4.828081E-1,1.4479046E-1,1.6026595E-1,-1.266112E0,-1.777414E-1,2.963959E-1,5.925196E-1,-4.0767124E-1,-1.5966911E0,-9.228752E-2,3.303814E-1,-7.272352E-1,2.5928342E-1,1.4467803E-1,2.2247408E-1,1.3614188E-2,-2.1705854E-1,4.6608105E-2,-1.3046567E-1,-5.6261873E-1,2.4441841E-1,-3.3593044E-2,-5.5774224E-1,-6.2530935E-2,-8.606149E-2,9.61477E-2],"categories":[],"categories_nodes":[],"categories_segments":[],"categories_sizes":[],"default_left":[0,0,0,0,0,0,0,0,0,0,0,0,0,0,0,0,0,0,0,0,0,0,0,0,0,0,0,0,0,0,0,0,0,0,0,0,0],"id":10,"left_children":[1,3,5,-1,7,9,11,-1,-1,-1,-1,13,15,17,19,21,23,25,27,29,-1,31,33,-1,35,-1,-1,-1,-1,-1,-1,-1,-1,-1,-1,-1,-1],"loss_changes":[1.2593517E0,4.7941113E-1,1.4241865E0,0E0,5.834222E-2,1.0646001E0,3.4971757E0,0E0,0E0,0E0,0E0,5.912076E0,2.0571003E0,1.9874357E0,1.1635017E0,4.0744877E0,2.3097625E0,3.2893598E-1,7.6434183E-1,3.6445332E-1,0E0,1.7672153E0,3.6702466E0,0E0,1.8751482E0,0E0,0E0,0E0,0E0,0E0,0E0,0E0,0E0,0E0,0E0,0E0,0E0],"parents":[2147483647,0,0,1,1,2,2,4,4,5,5,6,6,11,11,12,12,13,13,14,14,15,15,16,16,17,17,18,18,19,19,21,21,22,22,24,24],"right_children":[2,4,6,-1,8,10,12,-1,-1,-1,-1,14,16,18,20,22,24,26,28,30,-1,32,34,-1,36,-1,-1,-1,-1,-1,-1,-1,-1,-1,-1,-1,-1],"split_conditions":[5E0,3E0,1E0,1.8542977E-2,4E0,1.668384E9,3E0,2.3113592E-1,7.159881E-2,2.4347124E-1,-4.0137187E-2,3E0,1E1,3.5714287E-1,1.6328736E9,7E0,1.4E1,6.4E1,3E0,8E0,-9.228752E-2,2.8E1,1.7E1,2.5928342E-1,3.5714287E-1,2.2247408E-1,1.3614188E-2,-2.1705854E-1,4.6608105E-2,-1.3046567E-1,-5.6261873E-1,2.4441841E-1,-3.3593044E-2,-5.5774224E-1,-6.2530935E-2,-8.606149E-2,9.61477E-2],"split_indices":[3,0,14,0,3,11,14,0,0,0,0,4,4,13,11,14,14,0,6,4,0,3,3,0,13,0,0,0,0,0,0,0,0,0,0,0,0],"split_type":[0,0,0,0,0,0,0,0,0,0,0,0,0,0,0,0,0,0,0,0,0,0,0,0,0,0,0,0,0,0,0,0,0,0,0,0,0],"sum_hessian":[6.106645E1,6.3781776E0,5.468827E1,2.0630836E0,4.315094E0,4.362146E0,5.0326126E1,2.793101E0,1.5219929E0,3.0276456E0,1.3345001E0,1.0333942E1,3.999218E1,6.111743E0,4.2222E0,1.2732381E1,2.7259802E1,3.445846E0,2.6658967E0,2.6443322E0,1.5778676E0,6.8223934E0,5.909987E0,4.7571416E0,2.250266E1,2.4287796E0,1.0170666E0,1.5252068E0,1.1406898E0,1.0069886E0,1.6373436E0,2.854816E0,3.9675775E0,1.045464E0,4.864523E0,6.3310175E0,1.6171642E1],"tree_param":{"num_deleted":"0","num_feature":"16","num_nodes":"37","size_leaf_vector":"1"}},{"base_weights":[9.183569E-2,2.4060357E-1,-2.5665991E-2,6.888085E-1,3.544885E-2,-4.5372882E-1,1.6381899E-1,-1.0938623E-2,2.6475227E-1,2.2538365E-1,-2.691298E-1,-9.041749E-1,1.5199749E-1,3.4770124E-2,6.5519196E-1,-2.3967219E-3,5.250169E-1,-3.2622108E-1,1.5426774E-1,-1.2884009E0,1.6313855E-1,2.4358301E-1,-2.3362947E-1,5.6778675E-1,-1.59555E-1,2.1184422E-2,2.3538189E-1,2.6462954E-1,-3.4958127E-1,6.168217E-1,2.0215446E-2,5.489395E-1,-3.7176463E-1,-9.926595E-2,-5.089731E-1,2.4468745E-1,-4.1258197E-2,1.8845634E-1,-2.8262138E-1,-7.666758E-2,1.549902E-1,-3.3340696E-1,1.1359773E-1,1.4188527E-2,2.3493779E-1,1.6375577E-2,2.1354158E-1,1.6996142E-1,-3.3313417E-1,-1.3914643E-1,1.3300903E-1],"categories":[],"categories_nodes":[],"categories_segments":[],"categories_sizes":[],"default_left":[0,0,0,0,0,0,0,0,0,0,0,0,0,0,0,0,0,0,0,0,0,0,0,0,0,0,0,0,0,0,0,0,0,0,0,0,0,0,0,0,0,0,0,0,0,0,0,0,0,0,0],"id":11,"left_children":[1,3,5,7,9,11,13,-1,-1,15,17,19,21,23,25,27,29,-1,31,33,-1,-1,-1,35,37,-1,-1,39,41,43,-1,45,47,-1,-1,-1,-1,-1,49,-1,-1,-1,-1,-1,-1,-1,-1,-1,-1,-1,-1],"loss_changes":[1.0506549E0,2.4089751E0,2.855423E0,1.1919322E0,1.1718713E0,3.0803058E0,1.5308867E0,0E0,0E0,8.458631E-1,2.881691E0,4.222133E0,3.9837456E0,2.2099328E0,3.2590818E-1,8.365744E-1,1.8316662E-1,0E0,1.4576433E0,1.509696E0,0E0,0E0,0E0,1.1061075E0,1.7068573E0,0E0,0E0,8.013544E-1,2.5955234E0,3.733312E-1,0E0,2.7140915E-1,2.8363256E0,0E0,0E0,0E0,0E0,0E0,2.091175E0,0E0,0E0,0E0,0E0,0E0,0E0,0E0,0E0,0E0,0E0,0E0,0E0],"parents":[2147483647,0,0,1,1,2,2,3,3,4,4,5,5,6,6,9,9,10,10,11,11,12,12,13,13,14,14,15,15,16,16,18,18,19,19,23,23,24,24,27,27,28,28,29,29,31,31,32,32,38,38],"right_children":[2,4,6,8,10,12,14,-1,-1,16,18,20,22,24,26,28,30,-1,32,34,-1,-1,-1,36,38,-1,-1,40,42,44,-1,46,48,-1,-1,-1,-1,-1,50,-1,-1,-1,-1,-1,-1,-1,-1,-1,-1,-1,-1],"split_conditions":[4E0,1.5161472E9,2E1,1E0,5.7E1,5.4545456E-1,2.75E1,-1.0938623E-2,2.6475227E-1,1E0,7E1,1.5551136E9,1.668384E9,5.5E0,2E0,1.6517952E9,3.6E1,-3.2622108E-1,1.65E1,3E0,1.6313855E-1,2.4358301E-1,-2.3362947E-1,2.88E2,4.4E1,2.1184422E-2,2.3538189E-1,1.5665184E9,1.6771968E9,1.5902784E9,2.0215446E-2,3.6363637E-1,1.6103232E9,-9.926595E-2,-5.089731E-1,2.4468745E-1,-4.1258197E-2,1.8845634E-1,1.3498E4,-7.666758E-2,1.549902E-1,-3.3340696E-1,1.1359773E-1,1.4188527E-2,2.3493779E-1,1.6375577E-2,2.1354158E-1,1.6996142E-1,-3.3313417E-1,-1.3914643E-1,1.3300903E-1],"split_indices":[5,11,4,6,0,12,10,0,0,4,3,11,11,10,15,11,0,0,10,4,0,0,0,8,4,0,0,11,11,11,0,12,11,0,0,0,0,0,4,0,0,0,0,0,0,0,0,0,0,0,0],"split_type":[0,0,0,0,0,0,0,0,0,0,0,0,0,0,0,0,0,0,0,0,0,0,0,0,0,0,0,0,0,0,0,0,0,0,0,0,0,0,0,0,0,0,0,0,0,0,0,0,0,0,0],"sum_hessian":[5.8751217E1,2.5463915E1,3.3287304E1,7.2554045E0,1.820851E1,9.785801E0,2.3501503E1,1.7003845E0,5.55502E0,1.1375056E1,6.8334537E0,5.329687E0,4.4561133E0,1.946119E1,4.0403137E0,7.0259495E0,4.3491063E0,1.7953717E0,5.038082E0,4.2991014E0,1.0305856E0,2.682077E0,1.7740366E0,4.686018E0,1.477517E1,1.0124819E0,3.0278318E0,4.105848E0,2.9201016E0,3.332687E0,1.0164196E0,2.8535628E0,2.184519E0,1.8260746E0,2.4730268E0,3.3518295E0,1.3341886E0,1.4418006E0,1.333337E1,1.3353374E0,2.7705102E0,1.170068E0,1.7500336E0,1.0434997E0,2.2891872E0,1.0380064E0,1.8155564E0,1.0648935E0,1.1196257E0,1.0959164E1,2.3742065E0],"tree_param":{"num_deleted":"0","num_feature":"16","num_nodes":"51","size_leaf_vector":"1"}},{"base_weights":[8.9468926E-2,4.2037147E-1,4.719269E-2,9.708386E-2,2.1448998E-1,4.943589E-1,3.1844655E-3,8.6469315E-2,-4.410939E-2,2.2254469E-1,-1.8047078E-2,-3.50169E-1,1.0926768E-1,9.7520165E-2,-7.576723E-1,-2.589947E-1,2.164515E-1,4.9683428E-1,-3.3380857E-1,-9.52044E-1,-2.52226E-3,3.3245575E-1,-8.3446705E-1,8.2282245E-2,5.871629E-1,1.963733E-1,1.0268571E-2,3.9565086E-2,-1.7071857E-1,-7.0895255E-2,-4.633502E-1,2.1857254E-1,-5.3751957E-2,-3.7233306E-3,-3.843092E-1,1.1235053E-1,-4.5221608E-2,2.3113622E-1,-3.9854717E-2],"categories":[],"categories_nodes":[],"categories_segments":[],"categories_sizes":[],"default_left":[0,0,0,0,0,0,0,0,0,0,0,0,0,0,0,0,0,0,0,0,0,0,0,0,0,0,0,0,0,0,0,0,0,0,0,0,0,0,0],"id":12,"left_children":[1,3,5,7,-1,9,11,-1,-1,-1,-1,13,15,17,19,21,23,25,27,29,-1,31,33,35,37,-1,-1,-1,-1,-1,-1,-1,-1,-1,-1,-1,-1,-1,-1],"loss_changes":[7.928174E-1,5.453086E-1,1.0342625E0,2.3996949E-1,0E0,6.908778E-1,1.8722855E0,0E0,0E0,0E0,0E0,2.1782746E0,1.5714606E0,1.2651331E0,8.880279E-1,3.378234E0,1.4578416E0,2.4876887E-1,4.767206E-1,1.7027512E0,0E0,1.1860012E0,1.7837803E0,1.6496639E0,1.1428499E0,0E0,0E0,0E0,0E0,0E0,0E0,0E0,0E0,0E0,0E0,0E0,0E0,0E0,0E0],"parents":[2147483647,0,0,1,1,2,2,3,3,5,5,6,6,11,11,12,12,13,13,14,14,15,15,16,16,17,17,18,18,19,19,21,21,22,22,23,23,24,24],"right_children":[2,4,6,8,-1,10,12,-1,-1,-1,-1,14,16,18,20,22,24,26,28,30,-1,32,34,36,38,-1,-1,-1,-1,-1,-1,-1,-1,-1,-1,-1,-1,-1,-1],"split_conditions":[5E0,6E0,1E0,1.626048E9,2.1448998E-1,1.668384E9,3E0,8.6469315E-2,-4.410939E-2,2.2254469E-1,-1.8047078E-2,3E0,4E0,3.5714287E-1,3.21E2,7E0,2.25E1,5.9E1,1.3E1,1.2E1,-2.52226E-3,7E0,1.05E1,3.1E1,3.455E3,1.963733E-1,1.0268571E-2,3.9565086E-2,-1.7071857E-1,-7.0895255E-2,-4.633502E-1,2.1857254E-1,-5.3751957E-2,-3.7233306E-3,-3.843092E-1,1.1235053E-1,-4.5221608E-2,2.3113622E-1,-3.9854717E-2],"split_indices":[3,0,14,11,0,11,14,0,0,0,0,4,4,13,0,14,10,0,0,6,0,6,10,14,14,0,0,0,0,0,0,0,0,0,0,0,0,0,0],"split_type":[0,0,0,0,0,0,0,0,0,0,0,0,0,0,0,0,0,0,0,0,0,0,0,0,0,0,0,0,0,0,0,0,0,0,0,0,0,0,0],"sum_hessian":[5.7091187E1,5.454504E0,5.163668E1,3.234512E0,2.219992E0,3.7096558E0,4.7927025E1,1.7127085E0,1.5218036E0,2.3314555E0,1.3782004E0,1.0535004E1,3.739202E1,5.3824515E0,5.1525526E0,8.110294E0,2.9281729E1,2.7160897E0,2.6663618E0,3.8763304E0,1.2762221E0,4.207876E0,3.9024181E0,2.2397501E1,6.8842278E0,1.7159802E0,1.0001096E0,1.0423638E0,1.623998E0,2.389063E0,1.4872676E0,2.1326673E0,2.0752091E0,1.7354711E0,2.166947E0,9.667202E0,1.2730299E1,5.4314933E0,1.4527346E0],"tree_param":{"num_deleted":"0","num_feature":"16","num_nodes":"39","size_leaf_vector":"1"}},{"base_weights":[7.46802E-2,4.2250305E-2,5.157523E-1,9.4258994E-2,-5.058522E-1,2.0321822E-1,1.0674188E-2,2.4743395E-2,5.167007E-1,-1.0204421E0,9.400768E-2,1.1240857E-1,-4.7807893E-1,2.4850762E-1,-1.1561308E-1,-7.13664E-2,-3.9605004E-1,4.2075664E-3,5.7815915E-1,-6.743178E-1,8.328779E-2,-1.3361128E-1,7.205183E-2,2.6169384E-2,-2.6433176E-1,2.6036793E-1,-6.915756E-2,-3.705963E-2,-2.83612E-1],"categories":[],"categories_nodes":[],"categories_segments":[],"categories_sizes":[],"default_left":[0,0,0,0,0,0,0,0,0,0,0,0,0,0,0,0,0,0,0,0,0,0,0,0,0,0,0,0,0],"id":13,"left_children":[1,3,5,7,9,-1,-1,11,13,15,-1,17,19,-1,21,-1,-1,23,25,27,-1,-1,-1,-1,-1,-1,-1,-1,-1],"loss_changes":[7.832197E-1,1.5731479E0,2.6814365E-1,1.4472737E0,2.3410668E0,0E0,0E0,1.9819621E0,1.4703388E0,4.317944E-1,0E0,1.9155397E0,1.1785336E0,0E0,4.8010346E-1,0E0,0E0,2.4209487E0,1.8794482E0,7.190039E-1,0E0,0E0,0E0,0E0,0E0,0E0,0E0,0E0,0E0],"parents":[2147483647,0,0,1,1,2,2,3,3,4,4,7,7,8,8,9,9,11,11,12,12,14,14,17,17,18,18,19,19],"right_children":[2,4,6,8,10,-1,-1,12,14,16,-1,18,20,-1,22,-1,-1,24,26,28,-1,-1,-1,-1,-1,-1,-1,-1,-1],"split_conditions":[1.85E2,3.1E1,2.241E3,3.39E2,3E0,2.0321822E-1,1.0674188E-2,1.842E3,5.249E3,1.52E2,9.400768E-2,4.88E2,2.6E1,2.4850762E-1,1.4065056E9,-7.13664E-2,-3.9605004E-1,5E1,2.05E1,1.5047424E9,8.328779E-2,-1.3361128E-1,7.205183E-2,2.6169384E-2,-2.6433176E-1,2.6036793E-1,-6.915756E-2,-3.705963E-2,-2.83612E-1],"split_indices":[2,1,1,7,9,0,0,0,4,8,0,0,10,0,11,0,0,4,10,11,0,0,0,0,0,0,0,0,0],"split_type":[0,0,0,0,0,0,0,0,0,0,0,0,0,0,0,0,0,0,0,0,0,0,0,0,0,0,0,0,0],"sum_hessian":[5.5279E1,5.251371E1,2.7652884E0,4.8718872E1,3.7948394E0,1.761557E0,1.0037314E0,4.2743683E1,5.9751863E0,2.179893E0,1.6149464E0,3.705903E1,5.6846566E0,3.7947612E0,2.1804252E0,1.1004375E0,1.0794555E0,3.0891493E1,6.167534E0,4.5982866E0,1.0863701E0,1.0009273E0,1.1794978E0,2.9067083E1,1.8244108E0,4.4867964E0,1.6807373E0,1.9967104E0,2.601576E0],"tree_param":{"num_deleted":"0","num_feature":"16","num_nodes":"29","size_leaf_vector":"1"}},{"base_weights":[5.7196215E-2,3.929745E-1,1.6385814E-2,-1.3898078E-1,2.2956935E-1,-7.4348104E-1,7.74074E-2,-2.0079796E-1,1.5681428E-1,2.8953357E-2,-3.3452454E-1,1.6895328E-2,3.6746007E-1,1.16871E-1,-2.4646945E-1,6.994695E-1,-2.9106936E-1,2.2025181E-2,2.3367193E-1,-4.8964944E-1,1.5356208E-1,2.4395825E-1,2.6301313E-2,-2.3552479E-1,7.177405E-2,2.901681E-2,-2.0610616E-1,1.3369713E-2,-2.346808E-1,-1.0593127E-1,1.4810593E-1],"categories":[],"categories_nodes":[],"categories_segments":[],"categories_sizes":[],"default_left":[0,0,0,0,0,0,0,0,0,0,0,0,0,0,0,0,0,0,0,0,0,0,0,0,0,0,0,0,0,0,0],"id":14,"left_children":[1,3,5,7,-1,9,11,-1,-1,-1,-1,13,15,17,19,21,23,25,-1,27,29,-1,-1,-1,-1,-1,-1,-1,-1,-1,-1],"loss_changes":[7.4425596E-1,1.2733407E0,2.3708234E0,1.4982638E0,0E0,1.2946479E0,8.202349E-1,0E0,0E0,0E0,0E0,1.0821857E0,1.9700824E0,1.8462988E0,1.1773503E0,3.2287621E-1,1.0823038E0,1.4957988E0,0E0,1.1736779E0,1.0436788E0,0E0,0E0,0E0,0E0,0E0,0E0,0E0,0E0,0E0,0E0],"parents":[2147483647,0,0,1,1,2,2,3,3,5,5,6,6,11,11,12,12,13,13,14,14,15,15,16,16,17,17,19,19,20,20],"right_children":[2,4,6,8,-1,10,12,-1,-1,-1,-1,14,16,18,20,22,24,26,-1,28,30,-1,-1,-1,-1,-1,-1,-1,-1,-1,-1],"split_conditions":[1.3471488E9,6E1,1.3893984E9,1.2721536E9,2.2956935E-1,1.369008E9,1.7E1,-2.0079796E-1,1.5681428E-1,2.8953357E-2,-3.3452454E-1,7.1E1,4.323E3,2.19E2,1.6E0,1.6405632E9,7.16E2,2.7E1,2.3367193E-1,1E1,1.05E1,2.4395825E-1,2.6301313E-2,-2.3552479E-1,7.177405E-2,2.901681E-2,-2.0610616E-1,1.3369713E-2,-2.346808E-1,-1.0593127E-1,1.4810593E-1],"split_indices":[11,8,11,11,0,11,15,0,0,0,0,6,5,3,12,11,8,6,0,10,10,0,0,0,0,0,0,0,0,0,0],"split_type":[0,0,0,0,0,0,0,0,0,0,0,0,0,0,0,0,0,0,0,0,0,0,0,0,0,0,0,0,0,0,0],"sum_hessian":[5.3782288E1,4.8931704E0,4.888912E1,2.2724664E0,2.6207042E0,2.8028557E0,4.608626E1,1.2550312E0,1.0174352E0,1.0866959E0,1.7161599E0,3.900675E1,7.0795116E0,2.8676956E1,1.0329795E1,4.665265E0,2.4142463E0,2.5987196E1,2.68976E0,6.285064E0,4.04473E0,3.6564052E0,1.00886E0,1.0011894E0,1.4130571E0,2.4291672E1,1.6955247E0,2.5243113E0,3.7607532E0,1.6092895E0,2.4354405E0],"tree_param":{"num_deleted":"0","num_feature":"16","num_nodes":"31","size_leaf_vector":"1"}},{"base_weights":[4.6665255E-2,2.3682581E-2,1.7282452E-1,3.8976422E-1,-1.18016675E-2,-1.694564E-3,1.977348E-1,4.2144102E-1,-5.2267972E-2,2.0489766E-1,-2.4086533E-2,-2.6419362E-1,7.067797E-2,1.0420621E-1,-4.4898203E-1,4.7342888E-1,-6.954634E-2,1.6786395E-1,-1.5276851E-1,-1.910461E-1,1.3806781E-2,2.1676494E-1,-6.2846676E-2,-2.179704E-1,1.3630079E-2],"categories":[],"categories_nodes":[],"categories_segments":[],"categories_sizes":[],"default_left":[0,0,0,0,0,0,0,0,0,0,0,0,0,0,0,0,0,0,0,0,0,0,0,0,0],"id":15,"left_children":[1,3,-1,5,7,-1,-1,9,11,-1,-1,13,15,17,19,21,23,-1,-1,-1,-1,-1,-1,-1,-1],"loss_changes":[6.360816E-1,6.829446E-1,0E0,4.9831074E-1,8.736528E-1,0E0,0E0,6.138582E-1,1.1994064E0,0E0,0E0,1.1937747E0,1.6971239E0,2.0837083E0,1.0901124E0,1.4678512E0,1.7500936E0,0E0,0E0,0E0,0E0,0E0,0E0,0E0,0E0],"parents":[2147483647,0,0,1,1,3,3,4,4,7,7,8,8,11,11,12,12,13,13,14,14,15,15,16,16],"right_children":[2,4,-1,6,8,-1,-1,10,12,-1,-1,14,16,18,20,22,24,-1,-1,-1,-1,-1,-1,-1,-1],"split_conditions":[4.5E1,4E0,1.7282452E-1,3E0,1E0,-1.694564E-3,1.977348E-1,1.668384E9,7E1,2.0489766E-1,-2.4086533E-2,1E0,6E0,1.629072E9,1.6328736E9,1.01E2,4E0,1.6786395E-1,-1.5276851E-1,-1.910461E-1,1.3806781E-2,2.1676494E-1,-6.2846676E-2,-2.179704E-1,1.3630079E-2],"split_indices":[10,3,0,0,14,0,0,11,3,0,0,4,10,11,11,8,14,0,0,0,0,0,0,0,0],"split_type":[0,0,0,0,0,0,0,0,0,0,0,0,0,0,0,0,0,0,0,0,0,0,0,0,0],"sum_hessian":[5.2398792E1,5.1219997E1,1.178795E0,3.6437936E0,4.7576206E1,1.8730923E0,1.7707013E0,3.2599308E0,4.4316273E1,1.9053814E0,1.3545495E0,1.5848638E1,2.8467636E1,5.439788E0,1.040885E1,6.738154E0,2.1729483E1,3.172644E0,2.267144E0,7.337871E0,3.0709789E0,4.8946176E0,1.8435361E0,2.4441228E0,1.928536E1],"tree_param":{"num_deleted":"0","num_feature":"16","num_nodes":"25","size_leaf_vector":"1"}},{"base_weights":[4.6210255E-2,1.00481056E-1,-1.574368E-1,1.1160912E-2,5.5661386E-1,-3.023425E-1,8.052548E-2,1.5591912E-1,-2.0302613E-1,5.1504723E-3,7.008782E-1,2.0959637E-1,-1.6886802E-1,5.895154E-1,-1.335572E-2,-2.4834281E-1,-7.118516E-2,2.4255106E-1,3.693348E-2,-4.648271E-1,4.2658186E-1,2.4366158E-1,-1.7854212E-2,-1.1954355E-1,1.9392654E-1,1.2221372E-1,-6.4007646E-1,3.563283E-2,-7.0367396E-1,1.6740245E-1,2.2468198E-2,1.848136E-3,-2.1777554E-1,-1.0177453E-1,1.1451139E-1,-2.7752206E-1,-2.2622801E-2,-3.4472823E-1,-5.4520756E-2],"categories":[],"categories_nodes":[],"categories_segments":[],"categories_sizes":[],"default_left":[0,0,0,0,0,0,0,0,0,0,0,0,0,0,0,0,0,0,0,0,0,0,0,0,0,0,0,0,0,0,0,0,0,0,0,0,0,0,0],"id":16,"left_children":[1,3,5,7,9,-1,11,13,15,-1,17,-1,19,21,23,-1,25,-1,-1,27,29,-1,-1,31,-1,33,35,-1,37,-1,-1,-1,-1,-1,-1,-1,-1,-1,-1],"loss_changes":[5.970962E-1,1.7105626E0,2.3994336E0,1.1558496E0,5.23371E-1,0E0,1.6406702E0,1.6373782E0,1.1813333E0,0E0,2.3643637E-1,0E0,1.5804994E0,9.525099E-1,1.2644768E0,0E0,1.566536E0,0E0,0E0,8.805889E-1,1.0267335E-1,0E0,0E0,1.1813786E0,0E0,1.4389035E0,5.083436E-1,0E0,7.6798487E-1,0E0,0E0,0E0,0E0,0E0,0E0,0E0,0E0,0E0,0E0],"parents":[2147483647,0,0,1,1,2,2,3,3,4,4,6,6,7,7,8,8,10,10,12,12,13,13,14,14,16,16,19,19,20,20,23,23,25,25,26,26,28,28],"right_children":[2,4,6,8,10,-1,12,14,16,-1,18,-1,20,22,24,-1,26,-1,-1,28,30,-1,-1,32,-1,34,36,-1,38,-1,-1,-1,-1,-1,-1,-1,-1,-1,-1],"split_conditions":[4.733E3,8.3E1,7.456E3,4E0,1E0,-3.023425E-1,1.3471488E9,1.5161472E9,1.4285715E-1,5.1504723E-3,6E0,2.0959637E-1,1.5316128E9,1.75E1,9E0,-2.4834281E-1,3.1E1,2.4255106E-1,3.693348E-2,8.75E0,8.009E3,2.4366158E-1,-1.7854212E-2,9E0,1.9392654E-1,4E0,3.8E1,3.563283E-2,1.6571428E1,1.6740245E-1,2.2468198E-2,1.848136E-3,-2.1777554E-1,-1.0177453E-1,1.1451139E-1,-2.7752206E-1,-2.2622801E-2,-3.4472823E-1,-5.4520756E-2],"split_indices":[3,4,3,5,15,0,11,11,12,0,2,0,11,10,14,0,14,0,0,12,4,0,0,4,0,4,6,0,12,0,0,0,0,0,0,0,0,0,0],"split_type":[0,0,0,0,0,0,0,0,0,0,0,0,0,0,0,0,0,0,0,0,0,0,0,0,0,0,0,0,0,0,0,0,0,0,0,0,0,0,0],"sum_hessian":[5.1594288E1,4.113787E1,1.045642E1,3.5258083E1,5.879786E0,1.5789158E0,8.877503E0,2.1201263E1,1.4056822E1,1.4767607E0,4.4030256E0,2.0342188E0,6.843285E0,5.25585E0,1.5945413E1,1.5295528E0,1.2527268E1,3.3749804E0,1.028045E0,4.717763E0,2.1255221E0,3.7259989E0,1.5298507E0,1.4440156E1,1.5052572E0,9.934972E0,2.5922964E0,1.516072E0,3.2016907E0,1.1202323E0,1.0052898E0,1.2780538E1,1.6596175E0,3.4652429E0,6.4697294E0,1.2986051E0,1.2936913E0,1.0791537E0,2.1225371E0],"tree_param":{"num_deleted":"0","num_feature":"16","num_nodes":"39","size_leaf_vector":"1"}},{"base_weights":[3.5840053E-2,6.8708807E-3,3.561185E-1,4.7008872E-2,-2.3889072E-1,2.0498641E-1,-6.813179E-2,6.3635055E-3,5.31448E-1,6.606087E-2,-4.941779E-1,3.3226844E-2,1.9697396E-1,1.4250687E-2,5.541018E-1,-3.124492E-1,-7.025172E-2,4.3040913E-2,-4.6689533E-2,3.0286329E-2,2.0476307E-1,1.01308316E-1,-1.2663636E-1],"categories":[],"categories_nodes":[],"categories_segments":[],"categories_sizes":[],"default_left":[0,0,0,0,0,0,0,0,0,0,0,0,0,0,0,0,0,0,0,0,0,0,0],"id":17,"left_children":[1,3,5,7,-1,-1,-1,9,11,13,15,-1,-1,17,19,-1,21,-1,-1,-1,-1,-1,-1],"loss_changes":[4.7284958E-1,1.5847725E0,9.6222144E-1,9.1531384E-1,0E0,0E0,0E0,1.3491426E0,1.1676502E-1,1.009728E0,1.0434674E0,0E0,0E0,8.4354085E-1,1.5436113E-1,0E0,6.8576705E-1,0E0,0E0,0E0,0E0,0E0,0E0],"parents":[2147483647,0,0,1,1,2,2,3,3,7,7,8,8,9,9,10,10,13,13,14,14,16,16],"right_children":[2,4,6,8,-1,-1,-1,10,12,14,16,-1,-1,18,20,-1,22,-1,-1,-1,-1,-1,-1],"split_conditions":[1.3498E4,9.829E3,1.1198E4,1.564E3,-2.3889072E-1,2.0498641E-1,-6.813179E-2,4.733E3,1.52E2,1.56E2,5.617E3,3.3226844E-2,1.9697396E-1,4E0,2.5E1,-3.124492E-1,1.1362E4,4.3040913E-2,-4.6689533E-2,3.0286329E-2,2.0476307E-1,1.01308316E-1,-1.2663636E-1],"split_indices":[4,4,14,7,0,0,0,3,8,4,3,0,0,5,14,0,3,0,0,0,0,0,0],"split_type":[0,0,0,0,0,0,0,0,0,0,0,0,0,0,0,0,0,0,0,0,0,0,0],"sum_hessian":[5.022721E1,4.6997723E1,3.2294896E0,4.5657494E1,1.3402284E0,1.9589912E0,1.2704983E0,4.3057983E1,2.599511E0,3.924538E1,3.812602E0,1.0281149E0,1.5713959E0,3.6409378E1,2.8360016E0,1.028258E0,2.7843442E0,2.076796E1,1.5641419E1,1.0207497E0,1.815252E0,1.3080815E0,1.4762627E0],"tree_param":{"num_deleted":"0","num_feature":"16","num_nodes":"23","size_leaf_vector":"1"}},{"base_weights":[2.9305665E-2,-9.595654E-2,9.381786E-2,7.217419E-2,-6.504929E-1,4.3538597E-1,-3.192865E-2,5.0591576E-1,-6.3252755E-2,3.543207E-2,-2.8781816E-1,-3.014453E-1,7.042187E-1,-5.2515095E-1,9.65208E-2,3.0817969E-2,1.8890692E-1,-2.280315E-1,8.2087815E-2,7.125539E-2,-2.119542E-1,2.6305023E-1,-1.7722258E-2,1.69433E-1,-3.0862263E-1,5.6555605E-1,-1.1101037E-1,-3.8836065E-1,3.1477922E-1,1.7841578E-1,-1.11432165E-1,2.5567868E-1,-8.065286E-2,-6.8523157E-1,6.875869E-2,-1.7717858E-1,2.90379E-2,1.6774935E-1,-6.7562595E-2,-2.7596962E-1,-1.7605344E-2,1.994726E-1,-2.798271E-2],"categories":[],"categories_nodes":[],"categories_segments":[],"categories_sizes":[],"default_left":[0,0,0,0,0,0,0,0,0,0,0,0,0,0,0,0,0,0,0,0,0,0,0,0,0,0,0,0,0,0,0,0,0,0,0,0,0,0,0,0,0,0,0],"id":18,"left_children":[1,3,5,7,9,11,13,15,17,-1,-1,19,21,23,25,-1,-1,-1,27,-1,-1,-1,-1,29,-1,31,33,35,37,-1,-1,-1,-1,39,41,-1,-1,-1,-1,-1,-1,-1,-1],"loss_changes":[4.1605023E-1,1.6895261E0,1.4636551E0,8.7897676E-1,1.1101662E0,2.0249271E0,1.672731E0,1.1207336E-1,1.2653122E0,0E0,0E0,8.5473394E-1,9.7467303E-1,2.0789924E0,2.122242E0,0E0,0E0,0E0,1.2968425E0,0E0,0E0,0E0,0E0,9.4485015E-1,0E0,1.8209362E0,1.6475022E0,4.4948184E-1,1.1461978E0,0E0,0E0,0E0,0E0,5.0290763E-1,1.2903382E0,0E0,0E0,0E0,0E0,0E0,0E0,0E0,0E0],"parents":[2147483647,0,0,1,1,2,2,3,3,4,4,5,5,6,6,7,7,8,8,11,11,12,12,13,13,14,14,18,18,23,23,25,25,26,26,27,27,28,28,33,33,34,34],"right_children":[2,4,6,8,10,12,14,16,18,-1,-1,20,22,24,26,-1,-1,-1,28,-1,-1,-1,-1,30,-1,32,34,36,38,-1,-1,-1,-1,40,42,-1,-1,-1,-1,-1,-1,-1,-1],"split_conditions":[4E0,6E0,6E0,1.5058656E9,3E0,3E1,4E0,1.4037408E9,1.5334272E9,3.543207E-2,-2.8781816E-1,4.9E1,2.88E2,2E0,1.8E1,3.0817969E-2,1.8890692E-1,-2.280315E-1,8E0,7.125539E-2,-2.119542E-1,2.6305023E-1,-1.7722258E-2,1.6E1,-3.0862263E-1,3.6E1,2.9E1,1.6720992E9,2E0,1.7841578E-1,-1.11432165E-1,2.5567868E-1,-8.065286E-2,4.48E2,1.61E3,-1.7717858E-1,2.90379E-2,1.6774935E-1,-6.7562595E-2,-2.7596962E-1,-1.7605344E-2,1.994726E-1,-2.798271E-2],"split_indices":[7,4,10,11,6,3,4,11,11,0,0,0,8,4,5,0,0,0,0,0,0,0,0,10,0,14,5,11,7,0,0,0,0,3,3,0,0,0,0,0,0,0,0],"split_type":[0,0,0,0,0,0,0,0,0,0,0,0,0,0,0,0,0,0,0,0,0,0,0,0,0,0,0,0,0,0,0,0,0,0,0,0,0,0,0,0,0,0,0],"sum_hessian":[4.9371346E1,1.6617676E1,3.275367E1,1.3418998E1,3.1986787E0,8.150868E0,2.46028E1,2.5419626E0,1.0877035E1,1.0940771E0,2.1046016E0,2.14645E0,6.004419E0,4.4452953E0,2.0157505E1,1.0268823E0,1.5150802E0,1.1471366E0,9.729898E0,1.0984907E0,1.0479592E0,4.77567E0,1.2287488E0,2.1472397E0,2.2980554E0,5.6539693E0,1.4503535E1,2.9985423E0,6.731356E0,1.1463315E0,1.0009083E0,4.192116E0,1.4618533E0,2.7876017E0,1.1715934E1,1.962955E0,1.0355873E0,4.6096354E0,2.121721E0,1.6873989E0,1.1002027E0,1.8405944E0,9.8753395E0],"tree_param":{"num_deleted":"0","num_feature":"16","num_nodes":"43","size_leaf_vector":"1"}},{"base_weights":[2.3999158E-2,3.4791374E-1,-7.544922E-3,2.7734144E-3,1.8218516E-1,7.6202266E-2,-2.033911E-1,-4.9854923E-2,3.901142E-1,-9.3542856E-1,6.1181966E-2,4.9425438E-2,-5.1202875E-1,-4.1641605E-1,6.9416934E-1,-7.91668E-2,-3.5754862E-1,2.3307489E-1,-2.6521066E-1,4.6387014E-1,-7.0508756E-2,-7.829745E-1,4.851752E-2,6.705023E-2,-2.6825285E-1,2.3137805E-1,3.3448678E-2,-4.5447555E-1,7.862361E-2,-1.0031021E-1,2.2997701E-1,-2.1209271E-1,1.791737E-2,-6.17834E-2,-2.9700196E-1,-3.0235367E-2,-1.9641605E-1],"categories":[],"categories_nodes":[],"categories_segments":[],"categories_sizes":[],"default_left":[0,0,0,0,0,0,0,0,0,0,0,0,0,0,0,0,0,0,0,0,0,0,0,0,0,0,0,0,0,0,0,0,0,0,0,0,0],"id":19,"left_children":[1,3,5,-1,-1,7,9,11,13,15,17,19,21,23,25,-1,-1,-1,27,29,31,33,-1,-1,-1,-1,-1,35,-1,-1,-1,-1,-1,-1,-1,-1,-1],"loss_changes":[5.013702E-1,3.7675005E-1,7.611057E-1,0E0,0E0,1.3082863E0,2.7472403E0,1.1322867E0,2.6053E0,3.3092904E-1,2.808594E0,1.0651608E0,9.214561E-1,1.181519E0,2.3896074E-1,0E0,0E0,0E0,9.5709234E-1,1.4146974E0,1.4494683E0,1.8753052E-1,0E0,0E0,0E0,0E0,0E0,3.9754236E-1,0E0,0E0,0E0,0E0,0E0,0E0,0E0,0E0,0E0],"parents":[2147483647,0,0,1,1,2,2,5,5,6,6,7,7,8,8,9,9,10,10,11,11,12,12,13,13,14,14,18,18,19,19,20,20,21,21,27,27],"right_children":[2,4,6,-1,-1,8,10,12,14,16,18,20,22,24,26,-1,-1,-1,28,30,32,34,-1,-1,-1,-1,-1,36,-1,-1,-1,-1,-1,-1,-1,-1,-1],"split_conditions":[4E0,3E0,1.61352E9,2.7734144E-3,1.8218516E-1,1.5367968E9,1.6328736E9,1.5161472E9,2.3E1,1.620432E9,1.6629408E9,4E0,1.35E1,2E0,7E0,-7.91668E-2,-3.5754862E-1,2.3307489E-1,1E1,1E0,6E0,1.532304E9,4.851752E-2,6.705023E-2,-2.6825285E-1,2.3137805E-1,3.3448678E-2,2E0,7.862361E-2,-1.0031021E-1,2.2997701E-1,-2.1209271E-1,1.791737E-2,-6.17834E-2,-2.9700196E-1,-3.0235367E-2,-1.9641605E-1],"split_indices":[3,0,11,0,0,11,11,11,3,11,11,5,10,7,2,0,0,0,4,6,5,11,0,0,0,0,0,14,0,0,0,0,0,0,0,0,0],"split_type":[0,0,0,0,0,0,0,0,0,0,0,0,0,0,0,0,0,0,0,0,0,0,0,0,0,0,0,0,0,0,0,0,0,0,0,0,0],"sum_hessian":[4.781242E1,3.3529332E0,4.4459488E1,1.9033291E0,1.449604E0,3.1570366E1,1.2889122E1,2.3125195E1,8.445171E0,2.7485752E0,1.0140547E1,1.9771173E1,3.3540213E0,2.2109396E0,6.234232E0,1.3201557E0,1.4284196E0,2.7436926E0,7.3968544E0,3.7937572E0,1.5977416E1,2.2764528E0,1.0775685E0,1.1725732E0,1.0383664E0,5.219949E0,1.0142833E0,5.544725E0,1.8521293E0,1.0143883E0,2.7793689E0,1.961718E0,1.4015698E1,1.1278131E0,1.1486397E0,2.5478237E0,2.9969013E0],"tree_param":{"num_deleted":"0","num_feature":"16","num_nodes":"37","size_leaf_vector":"1"}},{"base_weights":[1.5847554E-2,-2.497073E-1,5.4322653E-2,-4.4152695E-1,1.0853723E-1,3.7602836E-1,1.5156601E-2,-5.838813E-4,-6.5085894E-1,2.232045E-3,1.9138531E-1,-3.8660297E-1,6.83096E-2,-2.3353533E-1,-5.4591324E-2,-7.5094426E-1,1.0808508E-1,2.0086776E-1,1.9047927E-2,6.826488E-2,-3.905678E-1,2.3895127E-1,-7.9651244E-2,-1.6549948E-1,1.6745691E-1,-1.3460453E-1,7.184013E-3],"categories":[],"categories_nodes":[],"categories_segments":[],"categories_sizes":[],"default_left":[0,0,0,0,0,0,0,0,0,0,0,0,0,0,0,0,0,0,0,0,0,0,0,0,0,0,0],"id":20,"left_children":[1,3,5,7,-1,9,11,-1,13,-1,-1,15,17,-1,-1,19,-1,-1,21,-1,-1,23,25,-1,-1,-1,-1],"loss_changes":[4.980433E-1,8.845681E-1,5.2650094E-1,4.7301686E-1,0E0,4.337647E-1,8.527535E-1,0E0,6.7050695E-2,0E0,0E0,1.5417688E0,1.0246247E0,0E0,0E0,2.16372E0,0E0,0E0,7.439895E-1,0E0,0E0,2.982665E0,9.2079675E-1,0E0,0E0,0E0,0E0],"parents":[2147483647,0,0,1,1,2,2,3,3,5,5,6,6,8,8,11,11,12,12,15,15,18,18,21,21,22,22],"right_children":[2,4,6,8,-1,10,12,-1,14,-1,-1,16,18,-1,-1,20,-1,-1,22,-1,-1,24,26,-1,-1,-1,-1],"split_conditions":[1E0,1.6771968E9,5E0,1.3E1,1.0853723E-1,3E0,2E0,-5.838813E-4,1.5698016E9,2.232045E-3,1.9138531E-1,1.1111112E0,1.5E1,-2.3353533E-1,-5.4591324E-2,2.6666668E-1,1.0808508E-1,2.0086776E-1,6E0,6.826488E-2,-3.905678E-1,3.8E1,4E0,-1.6549948E-1,1.6745691E-1,-1.3460453E-1,7.184013E-3],"split_indices":[7,11,3,3,0,0,6,0,11,0,0,12,3,0,0,13,0,0,10,0,0,3,4,0,0,0,0],"split_type":[0,0,0,0,0,0,0,0,0,0,0,0,0,0,0,0,0,0,0,0,0,0,0,0,0,0,0],"sum_hessian":[4.6417713E1,5.179404E0,4.123831E1,4.1542296E0,1.0251739E0,3.5421984E0,3.769611E1,1.6656964E0,2.4885333E0,1.8986901E0,1.6435084E0,3.6714995E0,3.4024612E1,1.4372315E0,1.0513018E0,2.4640634E0,1.207436E0,1.6230489E0,3.240156E1,1.0990742E0,1.3649893E0,9.597399E0,2.2804165E1,2.551174E0,7.0462246E0,4.268429E0,1.8535736E1],"tree_param":{"num_deleted":"0","num_feature":"16","num_nodes":"27","size_leaf_vector":"1"}},{"base_weights":[1.3717598E-2,-1.129438E-2,1.2417718E-1,6.7472644E-2,-1.7404217E-1,-1.8758276E-2,5.916334E-1,-5.62169E-1,-1.0387145E-2,6.742577E-2,-3.512415E-1,2.2030981E-1,2.1399058E-2,-1.2155819E-2,-2.414055E-1,1.7720783E-1,-1.3716422E-1,-2.2156371E-1,1.5075038E-1,6.8200335E-2,-5.6413716E-1,-2.3077892E-1,1.4879281E-2,9.655915E-2,-1.5360187E-1,1.1788951E-1,-3.8557213E-2,-4.133433E-2,-2.0642145E-1,1.8619998E-1,-5.455682E-2],"categories":[],"categories_nodes":[],"categories_segments":[],"categories_sizes":[],"default_left":[0,0,0,0,0,0,0,0,0,0,0,0,0,0,0,0,0,0,0,0,0,0,0,0,0,0,0,0,0,0,0],"id":21,"left_children":[1,3,-1,5,7,9,11,13,15,17,19,-1,-1,-1,-1,-1,21,23,25,-1,27,-1,29,-1,-1,-1,-1,-1,-1,-1,-1],"loss_changes":[4.719623E-1,5.8744884E-1,0E0,1.4115238E0,9.4225276E-1,8.1386095E-1,2.749623E-1,5.250653E-1,9.587271E-1,5.809351E-1,8.473045E-1,0E0,0E0,0E0,0E0,0E0,1.0035856E0,1.0318996E0,1.2846389E0,0E0,1.458627E-1,0E0,1.2215639E0,0E0,0E0,0E0,0E0,0E0,0E0,0E0,0E0],"parents":[2147483647,0,0,1,1,3,3,4,4,5,5,6,6,7,7,8,8,9,9,10,10,16,16,17,17,18,18,20,20,22,22],"right_children":[2,4,-1,6,8,10,12,14,16,18,20,-1,-1,-1,-1,-1,22,24,26,-1,28,-1,30,-1,-1,-1,-1,-1,-1,-1,-1],"split_conditions":[3.75E1,1.52E2,1.2417718E-1,4.88E2,3.38E2,1.4E1,1.95E1,1.578E3,5.74E2,1.4694912E9,6.2E1,2.2030981E-1,2.1399058E-2,-1.2155819E-2,-2.414055E-1,1.7720783E-1,6.68E2,2E0,1.6301952E9,6.8200335E-2,1.4939424E9,-2.3077892E-1,1.3471488E9,9.655915E-2,-1.5360187E-1,1.1788951E-1,-3.8557213E-2,-4.133433E-2,-2.0642145E-1,1.8619998E-1,-5.455682E-2],"split_indices":[10,6,0,0,6,4,10,3,6,11,3,0,0,0,0,0,6,4,11,0,11,0,11,0,0,0,0,0,0,0,0],"split_type":[0,0,0,0,0,0,0,0,0,0,0,0,0,0,0,0,0,0,0,0,0,0,0,0,0,0,0,0,0,0,0],"sum_hessian":[4.5682274E1,4.390979E1,1.7724828E0,2.9983654E1,1.3926138E1,2.6575815E1,3.4078379E0,3.4081733E0,1.0517964E1,2.1738194E1,4.8376217E0,2.351375E0,1.0564626E0,1.4520043E0,1.956169E0,1.1946318E0,9.323333E0,4.4937525E0,1.7244442E1,1.2830149E0,3.554607E0,1.0206472E0,8.302686E0,1.5275227E0,2.96623E0,9.01695E0,8.227491E0,1.2761502E0,2.2784567E0,1.5071231E0,6.7955623E0],"tree_param":{"num_deleted":"0","num_feature":"16","num_nodes":"31","size_leaf_vector":"1"}},{"base_weights":[1.5251548E-2,-2.2101486E-1,5.093559E-2,-4.7774753E-1,1.6620234E-1,1.085946E-1,-1.1853889E-1,-5.5225622E-2,-2.0084964E-1,7.9622656E-2,-7.0584216E-3,4.9619302E-2,5.327713E-1,-2.633515E-1,4.9918268E-2,9.377563E-2,-1.6562863E-1,1.9455826E-1,3.4155663E-2,-9.108358E-2,1.242292E-1,1.6745193E-1,-2.704845E-1,1.10934585E-1,-2.8223822E-1,-5.5557378E-3,9.722911E-2,-1.1319527E-2,-1.7726217E-1,-8.793415E-3,-2.2736758E-1],"categories":[],"categories_nodes":[],"categories_segments":[],"categories_sizes":[],"default_left":[0,0,0,0,0,0,0,0,0,0,0,0,0,0,0,0,0,0,0,0,0,0,0,0,0,0,0,0,0,0,0],"id":22,"left_children":[1,3,5,7,9,11,13,-1,-1,-1,-1,15,17,-1,19,21,-1,-1,-1,23,-1,25,27,-1,29,-1,-1,-1,-1,-1,-1],"loss_changes":[3.9526442E-1,6.9215435E-1,4.0748972E-1,9.999567E-2,6.646359E-2,7.403995E-1,1.4162471E0,0E0,0E0,0E0,0E0,7.961136E-1,1.0262895E-1,0E0,5.372307E-1,7.686763E-1,0E0,0E0,0E0,7.9436016E-1,0E0,6.771123E-1,3.44376E-1,0E0,7.120309E-1,0E0,0E0,0E0,0E0,0E0,0E0],"parents":[2147483647,0,0,1,1,2,2,3,3,4,4,5,5,6,6,11,11,12,12,14,14,15,15,19,19,21,21,22,22,24,24],"right_children":[2,4,6,8,10,12,14,-1,-1,-1,-1,16,18,-1,20,22,-1,-1,-1,24,-1,26,28,-1,30,-1,-1,-1,-1,-1,-1],"split_conditions":[1E0,1.6328736E9,4.733E3,1.5E1,1.3E1,1.56E2,5.443E3,-5.5225622E-2,-2.0084964E-1,7.9622656E-2,-7.0584216E-3,4E0,1.5843168E9,-2.633515E-1,1.5316128E9,2.6E1,-1.6562863E-1,1.9455826E-1,3.4155663E-2,1.3471488E9,1.242292E-1,3E0,8E1,1.10934585E-1,3.35E2,-5.5557378E-3,9.722911E-2,-1.1319527E-2,-1.7726217E-1,-8.793415E-3,-2.2736758E-1],"split_indices":[7,11,3,6,3,4,3,0,0,0,0,1,11,0,11,14,0,0,0,11,0,14,4,0,1,0,0,0,0,0,0],"split_type":[0,0,0,0,0,0,0,0,0,0,0,0,0,0,0,0,0,0,0,0,0,0,0,0,0,0,0,0,0,0,0],"sum_hessian":[4.454734E1,5.163802E0,3.9383537E1,2.9644895E0,2.1993124E0,2.9653858E1,9.729679E0,1.9453136E0,1.019176E0,1.1822581E0,1.0170543E0,2.7014835E1,2.6390228E0,1.0020441E0,8.727635E0,2.5954351E1,1.0604855E0,1.6382439E0,1.0007789E0,6.83224E0,1.8953947E0,2.2037315E1,3.917035E0,1.7290679E0,5.1031723E0,1.0478674E1,1.1558641E1,2.9162443E0,1.0007908E0,4.024686E0,1.0784863E0],"tree_param":{"num_deleted":"0","num_feature":"16","num_nodes":"31","size_leaf_vector":"1"}},{"base_weights":[3.0826735E-3,-2.2123002E-2,1.10950984E-1,3.1410936E-2,-4.7586012E-1,-1.8504487E-2,3.932256E-1,-7.5352305E-1,5.202565E-2,2.322836E-2,-2.1666592E-1,2.248875E-1,-1.0904617E-1,-7.588334E-2,-2.6776868E-1,-3.645152E-2,4.159227E-1,4.509323E-3,-1.6758822E-1,-2.0190211E-2,1.7483759E-1],"categories":[],"categories_nodes":[],"categories_segments":[],"categories_sizes":[],"default_left":[0,0,0,0,0,0,0,0,0,0,0,0,0,0,0,0,0,0,0,0,0],"id":23,"left_children":[1,3,-1,5,7,9,11,13,-1,15,-1,-1,-1,-1,-1,17,19,-1,-1,-1,-1],"loss_changes":[4.204727E-1,1.0515388E0,0E0,7.1359926E-1,9.537568E-1,1.0541488E0,1.5633111E0,9.830594E-3,0E0,8.19354E-1,0E0,0E0,0E0,0E0,0E0,8.3389074E-1,4.1075277E-1,0E0,0E0,0E0,0E0],"parents":[2147483647,0,0,1,1,3,3,4,4,5,5,6,6,7,7,9,9,15,15,16,16],"right_children":[2,4,-1,6,8,10,12,14,-1,16,-1,-1,-1,-1,-1,18,20,-1,-1,-1,-1],"split_conditions":[1.85E2,1.5E1,1.10950984E-1,1E0,3E0,1.28E2,7E0,4.561E3,5.202565E-2,2.3333333E0,-2.1666592E-1,2.248875E-1,-1.0904617E-1,-7.588334E-2,-2.6776868E-1,2E0,1.5E1,4.509323E-3,-1.6758822E-1,-2.0190211E-2,1.7483759E-1],"split_indices":[2,2,0,2,9,8,9,7,0,12,0,0,0,0,0,12,6,0,0,0,0],"split_type":[0,0,0,0,0,0,0,0,0,0,0,0,0,0,0,0,0,0,0,0,0],"sum_hessian":[4.3599556E1,4.167506E1,1.9244977E0,3.81095E1,3.565557E0,3.432318E1,3.78632E0,2.3850439E0,1.180513E0,3.3314503E1,1.0086783E0,2.580373E0,1.2059469E0,1.131298E0,1.253746E0,2.9706953E1,3.6075506E0,2.7924976E1,1.7819773E0,1.0791658E0,2.5283847E0],"tree_param":{"num_deleted":"0","num_feature":"16","num_nodes":"21","size_leaf_vector":"1"}},{"base_weights":[-1.2618813E-3,-3.986326E-2,1.9403715E-1,-7.091222E-2,1.2728152E-1,-2.743036E-1,4.3547615E-1,8.926546E-2,-1.5676014E-1,6.3482404E-2,-1.887256E-1,1.85853E-1,-2.7623229E-2,-1.3358639E-1,3.8560793E-1,-5.805991E-1,-4.8364013E-2,1.7065637E-1,-1.968879E-1,-5.7008892E-2,2.0316583E-1,-3.445003E-2,-3.066081E-1,-3.237393E-1,1.6083805E-1,-6.44668E-2,1.3825393E-1,-7.082697E-2,5.0855093E-2,-2.4619557E-1,-3.429516E-2,1.21000804E-1,-5.357743E-2],"categories":[],"categories_nodes":[],"categories_segments":[],"categories_sizes":[],"default_left":[0,0,0,0,0,0,0,0,0,0,0,0,0,0,0,0,0,0,0,0,0,0,0,0,0,0,0,0,0,0,0,0,0],"id":24,"left_children":[1,3,5,7,-1,9,11,13,15,-1,-1,-1,-1,17,19,21,23,25,-1,-1,-1,27,-1,29,31,-1,-1,-1,-1,-1,-1,-1,-1],"loss_changes":[3.387698E-1,5.7040274E-1,9.581543E-1,5.0901896E-1,0E0,6.7383987E-1,5.6972456E-1,9.231658E-1,1.0653825E0,0E0,0E0,0E0,0E0,1.4281658E0,1.1228677E0,1.1114966E0,1.2068003E0,7.731117E-1,0E0,0E0,0E0,1.7002295E-1,0E0,8.412496E-1,1.0646051E0,0E0,0E0,0E0,0E0,0E0,0E0,0E0,0E0],"parents":[2147483647,0,0,1,1,2,2,3,3,5,5,6,6,7,7,8,8,13,13,14,14,15,15,16,16,17,17,21,21,23,23,24,24],"right_children":[2,4,6,8,-1,10,12,14,16,-1,-1,-1,-1,18,20,22,24,26,-1,-1,-1,28,-1,30,32,-1,-1,-1,-1,-1,-1,-1,-1],"split_conditions":[2.25E1,1.69344E9,4E0,2.857143E-1,1.2728152E-1,8E0,3.455E3,1.764706E-1,1.3938048E9,6.3482404E-2,-1.887256E-1,1.85853E-1,-2.7623229E-2,1.5058656E9,2E0,1.369008E9,3E0,1.4285715E-1,-1.968879E-1,-5.7008892E-2,2.0316583E-1,1.28088E9,-3.066081E-1,1.6025472E9,1.61352E9,-6.44668E-2,1.3825393E-1,-7.082697E-2,5.0855093E-2,-2.4619557E-1,-3.429516E-2,1.21000804E-1,-5.357743E-2],"split_indices":[10,11,4,13,0,14,14,13,11,0,0,0,0,11,7,11,14,12,0,0,0,11,0,11,11,0,0,0,0,0,0,0,0],"split_type":[0,0,0,0,0,0,0,0,0,0,0,0,0,0,0,0,0,0,0,0,0,0,0,0,0,0,0,0,0,0,0,0,0],"sum_hessian":[4.291075E1,3.6493584E1,6.417168E0,3.4999462E1,1.4941221E0,2.1365645E0,4.280604E0,1.2198784E1,2.2800676E1,1.071958E0,1.0646067E0,3.0443084E0,1.2362953E0,7.2762237E0,4.9225607E0,3.7564263E0,1.904425E1,5.0249515E0,2.2512724E0,1.7723361E0,3.1502244E0,2.1609147E0,1.5955118E0,7.9854317E0,1.1058819E1,2.2693658E0,2.7555854E0,1.0074593E0,1.1534553E0,1.5022566E0,6.483175E0,6.3406234E0,4.718195E0],"tree_param":{"num_deleted":"0","num_feature":"16","num_nodes":"33","size_leaf_vector":"1"}},{"base_weights":[-3.810988E-3,-2.9706169E-2,2.8676853E-1,1.7055307E-2,-4.3417874E-1,1.7575166E-1,-4.3954983E-2,-1.8571435E-2,1.7877145E-1,-2.1816067E-2,-2.5538942E-1,2.7882129E-2,-1.9144262E-1,-1.8280664E-1,1.6601233E-1,-1.609827E-2,4.574634E-1,1.3895869E-2,-1.538783E-1,3.2080043E-2,1.707843E-1],"categories":[],"categories_nodes":[],"categories_segments":[],"categories_sizes":[],"default_left":[0,0,0,0,0,0,0,0,0,0,0,0,0,0,0,0,0,0,0,0,0],"id":25,"left_children":[1,3,5,7,9,-1,-1,11,-1,13,-1,15,-1,-1,-1,17,19,-1,-1,-1,-1],"loss_changes":[3.3174378E-1,7.7051836E-1,5.534562E-1,7.767413E-1,7.071094E-1,0E0,0E0,1.0523411E0,0E0,1.4010191E0,0E0,6.5721816E-1,0E0,0E0,0E0,1.0213155E0,6.566429E-2,0E0,0E0,0E0,0E0],"parents":[2147483647,0,0,1,1,2,2,3,3,4,4,7,7,9,9,11,11,15,15,16,16],"right_children":[2,4,6,8,10,-1,-1,12,-1,14,-1,16,-1,-1,-1,18,20,-1,-1,-1,-1],"split_conditions":[1.3498E4,1.1E1,1.1198E4,1.564E3,9.829E3,1.7575166E-1,-4.3954983E-2,8.6E1,1.7877145E-1,6E1,-2.5538942E-1,1.2E1,-1.9144262E-1,-1.8280664E-1,1.6601233E-1,2.5E2,1.4252544E9,1.3895869E-2,-1.538783E-1,3.2080043E-2,1.707843E-1],"split_indices":[4,2,14,7,4,0,0,8,0,8,0,8,0,0,0,6,11,0,0,0,0],"split_type":[0,0,0,0,0,0,0,0,0,0,0,0,0,0,0,0,0,0,0,0,0],"sum_hessian":[4.1955715E1,3.9347046E1,2.608668E0,3.612808E1,3.2189696E0,1.3350668E0,1.2736013E0,3.4945206E1,1.1828734E0,2.1478825E0,1.0710872E0,3.339625E1,1.548954E0,1.0331519E0,1.1147305E0,3.1167824E1,2.2284265E0,2.8494734E1,2.67309E0,1.0120705E0,1.2163559E0],"tree_param":{"num_deleted":"0","num_feature":"16","num_nodes":"21","size_leaf_vector":"1"}},{"base_weights":[-2.807123E-3,-2.3762641E-2,9.4632834E-2,1.6690888E-2,-3.9087018E-1,-1.4500352E-2,1.3818142E-1,-1.8680274E-1,4.6846144E-2,2.3662962E-2,-1.6314813E-1,-1.3040658E-2,1.7149094E-1,6.788957E-3,-1.2617913E-1],"categories":[],"categories_nodes":[],"categories_segments":[],"categories_sizes":[],"default_left":[0,0,0,0,0,0,0,0,0,0,0,0,0,0,0],"id":26,"left_children":[1,3,-1,5,7,9,-1,-1,-1,11,-1,13,-1,-1,-1],"loss_changes":[2.89178E-1,6.0883653E-1,0E0,5.257875E-1,6.128913E-1,7.4008226E-1,0E0,0E0,0E0,7.0207417E-1,0E0,4.942961E-1,0E0,0E0,0E0],"parents":[2147483647,0,0,1,1,3,3,4,4,5,5,9,9,11,11],"right_children":[2,4,-1,6,8,10,-1,-1,-1,12,-1,14,-1,-1,-1],"split_conditions":[1.85E2,1.6E1,9.4632834E-2,1.564E3,3E0,2.02E2,1.3818142E-1,-1.8680274E-1,4.6846144E-2,1E0,-1.6314813E-1,4.984E3,1.7149094E-1,6.788957E-3,-1.2617913E-1],"split_indices":[2,2,0,7,9,14,0,0,0,9,0,3,0,0,0],"split_type":[0,0,0,0,0,0,0,0,0,0,0,0,0,0,0],"sum_hessian":[4.1236973E1,3.9557594E1,1.6793803E0,3.6490993E1,3.066602E0,3.499914E1,1.4918506E0,2.056744E0,1.0098579E0,3.3536526E1,1.4626148E0,3.234616E1,1.1903651E0,3.0611435E1,1.7347268E0],"tree_param":{"num_deleted":"0","num_feature":"16","num_nodes":"15","size_leaf_vector":"1"}},{"base_weights":[-1.2167132E-3,-3.4619484E-2,2.2525407E-1,-2.1007308E-1,1.6385032E-2,-6.708328E-2,4.1184944E-1,1.4542295E-1,-5.0218034E-1,1.6270387E-1,-4.3800976E-2,2.0957991E-1,-4.2185526E-2,6.071851E-2,-2.503864E-1,-2.0744865E-1,1.117627E-1,-6.462069E-2,8.15079E-2,-4.9422886E-2,-6.293207E-1,5.2336866E-1,-6.361487E-2,-5.0191764E-2,1.2841266E-1,-1.2976845E-2,-2.670973E-1,-6.8468787E-3,2.2292759E-1,8.461895E-2,-9.069155E-2],"categories":[],"categories_nodes":[],"categories_segments":[],"categories_sizes":[],"default_left":[0,0,0,0,0,0,0,0,0,0,0,0,0,0,0,0,0,0,0,0,0,0,0,0,0,0,0,0,0,0,0],"id":27,"left_children":[1,3,5,7,9,-1,11,-1,13,-1,15,-1,-1,17,-1,19,21,-1,-1,23,25,27,29,-1,-1,-1,-1,-1,-1,-1,-1],"loss_changes":[3.2451564E-1,3.3771026E-1,5.5397964E-1,1.9655993E0,9.692308E-1,0E0,7.710825E-1,0E0,1.2604693E0,0E0,7.2902554E-1,0E0,0E0,2.52664E-1,0E0,8.9303595E-1,1.1062737E0,0E0,0E0,7.003067E-1,5.2627695E-1,5.629386E-1,1.018836E0,0E0,0E0,0E0,0E0,0E0,0E0,0E0,0E0],"parents":[2147483647,0,0,1,1,2,2,3,3,4,4,6,6,8,8,10,10,13,13,15,15,16,16,19,19,20,20,21,21,22,22],"right_children":[2,4,6,8,10,-1,12,-1,14,-1,16,-1,-1,18,-1,20,22,-1,-1,24,26,28,30,-1,-1,-1,-1,-1,-1,-1,-1],"split_conditions":[2.6E1,1.4211936E9,7E-1,5.5E0,1.4628384E9,-6.708328E-2,4.7E1,1.4542295E-1,1.369008E9,1.6270387E-1,4E0,2.0957991E-1,-4.2185526E-2,3E0,-2.503864E-1,6E0,1E1,-6.462069E-2,8.15079E-2,2E0,1E0,1E0,9E0,-5.0191764E-2,1.2841266E-1,-1.2976845E-2,-2.670973E-1,-6.8468787E-3,2.2292759E-1,8.461895E-2,-9.069155E-2],"split_indices":[10,11,12,10,11,0,1,0,11,0,7,0,0,12,0,4,6,0,0,4,10,10,10,0,0,0,0,0,0,0,0],"split_type":[0,0,0,0,0,0,0,0,0,0,0,0,0,0,0,0,0,0,0,0,0,0,0,0,0,0,0,0,0,0,0],"sum_hessian":[4.086753E1,3.6352882E1,4.5146475E0,7.4852366E0,2.8867645E1,1.2674224E0,3.2472248E0,2.020274E0,5.4649625E0,2.1415577E0,2.6726088E1,1.9635606E0,1.2836643E0,2.3326337E0,3.1323287E0,1.2862085E1,1.3864002E1,1.0012381E0,1.3313955E0,1.0169807E1,2.6922777E0,3.5494077E0,1.0314594E1,8.677088E0,1.4927204E0,1.1887518E0,1.5035257E0,1.2753218E0,2.274086E0,4.1388636E0,6.175731E0],"tree_param":{"num_deleted":"0","num_feature":"16","num_nodes":"31","size_leaf_vector":"1"}},{"base_weights":[8.360725E-3,-4.3102402E-2,1.4312564E-1,1.5605949E-2,-3.2908717E-1,4.724578E-1,-7.071085E-2,-5.4412533E-2,4.4110048E-1,-5.0323135E-1,4.8697602E-2,2.116564E-1,5.3885886E-3,1.1997175E-1,-2.2018218E-1,-7.1366522E-3,-1.5752876E-1,-3.0087402E-2,2.035713E-1,-2.264849E-1,-2.3747135E-2,-4.818201E-1,2.1575312E-1,-1.49895E-1,1.7500684E-1,-1.847775E-1,-3.1227905E-2,1.9771185E-2,7.6326996E-2,2.9511048E-2,-1.6640027E-1,2.0883544E-1,-6.446688E-2],"categories":[],"categories_nodes":[],"categories_segments":[],"categories_sizes":[],"default_left":[0,0,0,0,0,0,0,0,0,0,0,0,0,0,0,0,0,0,0,0,0,0,0,0,0,0,0,0,0,0,0,0,0],"id":28,"left_children":[1,3,5,7,9,11,13,15,17,19,-1,-1,-1,-1,21,23,-1,-1,-1,-1,-1,25,27,29,31,-1,-1,-1,-1,-1,-1,-1,-1],"loss_changes":[2.9140097E-1,5.177282E-1,8.500797E-1,8.0709654E-1,5.3055334E-1,4.8471355E-1,6.4384085E-1,5.1830554E-1,5.596874E-1,3.7968397E-1,0E0,0E0,0E0,0E0,8.614569E-1,6.0695684E-1,0E0,0E0,0E0,0E0,0E0,1.6179407E-1,1.6694814E-3,1.3668724E0,2.2371366E0,0E0,0E0,0E0,0E0,0E0,0E0,0E0,0E0],"parents":[2147483647,0,0,1,1,2,2,3,3,4,4,5,5,6,6,7,7,8,8,9,9,14,14,15,15,21,21,22,22,23,23,24,24],"right_children":[2,4,6,8,10,12,14,16,18,20,-1,-1,-1,-1,22,24,-1,-1,-1,-1,-1,26,28,30,32,-1,-1,-1,-1,-1,-1,-1,-1],"split_conditions":[2.3333333E0,5E0,9E0,2E0,1.85E1,1E0,6E0,2E0,3E0,3.8E1,4.8697602E-2,2.116564E-1,5.3885886E-3,1.1997175E-1,1.3498E4,3.8E1,-1.5752876E-1,-3.0087402E-2,2.035713E-1,-2.264849E-1,-2.3747135E-2,1.5047424E9,1.3729824E9,1E0,2.7E1,-1.847775E-1,-3.1227905E-2,1.9771185E-2,7.6326996E-2,2.9511048E-2,-1.6640027E-1,2.0883544E-1,-6.446688E-2],"split_indices":[12,15,12,15,10,13,1,12,7,6,0,0,0,0,4,3,0,0,0,0,0,11,11,5,6,0,0,0,0,0,0,0,0],"split_type":[0,0,0,0,0,0,0,0,0,0,0,0,0,0,0,0,0,0,0,0,0,0,0,0,0,0,0,0,0,0,0,0,0],"sum_hessian":[4.0126816E1,2.9530188E1,1.0596625E1,2.5284992E1,4.245196E0,3.6955812E0,6.901045E0,2.246098E1,2.8240123E0,3.1166742E0,1.1285216E0,2.0777853E0,1.6177958E0,1.2596178E0,5.641427E0,2.1333395E1,1.1275846E0,1.0371523E0,1.7868599E0,1.4661689E0,1.6505054E0,3.459726E0,2.1817007E0,1.2058989E1,9.274407E0,2.087862E0,1.3718642E0,1.0022362E0,1.1794646E0,7.943722E0,4.115267E0,3.6331596E0,5.6412473E0],"tree_param":{"num_deleted":"0","num_feature":"16","num_nodes":"33","size_leaf_vector":"1"}},{"base_weights":[1.1719323E-2,1.8291384E-1,-2.0233605E-2,-1.1722034E-1,2.0013762E-1,1.3764702E-1,-6.1514776E-2,1.3084866E-1,-1.1873173E-1,-2.690901E-1,6.21405E-2,5.629422E-3,5.1505532E-2,-8.453951E-2,-6.174667E-1,-3.2290784E-1,1.3937522E-1,1.11197315E-1,-4.311666E-1,-2.7747247E-1,2.5616735E-2,-1.353072E-3,-1.4242801E-1,1.991135E-1,-1.1662995E-2,1.2553647E-1,-7.681836E-2,-1.6590238E-2,-1.7634358E-1,-8.074023E-2,4.6424028E-2],"categories":[],"categories_nodes":[],"categories_segments":[],"categories_sizes":[],"default_left":[0,0,0,0,0,0,0,0,0,0,0,0,0,0,0,0,0,0,0,0,0,0,0,0,0,0,0,0,0,0,0],"id":29,"left_children":[1,3,5,7,-1,-1,9,11,-1,13,15,-1,-1,17,19,21,23,25,27,-1,-1,-1,-1,-1,29,-1,-1,-1,-1,-1,-1],"loss_changes":[2.234954E-1,1.0111475E0,7.1565896E-1,3.844094E-1,0E0,0E0,8.608062E-1,1.1872165E-2,0E0,7.491656E-1,6.820389E-1,0E0,0E0,6.793737E-1,9.774004E-1,1.8546906E-1,1.4760475E0,8.680325E-1,1.7731708E-1,0E0,0E0,0E0,0E0,0E0,7.004795E-1,0E0,0E0,0E0,0E0,0E0,0E0],"parents":[2147483647,0,0,1,1,2,2,3,3,6,6,7,7,9,9,10,10,13,13,14,14,15,15,16,16,17,17,18,18,24,24],"right_children":[2,4,6,8,-1,-1,10,12,-1,14,16,-1,-1,18,20,22,24,26,28,-1,-1,-1,-1,-1,30,-1,-1,-1,-1,-1,-1],"split_conditions":[1.3E1,8E0,1E0,4E0,2.0013762E-1,1.3764702E-1,7E1,1.626048E9,-1.1873173E-1,1E0,4E0,5.629422E-3,5.1505532E-2,8E0,2E0,7.5E0,1.4E1,1E0,1.552176E9,-2.7747247E-1,2.5616735E-2,-1.353072E-3,-1.4242801E-1,1.991135E-1,3.5714287E-1,1.2553647E-1,-7.681836E-2,-1.6590238E-2,-1.7634358E-1,-8.074023E-2,4.6424028E-2],"split_indices":[0,0,14,3,0,0,3,11,0,15,14,0,0,4,5,10,14,5,11,0,0,0,0,0,13,0,0,0,0,0,0],"split_type":[0,0,0,0,0,0,0,0,0,0,0,0,0,0,0,0,0,0,0,0,0,0,0,0,0,0,0,0,0,0,0],"sum_hessian":[3.918057E1,5.419575E0,3.376099E1,3.8136396E0,1.6059357E0,1.8759936E0,3.1884998E1,2.2976685E0,1.5159711E0,1.146426E1,2.0420738E1,1.0033315E0,1.294337E0,8.306568E0,3.1576915E0,2.880307E0,1.7540432E1,5.742844E0,2.5637243E0,1.9769917E0,1.1806997E0,1.2626127E0,1.6176944E0,3.1635804E0,1.4376851E1,3.0509458E0,2.6918983E0,1.1521664E0,1.4115579E0,5.4018106E0,8.97504E0],"tree_param":{"num_deleted":"0","num_feature":"16","num_nodes":"31","size_leaf_vector":"1"}},{"base_weights":[1.0047476E-2,1.544233E-1,-3.425524E-2,2.0799808E-1,-7.757381E-2,-1.4888394E-1,1.21430475E-2,-5.3169525E-1,2.0591728E-1,-2.2379074E-1,7.877361E-2,-2.3131986E-1,-1.28785055E-2,-1.652896E-1,1.9820239E-1,-3.9539784E-1,8.816835E-2,4.0979287E-1,-1.7161107E-2,7.0357256E-2,-1.6006303E-1,-5.156781E-2,-1.8065217E-1,2.0963605E-1,-2.0876275E-2,-1.0014125E-1,3.6673415E-2,4.0520456E-2,-6.708928E-2,1.11441635E-1,-1.648758E-2],"categories":[],"categories_nodes":[],"categories_segments":[],"categories_sizes":[],"default_left":[0,0,0,0,0,0,0,0,0,0,0,0,0,0,0,0,0,0,0,0,0,0,0,0,0,0,0,0,0,0,0],"id":30,"left_children":[1,3,5,-1,7,-1,9,11,13,15,17,-1,-1,19,-1,21,-1,23,25,-1,-1,27,-1,-1,-1,-1,29,-1,-1,-1,-1],"loss_changes":[2.566321E-1,1.2300478E0,6.681557E-1,0E0,1.0719808E0,0E0,4.7421843E-1,3.3574075E-1,1.0078961E0,7.075583E-1,7.4974436E-1,0E0,0E0,6.74456E-1,0E0,3.5468864E-1,0E0,7.822352E-1,3.376996E-1,0E0,0E0,1.3075887E-1,0E0,0E0,0E0,0E0,5.48671E-1,0E0,0E0,0E0,0E0],"parents":[2147483647,0,0,1,1,2,2,4,4,6,6,7,7,8,8,9,9,10,10,13,13,15,15,17,17,18,18,21,21,26,26],"right_children":[2,4,6,-1,8,-1,10,12,14,16,18,-1,-1,20,-1,22,-1,24,26,-1,-1,28,-1,-1,-1,-1,30,-1,-1,-1,-1],"split_conditions":[1.3E1,2.3529412E-1,1.7E1,2.0799808E-1,1.6025472E9,-1.4888394E-1,3E0,1E0,8E0,5E0,4E0,-2.3131986E-1,-1.28785055E-2,3E0,1.9820239E-1,1E0,8.816835E-2,1.629072E9,1.3333334E-1,7.0357256E-2,-1.6006303E-1,9.5E1,-1.8065217E-1,2.0963605E-1,-2.0876275E-2,-1.0014125E-1,1.4E1,4.0520456E-2,-6.708928E-2,1.11441635E-1,-1.648758E-2],"split_indices":[3,13,3,0,11,0,7,10,0,14,5,0,0,3,0,4,0,11,13,0,0,0,0,0,0,0,14,0,0,0,0],"split_type":[0,0,0,0,0,0,0,0,0,0,0,0,0,0,0,0,0,0,0,0,0,0,0,0,0,0,0,0,0,0,0],"sum_hessian":[3.829531E1,8.4082985E0,2.988701E1,1.9319885E0,6.4763103E0,1.8426092E0,2.8044401E1,2.152583E0,4.323727E0,5.6564965E0,2.2387905E1,1.0572339E0,1.095349E0,2.7310073E0,1.5927199E0,4.4256577E0,1.2308387E0,4.295356E0,1.8092548E1,1.4835068E0,1.2475007E0,2.131222E0,2.294436E0,2.3942797E0,1.901076E0,1.8733499E0,1.62192E1,1.1254547E0,1.0057672E0,2.8289657E0,1.3390233E1],"tree_param":{"num_deleted":"0","num_feature":"16","num_nodes":"31","size_leaf_vector":"1"}},{"base_weights":[1.1130066E-2,-3.0523114E-2,1.1778284E-1,2.4894048E-2,-3.0156848E-1,4.1288126E-1,-6.0673434E-2,-2.8734056E-2,1.5539533E-1,1.902943E-2,-1.6568506E-1,1.9635677E-1,-4.9179123E-4,-1.5501367E-1,9.0467684E-2,1.2486012E-2,-1.251773E-1,1.2712945E-1,-1.3953015E-1,6.242266E-2,-1.0119073E-1,-1.3277261E-1,5.217408E-2,-1.8472698E-2,8.425513E-2],"categories":[],"categories_nodes":[],"categories_segments":[],"categories_sizes":[],"default_left":[0,0,0,0,0,0,0,0,0,0,0,0,0,0,0,0,0,0,0,0,0,0,0,0,0],"id":31,"left_children":[1,3,5,7,9,11,13,15,-1,-1,-1,-1,-1,-1,17,19,-1,-1,21,23,-1,-1,-1,-1,-1],"loss_changes":[1.7487472E-1,4.359078E-1,6.061503E-1,6.6547954E-1,4.8505524E-1,4.3042147E-1,5.8079135E-1,3.7575346E-1,0E0,0E0,0E0,0E0,0E0,0E0,5.704653E-1,4.0339604E-1,0E0,0E0,5.2332824E-1,5.5894077E-1,0E0,0E0,0E0,0E0,0E0],"parents":[2147483647,0,0,1,1,2,2,3,3,4,4,5,5,6,6,7,7,14,14,15,15,18,18,19,19],"right_children":[2,4,6,8,10,12,14,16,-1,-1,-1,-1,-1,-1,18,20,-1,-1,22,24,-1,-1,-1,-1,-1],"split_conditions":[2.3333333E0,1.533E3,9E0,5.74E2,1.5058656E9,1E0,1.1666667E1,7E1,1.5539533E-1,1.902943E-2,-1.6568506E-1,1.9635677E-1,-4.9179123E-4,-1.5501367E-1,4.561E3,5E0,-1.251773E-1,1.2712945E-1,1.3498E4,3.2E1,-1.0119073E-1,-1.3277261E-1,5.217408E-2,-1.8472698E-2,8.425513E-2],"split_indices":[12,0,12,0,11,13,12,6,0,0,0,0,0,0,7,15,0,0,4,3,0,0,0,0,0],"split_type":[0,0,0,0,0,0,0,0,0,0,0,0,0,0,0,0,0,0,0,0,0,0,0,0,0],"sum_hessian":[3.7555412E1,2.7520937E1,1.0034477E1,2.3603241E1,3.9176958E0,3.2864008E0,6.748077E0,2.213733E1,1.4659114E0,1.8994323E0,2.0182636E0,1.7103688E0,1.5760319E0,1.0776721E0,5.670405E0,2.0888992E1,1.2483367E0,1.9712831E0,3.6991217E0,1.8998291E1,1.8907007E0,1.6712952E0,2.0278265E0,1.2576748E1,6.421544E0],"tree_param":{"num_deleted":"0","num_feature":"16","num_nodes":"25","size_leaf_vector":"1"}},{"base_weights":[8.390408E-3,1.4567697E-1,-3.3870235E-2,1.9365637E-1,-4.9214866E-2,-2.7670226E-1,3.564132E-2,-2.9741308E-1,9.9781565E-2,-7.3472825E-3,-1.8657199E-1,1.6232982E-1,-1.4799349E-1,-1.5661182E-1,-3.2812312E-2,-1.2129497E-1,2.7932078E-1,4.0608862E-1,4.2459823E-2,-3.38004E-1,1.3029948E-2,-8.2003355E-2,7.165858E-2,1.7968681E-1,-6.5137476E-2,1.9087017E-1,8.794057E-2,-2.2202547E-1,2.6298743E-1,-5.612635E-1,1.499236E-2,3.0034226E-1,-2.586559E-1,-7.5145856E-2,1.1053767E-1,-1.5412498E-1,1.0621924E-2,-7.600978E-2,1.5560764E-1,-2.1239765E-1,-4.493475E-2,-2.037929E-2,1.7234908E-1,-1.4089142E-1,3.8567238E-2],"categories":[],"categories_nodes":[],"categories_segments":[],"categories_sizes":[],"default_left":[0,0,0,0,0,0,0,0,0,0,0,0,0,0,0,0,0,0,0,0,0,0,0,0,0,0,0,0,0,0,0,0,0,0,0,0,0,0,0,0,0,0,0,0,0],"id":32,"left_children":[1,3,5,-1,7,9,11,13,-1,15,-1,17,19,-1,21,-1,23,25,27,29,31,-1,-1,-1,-1,-1,33,35,37,39,-1,41,43,-1,-1,-1,-1,-1,-1,-1,-1,-1,-1,-1,-1],"loss_changes":[2.2434396E-1,9.1726303E-1,5.116523E-1,0E0,8.067434E-1,6.211965E-1,5.8231485E-1,2.8329328E-1,0E0,6.582819E-1,0E0,4.1162705E-1,3.2015806E-1,0E0,2.8667435E-1,0E0,6.65461E-1,2.897724E-1,6.9740653E-1,4.413169E-1,5.888921E-1,0E0,0E0,0E0,0E0,0E0,3.9060882E-1,4.33015E-1,9.80687E-1,8.1733465E-2,0E0,4.071078E-1,3.7925804E-1,0E0,0E0,0E0,0E0,0E0,0E0,0E0,0E0,0E0,0E0,0E0,0E0],"parents":[2147483647,0,0,1,1,2,2,4,4,5,5,6,6,7,7,9,9,11,11,12,12,14,14,16,16,17,17,18,18,19,19,20,20,26,26,27,27,28,28,29,29,31,31,32,32],"right_children":[2,4,6,-1,8,10,12,14,-1,16,-1,18,20,-1,22,-1,24,26,28,30,32,-1,-1,-1,-1,-1,34,36,38,40,-1,42,44,-1,-1,-1,-1,-1,-1,-1,-1,-1,-1,-1,-1],"split_conditions":[1.3E1,2.3529412E-1,1.764706E-1,1.9365637E-1,5.3333336E-1,1.5058656E9,1E0,1.5902784E9,9.9781565E-2,3.8E1,-1.8657199E-1,6E0,9.7E1,-1.5661182E-1,6E0,-1.2129497E-1,1.05E1,8E0,2E0,1.680912E9,1.8E1,-8.2003355E-2,7.165858E-2,1.7968681E-1,-6.5137476E-2,1.9087017E-1,1.51E2,4E0,1.05E1,4.3E1,1.499236E-2,2E0,7.3E1,-7.5145856E-2,1.1053767E-1,-1.5412498E-1,1.0621924E-2,-7.600978E-2,1.5560764E-1,-2.1239765E-1,-4.493475E-2,-2.037929E-2,1.7234908E-1,-1.4089142E-1,3.8567238E-2],"split_indices":[3,13,13,0,13,11,13,11,0,3,0,10,3,0,0,0,10,4,15,11,1,0,0,0,0,0,0,4,10,0,0,8,1,0,0,0,0,0,0,0,0,0,0,0,0],"split_type":[0,0,0,0,0,0,0,0,0,0,0,0,0,0,0,0,0,0,0,0,0,0,0,0,0,0,0,0,0,0,0,0,0,0,0,0,0,0,0,0,0,0,0,0,0],"sum_hessian":[3.6817425E1,8.089859E0,2.8727566E1,1.6207856E0,6.469074E0,5.729931E0,2.2997635E1,4.0545316E0,2.414542E0,3.7922275E0,1.9377034E0,1.3677578E1,9.320057E0,1.6666979E0,2.3878338E0,1.4180939E0,2.3741333E0,3.7216873E0,9.955891E0,3.7710512E0,5.5490055E0,1.2632458E0,1.1245881E0,1.3186411E0,1.0554924E0,1.5793768E0,2.1423106E0,4.5236955E0,5.4321947E0,2.1101468E0,1.6609044E0,2.6456795E0,2.903326E0,1.0194596E0,1.1228509E0,1.6538559E0,2.8698397E0,1.8021655E0,3.630029E0,1.0243001E0,1.0858467E0,1.4500445E0,1.1956348E0,1.7415411E0,1.1617849E0],"tree_param":{"num_deleted":"0","num_feature":"16","num_nodes":"45","size_leaf_vector":"1"}},{"base_weights":[7.986803E-3,-9.064314E-3,8.634697E-2,1.1433012E-2,-9.3912624E-2,-1.6457845E-2,1.1854101E-1,8.326547E-2,-1.1403706E-1,1.4178342E-1,-8.803255E-2,-3.884028E-1,-1.9648591E-2,-7.840094E-2,8.5155256E-2,8.651289E-2,-2.3397726E-1,1.3276559E-1,-3.68627E-2],"categories":[],"categories_nodes":[],"categories_segments":[],"categories_sizes":[],"default_left":[0,0,0,0,0,0,0,0,0,0,0,0,0,0,0,0,0,0,0],"id":33,"left_children":[1,3,-1,5,-1,7,-1,9,11,13,-1,15,17,-1,-1,-1,-1,-1,-1],"loss_changes":[1.7816748E-1,2.2570032E-1,0E0,3.742401E-1,0E0,3.3055374E-1,0E0,4.1405243E-1,4.3515742E-1,9.503043E-1,0E0,1.3704573E0,7.1159935E-1,0E0,0E0,0E0,0E0,0E0,0E0],"parents":[2147483647,0,0,1,1,3,3,5,5,7,7,8,8,9,9,11,11,12,12],"right_children":[2,4,-1,6,-1,8,-1,10,12,14,-1,16,18,-1,-1,-1,-1,-1,-1],"split_conditions":[3.75E1,3.25E1,8.634697E-2,2.6E1,-9.3912624E-2,1E0,1.1854101E-1,1.6919712E9,2E0,1E0,-8.803255E-2,2E0,4.7E1,-7.840094E-2,8.5155256E-2,8.651289E-2,-2.3397726E-1,1.3276559E-1,-3.68627E-2],"split_indices":[10,10,0,10,0,15,0,11,15,7,0,7,3,0,0,0,0,0,0],"split_type":[0,0,0,0,0,0,0,0,0,0,0,0,0,0,0,0,0,0,0],"sum_hessian":[3.5792973E1,3.4649315E1,1.1436586E0,3.3362087E1,1.2872283E0,3.1993626E1,1.3684617E0,1.5895522E1,1.6098104E1,1.4298075E1,1.5974473E0,3.3232465E0,1.27748575E1,3.5070913E0,1.0790983E1,1.314487E0,2.0087593E0,1.732116E0,1.1042742E1],"tree_param":{"num_deleted":"0","num_feature":"16","num_nodes":"19","size_leaf_vector":"1"}},{"base_weights":[7.198173E-3,-3.387488E-2,1.1450693E-1,1.9430213E-2,-1.9298373E-1,1.9476599E-1,-5.916403E-2,1.0796981E-1,-2.4011238E-2,-3.783269E-1,1.03039935E-1,-3.2943597E-1,3.9017268E-2,-2.407835E-1,7.947157E-2,3.293853E-1,-1.27571E-1,-1.7760415E-1,3.8349733E-2,-5.3474043E-2,2.7767396E-1,1.2606166E-1,2.3974037E-2,3.3259947E-2,-1.027574E-1,2.1106733E-2,-9.7015575E-2,1.3829876E-1,-7.633127E-2],"categories":[],"categories_nodes":[],"categories_segments":[],"categories_sizes":[],"default_left":[0,0,0,0,0,0,0,0,0,0,0,0,0,0,0,0,0,0,0,0,0,0,0,0,0,0,0,0,0],"id":34,"left_children":[1,3,5,7,-1,-1,9,-1,11,13,15,17,19,-1,-1,21,23,-1,-1,25,27,-1,-1,-1,-1,-1,-1,-1,-1],"loss_changes":[1.6420145E-1,8.9210474E-1,9.9464345E-1,3.9127865E-1,0E0,0E0,4.888133E-1,0E0,4.7256595E-1,1.0701065E0,3.837649E-1,5.788818E-1,4.7154412E-1,0E0,0E0,4.7606885E-2,2.4113256E-1,0E0,0E0,5.491457E-1,6.967469E-1,0E0,0E0,0E0,0E0,0E0,0E0,0E0,0E0],"parents":[2147483647,0,0,1,1,2,2,3,3,6,6,8,8,9,9,10,10,11,11,12,12,15,15,16,16,19,19,20,20],"right_children":[2,4,6,8,-1,-1,10,-1,12,14,16,18,20,-1,-1,22,24,-1,-1,26,28,-1,-1,-1,-1,-1,-1,-1,-1],"split_conditions":[1.6328736E9,1.625184E9,1.6517952E9,1.3E1,-1.9298373E-1,1.9476599E-1,1.6720992E9,1.0796981E-1,1.7E1,3E0,2.6E1,2E0,1.5367968E9,-2.407835E-1,7.947157E-2,2E0,1.6932672E9,-1.7760415E-1,3.8349733E-2,1.500336E9,1.61352E9,1.2606166E-1,2.3974037E-2,3.3259947E-2,-1.027574E-1,2.1106733E-2,-9.7015575E-2,1.3829876E-1,-7.633127E-2],"split_indices":[11,11,11,0,0,0,11,0,3,4,3,5,11,0,0,14,11,0,0,11,11,0,0,0,0,0,0,0,0],"split_type":[0,0,0,0,0,0,0,0,0,0,0,0,0,0,0,0,0,0,0,0,0,0,0,0,0,0,0,0,0],"sum_hessian":[3.537495E1,2.6077831E1,9.29712E0,2.4870504E1,1.2073277E0,1.608013E0,7.689107E0,1.9899237E0,2.288058E1,2.1419854E0,5.5471215E0,3.1909647E0,1.9689615E1,1.1413536E0,1.0006317E0,2.583294E0,2.9638276E0,1.8398122E0,1.3511525E0,1.4749421E1,4.940195E0,1.3921143E0,1.1911796E0,1.6347313E0,1.3290963E0,1.0617612E1,4.131809E0,3.773727E0,1.166468E0],"tree_param":{"num_deleted":"0","num_feature":"16","num_nodes":"29","size_leaf_vector":"1"}},{"base_weights":[4.635607E-3,7.431148E-2,-5.1748894E-2,4.423104E-1,-2.3509594E-2,-3.6358696E-1,1.2660247E-2,8.3326455E-3,1.818831E-1,-3.2055163E-1,9.3545824E-2,-1.4738883E-1,-2.332604E-2,1.1460731E-1,-1.6106926E-1,-1.6590142E-1,4.1812025E-2,1.6009599E-1,-7.81697E-3,1.676424E-1,-5.0972905E-2,-3.685557E-1,6.4140484E-2,-3.1051236E-1,1.4134651E-1,-4.3944234E-1,1.3760586E-1,-4.857336E-3,-1.5432447E-1,-7.313847E-2,1.2369676E-1,1.8722098E-2,-1.6827585E-1,-9.049086E-2,9.1761485E-2,-3.2889925E-2,-1.6239305E-1,-7.117946E-2,7.755824E-2],"categories":[],"categories_nodes":[],"categories_segments":[],"categories_sizes":[],"default_left":[0,0,0,0,0,0,0,0,0,0,0,0,0,0,0,0,0,0,0,0,0,0,0,0,0,0,0,0,0,0,0,0,0,0,0,0,0,0,0],"id":35,"left_children":[1,3,5,7,9,11,13,-1,-1,15,17,-1,-1,19,21,-1,-1,-1,23,-1,25,27,29,31,33,35,37,-1,-1,-1,-1,-1,-1,-1,-1,-1,-1,-1,-1],"loss_changes":[1.4401802E-1,5.9966373E-1,4.1253975E-1,2.202391E-1,5.1264673E-1,8.9946955E-2,3.3371496E-1,0E0,0E0,5.2073693E-1,4.8291105E-1,0E0,0E0,8.9649826E-1,3.5065103E-1,0E0,0E0,0E0,4.8222414E-1,0E0,7.573909E-1,1.8649429E-1,5.516445E-1,3.6348292E-1,6.163244E-1,5.3117692E-2,3.8617122E-1,0E0,0E0,0E0,0E0,0E0,0E0,0E0,0E0,0E0,0E0,0E0,0E0],"parents":[2147483647,0,0,1,1,2,2,3,3,4,4,5,5,6,6,9,9,10,10,13,13,14,14,18,18,20,20,21,21,22,22,23,23,24,24,25,25,26,26],"right_children":[2,4,6,8,10,12,14,-1,-1,16,18,-1,-1,20,22,-1,-1,-1,24,-1,26,28,30,32,34,36,38,-1,-1,-1,-1,-1,-1,-1,-1,-1,-1,-1,-1],"split_conditions":[4E0,1.5161472E9,1.3333334E-1,1E1,1.5698016E9,3.8E1,1E0,8.3326455E-3,1.818831E-1,2E0,2.6666668E-1,-1.4738883E-1,-2.332604E-2,3.4E1,1.0062E4,-1.6590142E-1,4.1812025E-2,1.6009599E-1,1.6328736E9,1.676424E-1,3.5E1,2.1E1,1.3938048E9,3.5714287E-1,1E0,1.7E1,1.7E1,-4.857336E-3,-1.5432447E-1,-7.313847E-2,1.2369676E-1,1.8722098E-2,-1.6827585E-1,-9.049086E-2,9.1761485E-2,-3.2889925E-2,-1.6239305E-1,-7.117946E-2,7.755824E-2],"split_indices":[5,11,13,3,11,3,13,0,0,4,13,0,0,6,0,0,0,0,11,0,7,5,11,13,14,14,14,0,0,0,0,0,0,0,0,0,0,0,0],"split_type":[0,0,0,0,0,0,0,0,0,0,0,0,0,0,0,0,0,0,0,0,0,0,0,0,0,0,0,0,0,0,0,0,0,0,0,0,0,0,0],"sum_hessian":[3.4679653E1,1.5369366E1,1.9310287E1,2.4879966E0,1.288137E1,2.5105333E0,1.6799753E1,1.0366274E0,1.4513693E0,3.149833E0,9.731537E0,1.2384019E0,1.2721316E0,1.0801553E1,5.9982004E0,1.9579003E0,1.1919328E0,1.0233716E0,8.708165E0,2.2881918E0,8.513361E0,2.7906587E0,3.207542E0,2.517581E0,6.1905837E0,2.347422E0,6.165939E0,1.142245E0,1.6484135E0,1.8612458E0,1.3462962E0,1.3129883E0,1.2045927E0,1.450838E0,4.739746E0,1.0438997E0,1.3035222E0,1.2691844E0,4.8967547E0],"tree_param":{"num_deleted":"0","num_feature":"16","num_nodes":"39","size_leaf_vector":"1"}},{"base_weights":[3.0079143E-4,-1.5040472E-2,7.657384E-2,4.1940347E-3,-7.640124E-2,-3.87325E-2,3.0767325E-1,1.5674645E-2,-4.6175525E-1,1.617714E-1,-3.4672648E-2,-2.223754E-2,1.17976286E-1,-1.8481553E-1,-3.9909136E-2,8.190448E-3,-1.4493567E-1],"categories":[],"categories_nodes":[],"categories_segments":[],"categories_sizes":[],"default_left":[0,0,0,0,0,0,0,0,0,0,0,0,0,0,0,0,0],"id":36,"left_children":[1,3,-1,5,-1,7,9,11,13,-1,-1,15,-1,-1,-1,-1,-1],"loss_changes":[1.4025806E-1,1.570602E-1,0E0,4.3286777E-1,0E0,6.7921835E-1,4.6573213E-1,3.9291108E-1,8.8472486E-2,0E0,0E0,5.9161884E-1,0E0,0E0,0E0,0E0,0E0],"parents":[2147483647,0,0,1,1,3,3,5,5,6,6,7,7,8,8,11,11],"right_children":[2,4,-1,6,-1,8,10,12,14,-1,-1,16,-1,-1,-1,-1,-1],"split_conditions":[3.75E1,4.92E2,7.657384E-2,1.803E3,-7.640124E-2,4.733E3,6.42E2,2.881E3,7.58E2,1.617714E-1,-3.4672648E-2,1.842E3,1.17976286E-1,-1.8481553E-1,-3.9909136E-2,8.190448E-3,-1.4493567E-1],"split_indices":[10,1,0,6,0,3,8,0,6,0,0,0,0,0,0,0,0],"split_type":[0,0,0,0,0,0,0,0,0,0,0,0,0,0,0,0,0],"sum_hessian":[3.3879223E1,3.2843857E1,1.0353647E0,3.1312946E1,1.5309114E0,2.819692E1,3.1160266E0,2.5836855E1,2.3600655E0,1.8369585E0,1.279068E0,2.4334564E1,1.5022908E0,1.0113119E0,1.3487536E0,2.282222E1,1.5123436E0],"tree_param":{"num_deleted":"0","num_feature":"16","num_nodes":"17","size_leaf_vector":"1"}},{"base_weights":[-2.3589863E-3,-2.6169924E-2,1.8451476E-1,1.7514605E-2,-3.746816E-1,1.17561884E-1,-2.9999545E-2,-2.1562409E-2,2.4617888E-1,-1.5746829E-1,-1.0121919E-2,7.6214243E-3,-1.103461E-1,1.5395026E-1,8.364497E-3,-4.404514E-2,2.8564695E-1,5.525865E-2,-4.7237467E-2,1.7849369E-2,-5.0676644E-2,1.730881E-1,-1.5759699E-2],"categories":[],"categories_nodes":[],"categories_segments":[],"categories_sizes":[],"default_left":[0,0,0,0,0,0,0,0,0,0,0,0,0,0,0,0,0,0,0,0,0,0,0],"id":37,"left_children":[1,3,5,7,9,-1,-1,11,13,-1,-1,15,-1,-1,17,19,21,-1,-1,-1,-1,-1,-1],"loss_changes":[1.5826452E-1,4.855486E-1,2.7643076E-1,2.6365572E-1,1.6404626E-1,0E0,0E0,2.616171E-1,2.6875117E-1,0E0,0E0,3.6596447E-1,0E0,0E0,1.2495792E-1,2.8949788E-1,4.2327467E-1,0E0,0E0,0E0,0E0,0E0,0E0],"parents":[2147483647,0,0,1,1,2,2,3,3,4,4,7,7,8,8,11,11,14,14,15,15,16,16],"right_children":[2,4,6,8,10,-1,-1,12,14,-1,-1,16,-1,-1,18,20,22,-1,-1,-1,-1,-1,-1],"split_conditions":[2.22E2,2.02E2,1.421E3,2.3333333E0,1.25E1,1.17561884E-1,-2.9999545E-2,3.46E2,1E0,-1.5746829E-1,-1.0121919E-2,2.7E1,-1.103461E-1,1.5395026E-1,5.1E1,5.7E1,1.5120864E9,5.525865E-2,-4.7237467E-2,1.7849369E-2,-5.0676644E-2,1.730881E-1,-1.5759699E-2],"split_indices":[15,14,15,12,10,0,0,4,13,0,0,7,0,0,4,0,11,0,0,0,0,0,0],"split_type":[0,0,0,0,0,0,0,0,0,0,0,0,0,0,0,0,0,0,0,0,0,0,0],"sum_hessian":[3.3482746E1,3.04614E1,3.0213482E0,2.7912434E1,2.5489662E0,1.529371E0,1.4919772E0,2.461211E1,3.3003228E0,1.3948699E0,1.1540961E0,2.360093E1,1.01118E0,1.0093265E0,2.2909963E0,2.0612085E1,2.988845E0,1.0581663E0,1.2328299E0,1.155483E1,9.057256E0,1.2263598E0,1.7624853E0],"tree_param":{"num_deleted":"0","num_feature":"16","num_nodes":"23","size_leaf_vector":"1"}},{"base_weights":[2.3639875E-3,-5.5063836E-2,7.068245E-2,1.1082334E-2,-3.607325E-1,4.0227506E-1,-3.345416E-2,2.408382E-1,-1.1058696E-1,-1.8097462E-2,-1.5561397E-1,6.865092E-4,1.907786E-1,-2.4523027E-1,5.309057E-2,4.227386E-1,-7.9049826E-2,-1.9704711E-1,3.1623248E-2,-5.2023297E-3,-1.0426009E-1,3.304088E-1,-7.2881036E-2,-5.4376435E-2,1.8890704E-1,1.23868234E-1,-9.7338185E-2,3.6684473E-3,1.5721472E-1,-1.3694581E-1,5.1747665E-2,-1.4149867E-1,1.0496098E-2,1.2401312E-1,-2.5159666E-2],"categories":[],"categories_nodes":[],"categories_segments":[],"categories_sizes":[],"default_left":[0,0,0,0,0,0,0,0,0,0,0,0,0,0,0,0,0,0,0,0,0,0,0,0,0,0,0,0,0,0,0,0,0,0,0],"id":38,"left_children":[1,3,5,7,9,11,13,15,17,-1,-1,-1,-1,19,21,23,-1,-1,25,-1,-1,27,29,-1,-1,-1,31,-1,-1,-1,33,-1,-1,-1,-1],"loss_changes":[1.3775454E-1,3.9016062E-1,5.666428E-1,4.9267596E-1,1.313763E-1,3.635422E-1,2.5338393E-1,6.6977847E-1,9.206944E-1,0E0,0E0,0E0,0E0,8.6822376E-2,3.7803265E-1,7.212792E-1,0E0,0E0,5.3905874E-1,0E0,0E0,1.997189E-1,3.95877E-1,0E0,0E0,0E0,4.3211836E-1,0E0,0E0,0E0,3.6693683E-1,0E0,0E0,0E0,0E0],"parents":[2147483647,0,0,1,1,2,2,3,3,4,4,5,5,6,6,7,7,8,8,13,13,14,14,15,15,18,18,21,21,22,22,26,26,30,30],"right_children":[2,4,6,8,10,12,14,16,18,-1,-1,-1,-1,20,22,24,-1,-1,26,-1,-1,28,30,-1,-1,-1,32,-1,-1,-1,34,-1,-1,-1,-1],"split_conditions":[1.57E2,1.62E2,7.6E1,1.5488928E9,4E0,1.501632E9,5.8E1,3E0,1.5698016E9,-1.8097462E-2,-1.5561397E-1,6.865092E-4,1.907786E-1,1.65E1,4.733E3,1.4014944E9,-7.9049826E-2,-1.9704711E-1,3.5714287E-1,-5.2023297E-3,-1.0426009E-1,2.7E1,7.82E2,-5.4376435E-2,1.8890704E-1,1.23868234E-1,1.6328736E9,3.6684473E-3,1.5721472E-1,-1.3694581E-1,6E0,-1.4149867E-1,1.0496098E-2,1.2401312E-1,-2.5159666E-2],"split_indices":[3,0,6,11,8,11,7,15,11,0,0,0,0,10,3,11,0,0,13,0,0,14,6,0,0,0,11,0,0,0,1,0,0,0,0],"split_type":[0,0,0,0,0,0,0,0,0,0,0,0,0,0,0,0,0,0,0,0,0,0,0,0,0,0,0,0,0,0,0,0,0,0,0],"sum_hessian":[3.3119175E1,1.8099188E1,1.5019987E1,1.567162E1,2.4275677E0,2.905456E0,1.2114531E1,5.0866766E0,1.0584944E1,1.3128922E0,1.1146754E0,1.4437405E0,1.4617156E0,2.9825716E0,9.131959E0,3.8572643E0,1.2294123E0,1.4389977E0,9.145946E0,1.2864357E0,1.6961359E0,2.3455348E0,6.786424E0,1.0160534E0,2.8412108E0,1.7551645E0,7.3907814E0,1.2896276E0,1.0559072E0,1.0112E0,5.775224E0,1.2605357E0,6.1302457E0,1.0164715E0,4.758753E0],"tree_param":{"num_deleted":"0","num_feature":"16","num_nodes":"35","size_leaf_vector":"1"}},{"base_weights":[1.3936878E-3,2.0227085E-1,-2.3471767E-2,-1.9769834E-2,1.0932378E-1,1.0828691E-2,-1.499172E-1,-6.5911025E-2,1.6595225E-1,1.0453013E-2,-2.7676794E-1,-1.3039815E-1,5.6136066E-1,-1.1475197E-1,4.746592E-1,-4.07653E-2,-1.5542476E-1,1.01589546E-1,-3.1791535E-1,1.0657914E-2,2.2010697E-1,4.029619E-2,-6.522787E-2,1.9021867E-1,1.2896587E-2,6.855086E-2,-9.27683E-2,-1.4219677E-1,-1.9343013E-2],"categories":[],"categories_nodes":[],"categories_segments":[],"categories_sizes":[],"default_left":[0,0,0,0,0,0,0,0,0,0,0,0,0,0,0,0,0,0,0,0,0,0,0,0,0,0,0,0,0],"id":39,"left_children":[1,3,5,-1,-1,7,-1,9,11,13,15,17,19,21,23,25,-1,-1,27,-1,-1,-1,-1,-1,-1,-1,-1,-1,-1],"loss_changes":[1.713004E-1,1.8823864E-1,5.047549E-1,0E0,0E0,3.6202493E-1,0E0,3.3213377E-1,1.2503269E0,9.829249E-1,2.905593E-1,6.840439E-1,3.809855E-1,3.715424E-1,2.1963608E-1,3.4913173E-1,0E0,0E0,1.7502737E-1,0E0,0E0,0E0,0E0,0E0,0E0,0E0,0E0,0E0,0E0],"parents":[2147483647,0,0,1,1,2,2,5,5,7,7,8,8,9,9,10,10,11,11,12,12,13,13,14,14,15,15,18,18],"right_children":[2,4,6,-1,-1,8,-1,10,12,14,16,18,20,22,24,26,-1,-1,28,-1,-1,-1,-1,-1,-1,-1,-1,-1,-1],"split_conditions":[1.369008E9,1.861E4,4.76E2,-1.9769834E-2,1.0932378E-1,1.25E1,-1.499172E-1,1.4E0,1.4E0,9E0,9E0,5E0,1.5E1,2.5E-1,5E0,7.1E2,-1.5542476E-1,1.01589546E-1,4E0,1.0657914E-2,2.2010697E-1,4.029619E-2,-6.522787E-2,1.9021867E-1,1.2896587E-2,6.855086E-2,-9.27683E-2,-1.4219677E-1,-1.9343013E-2],"split_indices":[11,0,1,0,0,10,0,12,12,7,10,6,6,12,8,5,0,0,4,0,0,0,0,0,0,0,0,0,0],"split_type":[0,0,0,0,0,0,0,0,0,0,0,0,0,0,0,0,0,0,0,0,0,0,0,0,0,0,0,0,0],"sum_hessian":[3.2344547E1,2.7768636E0,2.9567682E1,1.2699802E0,1.5068835E0,2.8492844E1,1.0748383E0,1.944734E1,9.045505E0,1.4974568E1,4.4727707E0,5.5534945E0,3.4920099E0,1.23865E1,2.5880682E0,2.8522427E0,1.6205281E0,1.3559743E0,4.19752E0,1.1596583E0,2.3323517E0,3.5256276E0,8.860873E0,1.5476944E0,1.0403738E0,1.4982955E0,1.353947E0,2.059188E0,2.138332E0],"tree_param":{"num_deleted":"0","num_feature":"16","num_nodes":"29","size_leaf_vector":"1"}},{"base_weights":[7.4761203E-3,-1.9309746E-2,1.7428035E-1,1.6027786E-2,-2.629671E-1,-3.23214E-2,1.2149632E-1,-2.6499532E-2,1.3157073E-1,5.1637817E-2,-1.6075103E-1,8.182673E-2,-1.6787578E-1,6.355665E-4,1.6777539E-1,-1.3542503E-1,-3.5412177E-2,2.5533507E-2,-8.170791E-2,8.57684E-2,-7.567562E-2],"categories":[],"categories_nodes":[],"categories_segments":[],"categories_sizes":[],"default_left":[0,0,0,0,0,0,0,0,0,0,0,0,0,0,0,0,0,0,0,0,0],"id":40,"left_children":[1,3,5,7,9,-1,-1,11,-1,-1,-1,13,15,17,-1,-1,19,-1,-1,-1,-1],"loss_changes":[1.4945047E-1,2.5453392E-1,3.4446603E-1,4.8480472E-1,5.3622735E-1,0E0,0E0,3.945778E-1,0E0,0E0,0E0,5.7146347E-1,4.0151045E-1,3.3702278E-1,0E0,0E0,6.7557824E-1,0E0,0E0,0E0,0E0],"parents":[2147483647,0,0,1,1,2,2,3,3,4,4,7,7,11,11,12,12,13,13,16,16],"right_children":[2,4,6,8,10,-1,-1,12,-1,-1,-1,14,16,18,-1,-1,20,-1,-1,-1,-1],"split_conditions":[2.45E1,2E1,3E-1,4.4E1,1E0,-3.23214E-2,1.2149632E-1,8E0,1.3157073E-1,5.1637817E-2,-1.6075103E-1,4E0,6E0,7E0,1.6777539E-1,-1.3542503E-1,1.578E3,2.5533507E-2,-8.170791E-2,8.57684E-2,-7.567562E-2],"split_indices":[10,10,13,1,1,0,0,4,0,0,0,4,7,7,0,0,3,0,0,0,0],"split_type":[0,0,0,0,0,0,0,0,0,0,0,0,0,0,0,0,0,0,0,0,0],"sum_hessian":[3.1695902E1,2.8072226E1,3.6236753E0,2.5332485E1,2.7397404E0,1.8703529E0,1.7533225E0,2.3867582E1,1.4649041E0,1.1982771E0,1.5414633E0,1.3751799E1,1.0115783E1,1.2608859E1,1.1429402E0,2.4543478E0,7.6614347E0,1.0154778E1,2.4540813E0,2.9587653E0,4.702669E0],"tree_param":{"num_deleted":"0","num_feature":"16","num_nodes":"21","size_leaf_vector":"1"}},{"base_weights":[9.905039E-3,-4.5845453E-2,7.823464E-2,2.01837E-2,-3.486401E-1,3.405833E-1,-2.2535862E-2,-2.33492E-2,9.928887E-2,-1.4428191E-1,-1.3069872E-2,-4.3260515E-2,1.6448334E-1,-1.1029841E-1,4.9132872E-2,-8.678693E-2,2.2753526E-1,-1.21211275E-1,1.5020128E-1,-1.8207441E-1,1.8137093E-1,1.1458946E-1,-1.572641E-2,1.2266234E-1,-1.13021426E-1,-9.239767E-2,3.1204027E-1,-3.52524E-3,-1.6222465E-1,1.3331044E-1,-5.710226E-2,-3.4488335E-2,8.9761995E-2,-6.9300644E-2,3.8365044E-2,1.532081E-1,-1.3577536E-2],"categories":[],"categories_nodes":[],"categories_segments":[],"categories_sizes":[],"default_left":[0,0,0,0,0,0,0,0,0,0,0,0,0,0,0,0,0,0,0,0,0,0,0,0,0,0,0,0,0,0,0,0,0,0,0,0,0],"id":41,"left_children":[1,3,5,7,9,11,13,15,-1,-1,-1,-1,-1,-1,17,19,21,23,25,27,29,-1,-1,31,-1,33,35,-1,-1,-1,-1,-1,-1,-1,-1,-1,-1],"loss_changes":[1.2607835E-1,3.7367254E-1,3.993944E-1,2.2419706E-1,1.1376062E-1,4.9933094E-1,3.0605224E-1,2.5797832E-1,0E0,0E0,0E0,0E0,0E0,0E0,1.993767E-1,3.568028E-1,1.625687E-1,3.2489002E-1,3.0567312E-1,5.9528184E-1,4.5832676E-1,0E0,0E0,1.6203567E-1,0E0,1.392459E-1,3.395377E-1,0E0,0E0,0E0,0E0,0E0,0E0,0E0,0E0,0E0,0E0],"parents":[2147483647,0,0,1,1,2,2,3,3,4,4,5,5,6,6,7,7,14,14,15,15,16,16,17,17,18,18,19,19,20,20,23,23,25,25,26,26],"right_children":[2,4,6,8,10,12,14,16,-1,-1,-1,-1,-1,-1,18,20,22,24,26,28,30,-1,-1,32,-1,34,36,-1,-1,-1,-1,-1,-1,-1,-1,-1,-1],"split_conditions":[1.57E2,1.62E2,1.4E1,9E0,6E0,1E0,1.7E1,1.680912E9,9.928887E-2,-1.4428191E-1,-1.3069872E-2,-4.3260515E-2,1.6448334E-1,-1.1029841E-1,1.3938048E9,2.9E1,2E0,1.369008E9,3.5714287E-1,1.6517952E9,1E0,1.1458946E-1,-1.572641E-2,1.6E1,-1.13021426E-1,1.4939424E9,1.620432E9,-3.52524E-3,-1.6222465E-1,1.3331044E-1,-5.710226E-2,-3.4488335E-2,8.9761995E-2,-6.9300644E-2,3.8365044E-2,1.532081E-1,-1.3577536E-2],"split_indices":[3,0,14,5,14,4,14,11,0,0,0,0,0,0,11,3,14,11,13,11,15,0,0,10,0,11,11,0,0,0,0,0,0,0,0,0,0],"split_type":[0,0,0,0,0,0,0,0,0,0,0,0,0,0,0,0,0,0,0,0,0,0,0,0,0,0,0,0,0,0,0,0,0,0,0,0,0],"sum_hessian":[3.1155025E1,1.7337952E1,1.3817073E1,1.5000252E1,2.3376997E0,3.1740015E0,1.0643072E1,1.3968466E1,1.0317866E0,1.2284817E0,1.109218E0,1.0436633E0,2.1303382E0,1.1199359E0,9.523136E0,1.1671363E1,2.2971025E0,3.4720035E0,6.051132E0,8.848239E0,2.8231242E0,1.2456214E0,1.051481E0,2.0425582E0,1.4294453E0,2.593106E0,3.4580264E0,6.6995754E0,2.1486635E0,1.5388663E0,1.284258E0,1.0193578E0,1.0232003E0,1.5617548E0,1.0313512E0,1.9464866E0,1.5115397E0],"tree_param":{"num_deleted":"0","num_feature":"16","num_nodes":"37","size_leaf_vector":"1"}},{"base_weights":[9.711372E-3,7.4672565E-2,-4.803675E-2,-1.6202986E-2,3.1975716E-1,-2.032469E-1,4.0854942E-2,1.00478105E-1,-9.230499E-2,1.766055E-1,1.0115468E-3,6.265502E-2,-3.2881504E-1,-6.959898E-2,1.1438951E-1,-4.1969943E-1,6.486707E-2,-5.017078E-1,-5.265637E-2,1.6327497E-1,9.22311E-5,2.1769598E-2,-2.0011358E-1,2.738327E-1,-2.651175E-1,-1.812513E-1,-4.767348E-2,4.5619648E-2,-6.727891E-2,-1.06992E-1,1.8238437E-1,1.6484882E-1,2.4985991E-2,-2.0041281E-1,8.947147E-2,3.4537505E-2,-1.0259012E-1,9.853798E-2,-3.0208098E-2],"categories":[],"categories_nodes":[],"categories_segments":[],"categories_sizes":[],"default_left":[0,0,0,0,0,0,0,0,0,0,0,0,0,0,0,0,0,0,0,0,0,0,0,0,0,0,0,0,0,0,0,0,0,0,0,0,0,0,0],"id":42,"left_children":[1,3,5,7,9,11,13,-1,15,-1,-1,-1,17,-1,19,21,23,25,27,-1,29,-1,-1,31,33,-1,-1,-1,-1,35,37,-1,-1,-1,-1,-1,-1,-1,-1],"loss_changes":[1.2204156E-1,3.4486583E-1,2.4733049E-1,3.5365546E-1,3.5313252E-1,4.03797E-1,2.642643E-1,0E0,5.783512E-1,0E0,0E0,0E0,2.291289E-1,0E0,4.914085E-1,4.8769373E-1,6.3131166E-1,1.548332E-2,1.4574982E-1,0E0,1.9328572E-1,0E0,0E0,2.4065518E-1,1.0276724E0,0E0,0E0,0E0,0E0,3.6494502E-1,1.8457997E-1,0E0,0E0,0E0,0E0,0E0,0E0,0E0,0E0],"parents":[2147483647,0,0,1,1,2,2,3,3,4,4,5,5,6,6,8,8,12,12,14,14,15,15,16,16,17,17,18,18,20,20,23,23,24,24,29,29,30,30],"right_children":[2,4,6,8,10,12,14,-1,16,-1,-1,-1,18,-1,20,22,24,26,28,-1,30,-1,-1,32,34,-1,-1,-1,-1,36,38,-1,-1,-1,-1,-1,-1,-1,-1],"split_conditions":[4E0,6E0,3E0,1.5161472E9,1.1E1,2E0,1.764706E-1,1.00478105E-1,1.5698016E9,1.766055E-1,1.0115468E-3,6.265502E-2,1E1,-6.959898E-2,5.4E1,5E0,2E0,1E0,4.8E1,1.6327497E-1,2.1428572E1,2.1769598E-2,-2.0011358E-1,4E0,1E0,-1.812513E-1,-4.767348E-2,4.5619648E-2,-6.727891E-2,9E0,1.54E2,1.6484882E-1,2.4985991E-2,-2.0041281E-1,8.947147E-2,3.4537505E-2,-1.0259012E-1,9.853798E-2,-3.0208098E-2],"split_indices":[5,7,8,11,10,4,13,0,11,0,0,0,4,0,7,6,7,10,6,0,12,0,0,3,10,0,0,0,0,12,9,0,0,0,0,0,0,0,0],"split_type":[0,0,0,0,0,0,0,0,0,0,0,0,0,0,0,0,0,0,0,0,0,0,0,0,0,0,0,0,0,0,0,0,0,0,0,0,0,0,0],"sum_hessian":[3.0576202E1,1.4251516E1,1.6324686E1,1.1077828E1,3.173688E0,5.4762945E0,1.0848391E1,1.3674536E0,9.710375E0,1.250286E0,1.923402E0,1.1240572E0,4.3522377E0,1.8455408E0,9.00285E0,2.6078405E0,7.1025343E0,2.1742704E0,2.1779673E0,1.1008732E0,7.9019766E0,1.1084466E0,1.4993939E0,4.452876E0,2.649658E0,1.0869098E0,1.0873605E0,1.0450838E0,1.1328834E0,5.2380514E0,2.663925E0,1.0500176E0,3.4028585E0,1.4364489E0,1.2132092E0,2.9549003E0,2.2831514E0,1.6514293E0,1.0124958E0],"tree_param":{"num_deleted":"0","num_feature":"16","num_nodes":"39","size_leaf_vector":"1"}},{"base_weights":[1.2016629E-2,-1.5161468E-1,3.793724E-2,2.8412795E-4,-7.866694E-2,1.595206E-1,-1.0283221E-3,1.09986365E-1,-3.5707295E-2,-1.6232452E-1,4.7456354E-2,6.5489516E-2,-2.7134535E-1,1.13208786E-1,-8.796956E-3,7.5106755E-2,-7.2229296E-2,-1.2309764E-1,1.718125E-2,-1.0528657E-1,1.554062E-2],"categories":[],"categories_nodes":[],"categories_segments":[],"categories_sizes":[],"default_left":[0,0,0,0,0,0,0,0,0,0,0,0,0,0,0,0,0,0,0,0,0],"id":43,"left_children":[1,3,5,-1,-1,-1,7,-1,9,11,13,15,17,-1,19,-1,-1,-1,-1,-1,-1],"loss_changes":[1.3657555E-1,7.480042E-2,5.282593E-1,0E0,0E0,0E0,3.4991848E-1,0E0,2.715053E-1,2.7005476E-1,2.982988E-1,2.9202196E-1,3.461452E-1,0E0,3.2000116E-1,0E0,0E0,0E0,0E0,0E0,0E0],"parents":[2147483647,0,0,1,1,2,2,6,6,8,8,9,9,10,10,11,11,12,12,14,14],"right_children":[2,4,6,-1,-1,-1,8,-1,10,12,14,16,18,-1,20,-1,-1,-1,-1,-1,-1],"split_conditions":[8E0,1E0,1.3E1,2.8412795E-4,-7.866694E-2,1.595206E-1,1E0,1.09986365E-1,7E1,2E0,2.7E1,4E0,1.15E1,1.13208786E-1,3.8E1,7.5106755E-2,-7.2229296E-2,-1.2309764E-1,1.718125E-2,-1.0528657E-1,1.554062E-2],"split_indices":[0,6,0,0,0,0,14,0,3,7,6,4,10,0,6,0,0,0,0,0,0],"split_type":[0,0,0,0,0,0,0,0,0,0,0,0,0,0,0,0,0,0,0,0,0],"sum_hessian":[2.984429E1,3.4179986E0,2.6426292E1,1.8532525E0,1.564746E0,1.0078496E0,2.5418442E1,1.365907E0,2.4052536E1,9.157822E0,1.4894714E1,3.0932796E0,6.064542E0,1.3382232E0,1.3556491E1,2.0427318E0,1.050548E0,4.0872803E0,1.9772614E0,1.318794E0,1.2237697E1],"tree_param":{"num_deleted":"0","num_feature":"16","num_nodes":"21","size_leaf_vector":"1"}},{"base_weights":[1.3308062E-2,7.464408E-2,-4.0864304E-2,4.7975937E-3,1.0679235E-1,1.1133739E-1,-1.0420454E-1,1.0369703E-1,-3.241681E-1,-6.836392E-2,3.649125E-1,-2.7952373E-1,5.0820805E-2,-5.3495884E-2,4.161701E-1,-1.5624751E-2,-1.2823586E-1,1.8538305E-1,-3.6357656E-2,3.2193616E-2,-4.5068792E-1,2.5746846E-1,-1.6788502E-1,6.226707E-2,-1.4266601E-1,1.7930889E-1,1.27337435E-2,-5.3009283E-2,6.888015E-2,-1.7611817E-1,-4.7303718E-2,1.3500687E-1,-1.4892171E-2,-3.6799657E-1,5.7307478E-2,-8.315612E-2,5.3363893E-2,-2.3759674E-2,-1.4232393E-1],"categories":[],"categories_nodes":[],"categories_segments":[],"categories_sizes":[],"default_left":[0,0,0,0,0,0,0,0,0,0,0,0,0,0,0,0,0,0,0,0,0,0,0,0,0,0,0,0,0,0,0,0,0,0,0,0,0,0,0],"id":44,"left_children":[1,3,5,7,-1,9,11,13,15,-1,17,19,21,23,25,-1,-1,-1,-1,27,29,31,33,-1,35,-1,-1,-1,-1,-1,-1,-1,-1,37,-1,-1,-1,-1,-1],"loss_changes":[1.0452214E-1,2.8667867E-1,1.7416577E-1,4.4910964E-1,0E0,5.509844E-1,3.5187188E-1,5.4176944E-1,6.750429E-2,0E0,5.049809E-1,3.3379236E-1,3.794621E-1,2.1403891E-1,2.2250593E-1,0E0,0E0,0E0,0E0,1.6652672E-1,6.445527E-2,2.7188936E-1,3.7336355E-1,0E0,3.2950976E-1,0E0,0E0,0E0,0E0,0E0,0E0,0E0,0E0,5.6189626E-2,0E0,0E0,0E0,0E0,0E0],"parents":[2147483647,0,0,1,1,2,2,3,3,5,5,6,6,7,7,8,8,10,10,11,11,12,12,13,13,14,14,19,19,20,20,21,21,22,22,24,24,33,33],"right_children":[2,4,6,8,-1,10,12,14,16,-1,18,20,22,24,26,-1,-1,-1,-1,28,30,32,34,-1,36,-1,-1,-1,-1,-1,-1,-1,-1,38,-1,-1,-1,-1,-1],"split_conditions":[4E0,1.86E2,6E0,4.7E1,1.0679235E-1,3.8E1,7E0,1.6E1,1E0,-6.836392E-2,1.01E2,1.4E1,1.6E1,1.5486336E9,1.6612128E9,-1.5624751E-2,-1.2823586E-1,1.8538305E-1,-3.6357656E-2,1.15E1,1.454112E9,3.1E1,1.5689E4,6.226707E-2,1E0,1.7930889E-1,1.27337435E-2,-5.3009283E-2,6.888015E-2,-1.7611817E-1,-4.7303718E-2,1.3500687E-1,-1.4892171E-2,9.829E3,5.7307478E-2,-8.315612E-2,5.3363893E-2,-2.3759674E-2,-1.4232393E-1],"split_indices":[5,0,10,3,0,3,8,3,15,0,8,14,2,11,11,0,0,0,0,10,11,15,7,0,4,0,0,0,0,0,0,0,0,4,0,0,0,0,0],"split_type":[0,0,0,0,0,0,0,0,0,0,0,0,0,0,0,0,0,0,0,0,0,0,0,0,0,0,0,0,0,0,0,0,0,0,0,0,0,0,0],"sum_hessian":[2.953882E1,1.3676203E1,1.5862617E1,1.1770876E1,1.9053266E0,4.438787E0,1.142383E1,9.576576E0,2.1943E0,1.9420993E0,2.496688E0,4.984144E0,6.439686E0,6.9227905E0,2.6537857E0,1.0176748E0,1.1766251E0,1.4636189E0,1.0330689E0,2.0544946E0,2.9296494E0,3.2199905E0,3.2196953E0,1.4245765E0,5.498214E0,1.3828211E0,1.2709646E0,1.049182E0,1.0053127E0,1.3143594E0,1.61529E0,1.6930879E0,1.5269024E0,2.0508943E0,1.1688011E0,3.9681814E0,1.5300325E0,1.0218874E0,1.0290068E0],"tree_param":{"num_deleted":"0","num_feature":"16",