{"learner":{"attributes":{"scikit_learn":"{\"_estimator_type\": \"classifier\"}"},"feature_names":["mapping_days","Map_changes","Reverted_changes","restored_changesets","restored_map_edits","nodes_Created","nodes_Modified","nodes_Deleted","Ways_Created","Ways_Modified","Ways_Deleted","Relations_Created","Relations_Modified","Relations_Deleted","Overall","comments","Median_length","Registered_timeStamp","average_year","efficient_year","weekday","weekend","usualEdit"],"feature_types":["int","int","int","int","int","int","int","int","int","int","int","int","int","int","int","int","float","int","float","float","int","int","float"],"gradient_booster":{"model":{"gbtree_model_param":{"num_parallel_tree":"1","num_trees":"300"},"iteration_indptr":[0,3,6,9,12,15,18,21,24,27,30,33,36,39,42,45,48,51,54,57,60,63,66,69,72,75,78,81,84,87,90,93,96,99,102,105,108,111,114,117,120,123,126,129,132,135,138,141,144,147,150,153,156,159,162,165,168,171,174,177,180,183,186,189,192,195,198,201,204,207,210,213,216,219,222,225,228,231,234,237,240,243,246,249,252,255,258,261,264,267,270,273,276,279,282,285,288,291,294,297,300],"tree_info":[0,1,2,0,1,2,0,1,2,0,1,2,0,1,2,0,1,2,0,1,2,0,1,2,0,1,2,0,1,2,0,1,2,0,1,2,0,1,2,0,1,2,0,1,2,0,1,2,0,1,2,0,1,2,0,1,2,0,1,2,0,1,2,0,1,2,0,1,2,0,1,2,0,1,2,0,1,2,0,1,2,0,1,2,0,1,2,0,1,2,0,1,2,0,1,2,0,1,2,0,1,2,0,1,2,0,1,2,0,1,2,0,1,2,0,1,2,0,1,2,0,1,2,0,1,2,0,1,2,0,1,2,0,1,2,0,1,2,0,1,2,0,1,2,0,1,2,0,1,2,0,1,2,0,1,2,0,1,2,0,1,2,0,1,2,0,1,2,0,1,2,0,1,2,0,1,2,0,1,2,0,1,2,0,1,2,0,1,2,0,1,2,0,1,2,0,1,2,0,1,2,0,1,2,0,1,2,0,1,2,0,1,2,0,1,2,0,1,2,0,1,2,0,1,2,0,1,2,0,1,2,0,1,2,0,1,2,0,1,2,0,1,2,0,1,2,0,1,2,0,1,2,0,1,2,0,1,2,0,1,2,0,1,2,0,1,2,0,1,2,0,1,2,0,1,2,0,1,2,0,1,2,0,1,2,0,1,2,0,1,2,0,1,2,0,1,2,0,1,2],"trees":[{"base_weights":[-6.465849E-1,-6.604775E-1,-5.1669604E-1,-6.6209865E-1,-7.663455E-9,-3.636364E-1,-6.619218E-1,-2.727273E-1,-6.63515E-1,-4.8275867E-1,3.9999998E-1,-6.914499E-1,-7.663455E-9,-1.2857145E-1,-7.663455E-9,-6.4227647E-1,-2.1152611E-1,-2.0769234E-1,-2.941177E-1,-7.663455E-9,5.454545E-1,-3.658537E-1,-2.1645573E-1,-6.470767E-1,3.1034475E-2,1.2857142E-1,-3.8297877E-1,2.5714284E-1,-7.663455E-9,-1.5517244E-1,-7.663455E-9,-1.9479455E-1,-3.600001E-2,-1.3846156E-1,-9.753488E-9],"categories":[],"categories_nodes":[],"categories_segments":[],"categories_sizes":[],"default_left":[0,0,0,0,0,0,0,0,0,0,0,0,0,0,0,0,0,0,0,0,0,0,0,0,0,0,0,0,0,0,0,0,0,0,0],"id":0,"left_children":[1,3,5,7,-1,9,11,13,15,17,19,21,-1,-1,-1,23,-1,-1,25,-1,27,29,-1,31,-1,-1,33,-1,-1,-1,-1,-1,-1,-1,-1],"loss_changes":[7.536621E-1,5.830841E-1,1.1646175E0,1.1859131E-1,0E0,3.1949844E0,6.102476E-1,1.5584415E-1,2.4414062E-2,9.427366E-1,2.9090905E-1,2.8654099E-2,0E0,0E0,0E0,1.3878326E0,0E0,0E0,1.2558559E0,0E0,6.233767E-1,2.5231284E-1,0E0,3.5481262E-1,0E0,0E0,4.713583E-1,0E0,0E0,0E0,0E0,0E0,0E0,0E0,0E0],"parents":[2147483647,0,0,1,1,2,2,3,3,5,5,6,6,7,7,8,8,9,9,10,10,11,11,15,15,18,18,20,20,21,21,23,23,26,26],"right_children":[2,4,6,8,-1,10,12,14,16,18,20,22,-1,-1,-1,24,-1,-1,26,-1,28,30,-1,32,-1,-1,34,-1,-1,-1,-1,-1,-1,-1,-1],"split_conditions":[1.6629408E9,2.601E4,1E1,1.1917152E9,-7.663455E-9,5E0,1.98E2,3.31E2,5.3333336E-1,5E0,3.4E1,2E0,-7.663455E-9,-1.2857145E-1,-7.663455E-9,4.557E3,-2.1152611E-1,-2.0769234E-1,8E0,-7.663455E-9,4.1E1,2E0,-2.1645573E-1,7.4E1,3.1034475E-2,1.2857142E-1,1.01E2,2.5714284E-1,-7.663455E-9,-1.5517244E-1,-7.663455E-9,-1.9479455E-1,-3.600001E-2,-1.3846156E-1,-9.753488E-9],"split_indices":[17,2,6,17,0,7,11,0,19,5,1,20,0,0,0,14,0,0,1,0,5,0,0,4,0,0,1,0,0,0,0,0,0,0,0],"split_type":[0,0,0,0,0,0,0,0,0,0,0,0,0,0,0,0,0,0,0,0,0,0,0,0,0,0,0,0,0,0,0,0,0,0,0],"sum_hessian":[6.057778E2,5.4355554E2,6.2222218E1,5.4222217E2,1.3333333E0,3.1999998E1,3.0222221E1,2.6666665E0,5.3955554E2,2.7999998E1,3.9999998E0,2.8888887E1,1.3333333E0,1.3333333E0,1.3333333E0,3.6799997E2,1.7155554E2,1.1999999E1,1.5999999E1,1.3333333E0,2.6666665E0,3.5555553E0,2.5333332E1,3.6577777E2,2.222222E0,1.3333333E0,1.4666666E1,1.3333333E0,1.3333333E0,2.222222E0,1.3333333E0,3.6399997E2,1.7777777E0,1.1999999E1,2.6666665E0],"tree_param":{"num_deleted":"0","num_feature":"23","num_nodes":"35","size_leaf_vector":"1"}},{"base_weights":[1.1415491E0,9.500337E-1,1.2100778E0,9.7114706E-1,3.913043E-1,1.2316227E0,9.847328E-1,9.7941804E-1,-7.663455E-9,-2.727273E-1,7.9999995E-1,5.454545E-1,1.2348506E0,1.015748E0,-7.663455E-9,6.687898E-1,1.0111023E0,-7.663455E-9,-1.2857145E-1,-7.663455E-9,3.2727274E-1,-7.663455E-9,2.5714284E-1,5.454545E-1,3.714366E-1,-7.663455E-9,1.0487804E0,8.1021893E-1,-6.206898E-2,8.4526557E-1,1.0860215E0,-7.663455E-9,2.5714284E-1,6.666666E-1,1.1212121E0,1.1688311E-1,3.5217392E-1,2.654676E-1,-3.600001E-2,3.4146684E-1,2.2335768E-1,2.7391306E-1,-1.2857145E-1,7.2E-2,3.4911034E-1],"categories":[],"categories_nodes":[],"categories_segments":[],"categories_sizes":[],"default_left":[0,0,0,0,0,0,0,0,0,0,0,0,0,0,0,0,0,0,0,0,0,0,0,0,0,0,0,0,0,0,0,0,0,0,0,0,0,0,0,0,0,0,0,0,0],"id":1,"left_children":[1,3,5,7,9,11,13,15,-1,17,19,21,23,25,-1,27,29,-1,-1,-1,-1,-1,-1,31,-1,-1,33,35,-1,37,39,-1,-1,41,43,-1,-1,-1,-1,-1,-1,-1,-1,-1,-1],"loss_changes":[6.813904E0,1.5611877E0,9.390869E-1,1.268219E0,2.2988138E0,2.1356201E-1,1.3336525E0,8.64624E-1,0E0,1.5584415E-1,1.1636364E0,6.233767E-1,2.2198486E-1,1.4203987E0,0E0,2.3280835E0,8.2281494E-1,0E0,0E0,0E0,0E0,0E0,0E0,6.233767E-1,0E0,0E0,3.872795E-1,1.8712187E0,0E0,1.9464417E0,8.104248E-1,0E0,0E0,2.8198767E0,9.56295E-1,0E0,0E0,0E0,0E0,0E0,0E0,0E0,0E0,0E0,0E0],"parents":[2147483647,0,0,1,1,2,2,3,3,4,4,5,5,6,6,7,7,9,9,10,10,11,11,12,12,13,13,15,15,16,16,23,23,26,26,27,27,29,29,30,30,33,33,34,34],"right_children":[2,4,6,8,10,12,14,16,-1,18,20,22,24,26,-1,28,30,-1,-1,-1,-1,-1,-1,32,-1,-1,34,36,-1,38,40,-1,-1,42,44,-1,-1,-1,-1,-1,-1,-1,-1,-1,-1],"split_conditions":[5E0,3.15E1,1.6564608E9,3E1,3.75E1,1.6E1,6.65E1,1.25E-1,-7.663455E-9,1E0,2E1,2E0,1.1917152E9,1.657584E9,-7.663455E-9,6E0,9E0,-7.663455E-9,-1.2857145E-1,-7.663455E-9,3.2727274E-1,-7.663455E-9,2.5714284E-1,1.861E4,3.714366E-1,-7.663455E-9,4E0,1.7E1,-6.206898E-2,3E0,2.8E1,-7.663455E-9,2.5714284E-1,1.35E1,2E0,1.1688311E-1,3.5217392E-1,2.654676E-1,-3.600001E-2,3.4146684E-1,2.2335768E-1,2.7391306E-1,-1.2857145E-1,7.2E-2,3.4911034E-1],"split_indices":[8,16,17,18,16,5,16,19,0,5,1,0,17,17,0,14,1,0,0,0,0,0,0,1,0,0,6,1,0,0,5,0,0,16,16,0,0,0,0,0,0,0,0,0,0],"split_type":[0,0,0,0,0,0,0,0,0,0,0,0,0,0,0,0,0,0,0,0,0,0,0,0,0,0,0,0,0,0,0,0,0,0,0,0,0,0,0,0,0,0,0,0,0],"sum_hessian":[6.057778E2,1.6355554E2,4.422222E2,1.5688889E2,6.666666E0,3.9955554E2,4.2666664E1,1.5555554E2,1.3333333E0,2.6666665E0,3.9999998E0,2.6666665E0,3.9688885E2,4.1333332E1,1.3333333E0,1.6444443E1,1.391111E2,1.3333333E0,1.3333333E0,1.3333333E0,2.6666665E0,1.3333333E0,1.3333333E0,2.6666665E0,3.942222E2,1.3333333E0,3.9999996E1,1.4222221E1,2.222222E0,4.7111107E1,9.199999E1,1.3333333E0,1.3333333E0,7.9999995E0,3.1999998E1,7.5555553E0,6.666666E0,4.5333332E1,1.7777777E0,7.777777E1,1.4222221E1,6.666666E0,1.3333333E0,1.7777777E0,3.0222221E1],"tree_param":{"num_deleted":"0","num_feature":"23","num_nodes":"45","size_leaf_vector":"1"}},{"base_weights":[-4.9496436E-1,-2.5077406E-1,-5.4654527E-1,-1.9867593E-2,-4.4571435E-1,-5.710161E-1,-4.0656212E-1,1.4018688E-1,-3.8297877E-1,-5.907693E-1,-2.0095699E-1,-4.6308732E-1,-5.9550935E-1,-3.0825692E-1,-2.127273E-1,3.5751292E-1,-1.7518252E-1,-4.7107443E-1,3.1034475E-2,-6.134186E-1,-7.663455E-9,1.0619465E-1,-5.1428574E-1,-4.978724E-1,1.2244894E-1,-2.2049E-1,-5.6969243E-1,-4.020619E-1,3.913043E-1,1.5328464E-1,7.384615E-1,-3.223141E-1,1.7999999E-1,-1.463415E-1,-5.7303375E-1,-1.9090912E-1,-3.600001E-2,-1.643836E-1,4.897959E-1,-1.9870132E-1,-8.1081115E-2,-5.1678836E-1,3.1034475E-2,1.7999999E-1,-2.727273E-1,-4.3835622E-1,-6.1057943E-1,-4.5031717E-1,2.5714284E-1,3.1034482E-1,-6.1224528E-2,-7.346941E-2,1.02061845E-1,3E-1,3.1034475E-2,-1.6941178E-1,5.9999995E-2,-1.4400001E-1,7.2E-2,-1.9870132E-1,-7.663455E-9,1.6981121E-2,-1.5517244E-1,2.8800002E-1,-9.753488E-9,1.2857142E-1,-1.4400001E-1,-1.7054412E-1,-9.5031075E-2,-1.2857145E-1,-7.663455E-9,4.736841E-2,-1.4630544E-1,-1.9087742E-1,-1.2857145E-1,-4.8322167E-2,-1.702703E-1,1.7999999E-1,-1.6363637E-1],"categories":[],"categories_nodes":[],"categories_segments":[],"categories_sizes":[],"default_left":[0,0,0,0,0,0,0,0,0,0,0,0,0,0,0,0,0,0,0,0,0,0,0,0,0,0,0,0,0,0,0,0,0,0,0,0,0,0,0,0,0,0,0,0,0,0,0,0,0,0,0,0,0,0,0,0,0,0,0,0,0,0,0,0,0,0,0,0,0,0,0,0,0,0,0,0,0,0,0],"id":2,"left_children":[1,3,5,7,9,11,13,15,17,19,21,23,25,27,-1,29,31,33,-1,35,-1,37,39,41,43,-1,45,47,49,51,53,55,-1,57,59,-1,-1,61,63,-1,65,67,-1,-1,69,71,73,75,-1,-1,77,-1,-1,-1,-1,-1,-1,-1,-1,-1,-1,-1,-1,-1,-1,-1,-1,-1,-1,-1,-1,-1,-1,-1,-1,-1,-1,-1,-1],"loss_changes":[7.5056458E0,4.8375416E0,1.4809875E0,2.9789395E0,1.9523029E0,8.4303284E-1,2.097845E0,2.5071514E0,7.200811E-1,4.8318577E-1,2.289508E0,1.7469769E0,8.1061554E-1,4.131125E0,0E0,1.555193E0,1.9295409E0,3.6128116E-1,0E0,3.1737328E-1,0E0,1.3837078E0,6.945596E-1,9.4446945E-1,1.1910946E0,0E0,1.3033524E0,3.660452E0,2.2947707E0,1.216289E0,1.0960209E0,1.8150705E0,0E0,7.02439E-1,5.0605583E-1,0E0,0E0,6.617588E-1,1.2538774E0,0E0,1.0415444E0,6.068611E-1,0E0,0E0,1.5584415E-1,2.2240934E0,7.581253E-1,1.6909428E0,0E0,0E0,2.070501E0,0E0,0E0,0E0,0E0,0E0,0E0,0E0,0E0,0E0,0E0,0E0,0E0,0E0,0E0,0E0,0E0,0E0,0E0,0E0,0E0,0E0,0E0,0E0,0E0,0E0,0E0,0E0,0E0],"parents":[2147483647,0,0,1,1,2,2,3,3,4,4,5,5,6,6,7,7,8,8,9,9,10,10,11,11,12,12,13,13,15,15,16,16,17,17,19,19,21,21,22,22,23,23,24,24,26,26,27,27,28,28,29,29,30,30,31,31,33,33,34,34,37,37,38,38,40,40,41,41,44,44,45,45,46,46,47,47,50,50],"right_children":[2,4,6,8,10,12,14,16,18,20,22,24,26,28,-1,30,32,34,-1,36,-1,38,40,42,44,-1,46,48,50,52,54,56,-1,58,60,-1,-1,62,64,-1,66,68,-1,-1,70,72,74,76,-1,-1,78,-1,-1,-1,-1,-1,-1,-1,-1,-1,-1,-1,-1,-1,-1,-1,-1,-1,-1,-1,-1,-1,-1,-1,-1,-1,-1,-1,-1],"split_conditions":[2E0,1.551312E9,2.8E1,1.8E1,5.4545456E-1,4.5E1,5.2029E4,5E0,1E1,2.15E1,1E0,1E1,1E0,3E1,-2.127273E-1,1E0,1.3E1,1.6666667E-1,3.1034475E-2,4E0,-7.663455E-9,4.5E0,9E0,6E0,1.5384616E-1,-2.2049E-1,3.3E2,3.6172E4,1.977E3,1E0,3E0,4E0,1.7999999E-1,2.7E1,1.5E1,-1.9090912E-1,-3.600001E-2,4E0,1.4E1,-1.9870132E-1,7E0,7E0,3.1034475E-2,1.7999999E-1,5E0,2E0,1.6339968E9,1.4E1,2.5714284E-1,3.1034482E-1,4.1666668E1,-7.346941E-2,1.02061845E-1,3E-1,3.1034475E-2,-1.6941178E-1,5.9999995E-2,-1.4400001E-1,7.2E-2,-1.9870132E-1,-7.663455E-9,1.6981121E-2,-1.5517244E-1,2.8800002E-1,-9.753488E-9,1.2857142E-1,-1.4400001E-1,-1.7054412E-1,-9.5031075E-2,-1.2857145E-1,-7.663455E-9,4.736841E-2,-1.4630544E-1,-1.9087742E-1,-1.2857145E-1,-4.8322167E-2,-1.702703E-1,1.7999999E-1,-1.6363637E-1],"split_indices":[8,17,16,1,18,5,1,5,21,16,5,8,7,18,0,6,5,18,0,20,0,16,5,12,19,0,5,1,6,5,6,14,0,1,9,0,0,1,1,0,0,9,0,0,0,7,17,6,0,0,18,0,0,0,0,0,0,0,0,0,0,0,0,0,0,0,0,0,0,0,0,0,0,0,0,0,0,0,0],"split_type":[0,0,0,0,0,0,0,0,0,0,0,0,0,0,0,0,0,0,0,0,0,0,0,0,0,0,0,0,0,0,0,0,0,0,0,0,0,0,0,0,0,0,0,0,0,0,0,0,0,0,0,0,0,0,0,0,0,0,0,0,0,0,0,0,0,0,0,0,0,0,0,0,0,0,0,0,0,0,0],"sum_hessian":[6.057778E2,1.0666666E2,4.9911108E2,4.9333332E1,5.733333E1,4.222222E2,7.6888885E1,3.4666664E1,1.4666666E1,3.511111E1,2.2222221E1,8.177777E1,3.4044443E2,5.9555553E1,1.7333332E1,2.0444443E1,1.4222221E1,1.2444444E1,2.222222E0,3.3777775E1,1.3333333E0,1.1555555E1,1.0666666E1,7.733333E1,4.444444E0,4.8888885E1,2.9155554E2,5.2888885E1,6.666666E0,1.4222221E1,6.222222E0,1.2444444E1,1.7777777E0,3.5555553E0,8.888888E0,3.1999998E1,1.7777777E0,7.1111107E0,4.444444E0,7.5555553E0,3.111111E0,7.511111E1,2.222222E0,1.7777777E0,2.6666665E0,7.199999E1,2.1955554E2,5.1555553E1,1.3333333E0,2.222222E0,4.444444E0,4.444444E0,9.777777E0,3.9999998E0,2.222222E0,8.444444E0,3.9999998E0,1.7777777E0,1.7777777E0,7.5555553E0,1.3333333E0,4.8888884E0,2.222222E0,1.7777777E0,2.6666665E0,1.3333333E0,1.7777777E0,5.8222218E1,1.6888887E1,1.3333333E0,1.3333333E0,5.333333E0,6.6666664E1,1.9022221E2,2.9333332E1,1.5555554E1,3.5999996E1,1.7777777E0,2.6666665E0],"tree_param":{"num_deleted":"0","num_feature":"23","num_nodes":"79","size_leaf_vector":"1"}},{"base_weights":[-5.6504697E-1,-5.7897484E-1,-4.3855986E-1,-5.8069706E-1,1.0897115E-2,-2.8983504E-1,-5.864761E-1,-5.603108E-1,-6.207144E-1,-4.0869117E-1,4.006489E-1,-6.1811227E-1,1.1922169E-2,-5.653825E-1,4.1655973E-2,4.1085808E-4,-1.8787052E-1,-1.8640204E-1,-2.2951864E-1,5.569961E-1,-4.3203617E-3,-3.0573267E-1,-1.947827E-1,-6.034934E-1,-5.18443E-1,1.2111104E-1,-3.1641376E-1,1.03046205E-2,2.4759081E-1,-1.4305812E-1,2.0852335E-2,-1.8256848E-1,1.57995E-2,-4.293107E-2,-1.5824021E-1,-1.1517438E-1,-4.045886E-3],"categories":[],"categories_nodes":[],"categories_segments":[],"categories_sizes":[],"default_left":[0,0,0,0,0,0,0,0,0,0,0,0,0,0,0,0,0,0,0,0,0,0,0,0,0,0,0,0,0,0,0,0,0,0,0,0,0],"id":3,"left_children":[1,3,5,7,-1,9,11,13,15,17,19,21,-1,23,-1,-1,-1,-1,25,27,-1,29,-1,31,33,-1,35,-1,-1,-1,-1,-1,-1,-1,-1,-1,-1],"loss_changes":[6.8588257E-1,5.270386E-1,1.0847998E0,4.0649414E-2,0E0,2.6601422E0,5.717468E-1,1.2335281E0,5.208931E-1,8.6502457E-1,3.3067125E-1,5.802822E-2,0E0,2.6598358E-1,0E0,0E0,0E0,0E0,1.0047517E0,4.8164368E-1,0E0,3.0800655E-1,0E0,6.056633E-1,4.39682E-1,0E0,2.928722E-1,0E0,0E0,0E0,0E0,0E0,0E0,0E0,0E0,0E0,0E0],"parents":[2147483647,0,0,1,1,2,2,3,3,5,5,6,6,7,7,8,8,9,9,10,10,11,11,13,13,18,18,19,19,21,21,23,23,24,24,26,26],"right_children":[2,4,6,8,-1,10,12,14,16,18,20,22,-1,24,-1,-1,-1,-1,26,28,-1,30,-1,32,34,-1,36,-1,-1,-1,-1,-1,-1,-1,-1,-1,-1],"split_conditions":[1.6629408E9,2.601E4,1E1,5.3333336E-1,1.0897115E-2,5E0,1.98E2,4.557E3,1.1917152E9,5E0,4.4E1,2E0,1.1922169E-2,6E0,4.1655973E-2,4.1085808E-4,-1.8787052E-1,-1.8640204E-1,8E0,3.4E1,-4.3203617E-3,1.65E1,-1.947827E-1,4.98E2,1E0,1.2111104E-1,1.01E2,1.03046205E-2,2.4759081E-1,-1.4305812E-1,2.0852335E-2,-1.8256848E-1,1.57995E-2,-4.293107E-2,-1.5824021E-1,-1.1517438E-1,-4.045886E-3],"split_indices":[17,2,6,19,0,7,11,14,17,5,9,20,0,16,0,0,0,0,1,1,0,16,0,20,9,0,1,0,0,0,0,0,0,0,0,0,0],"split_type":[0,0,0,0,0,0,0,0,0,0,0,0,0,0,0,0,0,0,0,0,0,0,0,0,0,0,0,0,0,0,0,0,0,0,0,0,0],"sum_hessian":[5.324687E2,4.7643015E2,5.6038555E1,4.751564E2,1.2737223E0,2.9418596E1,2.6619959E1,3.2472958E2,1.5042683E2,2.5446486E1,3.9721096E0,2.5352123E1,1.2678349E0,3.2258093E2,2.1486452E0,1.3298018E0,1.4909703E2,1.0507702E1,1.4938784E1,2.6368315E0,1.335278E0,3.2803893E0,2.2071733E1,1.7148926E2,1.5109167E2,1.3626937E0,1.357609E1,1.277109E0,1.3597225E0,2.0669484E0,1.213441E0,1.7024681E2,1.242442E0,3.9432335E0,1.4714844E2,1.0883574E1,2.6925166E0],"tree_param":{"num_deleted":"0","num_feature":"23","num_nodes":"37","size_leaf_vector":"1"}},{"base_weights":[7.83211E-1,6.559278E-1,8.2757497E-1,6.683639E-1,-1.5289032E-1,8.31482E-1,1.2140437E-1,7.0600504E-1,2.099299E-1,8.1776667E-1,1.0110215E0,9.194597E-2,-3.3793747E-2,7.1961707E-1,1.1687978E-1,3.788728E-1,-3.7008846E-1,8.212238E-1,-4.585589E-2,3.1176895E-1,8.101499E-2,4.440611E-1,7.4998546E-1,-1.512486E-1,1.5601163E-1,-1.3408549E-1,5.819726E-1,-1.521258E-1,-2.379479E-2,8.456386E-1,6.825045E-1,1.6332076E-1,-1.3648397E-1,1.6054715E-1,2.3987086E-1,1.01581804E-1,-1.4798932E-1,-6.584466E-2,2.5163347E-1,2.5568217E-1,1.074267E-1,1.7398342E-2,2.3123287E-1],"categories":[],"categories_nodes":[],"categories_segments":[],"categories_sizes":[],"default_left":[0,0,0,0,0,0,0,0,0,0,0,0,0,0,0,0,0,0,0,0,0,0,0,0,0,0,0,0,0,0,0,0,0,0,0,0,0,0,0,0,0,0,0],"id":4,"left_children":[1,3,5,7,-1,9,11,13,15,17,19,-1,-1,21,23,25,27,29,-1,-1,-1,31,33,-1,-1,35,37,-1,-1,39,41,-1,-1,-1,-1,-1,-1,-1,-1,-1,-1,-1,-1],"loss_changes":[3.2675476E0,2.9385376E0,1.269043E0,2.9193192E0,0E0,3.8882446E-1,2.0360388E-1,1.2298813E0,1.6014183E0,1.6820068E0,3.631897E-1,0E0,0E0,1.0055466E0,1.4876274E0,1.332616E0,1.1392206E-1,9.8876953E-1,0E0,0E0,0E0,1.9012246E0,1.0914078E0,0E0,0E0,8.8499427E-1,1.9981532E0,0E0,0E0,9.531555E-1,4.055691E0,0E0,0E0,0E0,0E0,0E0,0E0,0E0,0E0,0E0,0E0,0E0,0E0],"parents":[2147483647,0,0,1,1,2,2,3,3,5,5,6,6,7,7,8,8,9,9,10,10,13,13,14,14,15,15,16,16,17,17,21,21,22,22,25,25,26,26,29,29,30,30],"right_children":[2,4,6,8,-1,10,12,14,16,18,20,-1,-1,22,24,26,28,30,-1,-1,-1,32,34,-1,-1,36,38,-1,-1,40,42,-1,-1,-1,-1,-1,-1,-1,-1,-1,-1,-1,-1],"split_conditions":[5.4E1,1E1,1.7057088E9,2.05E1,-1.5289032E-1,8.888E4,4.11E2,8E0,4E0,1.3258E4,2.601E4,9.194597E-2,-3.3793747E-2,1.25E-1,1E1,2.1428572E-1,4E0,7E0,-4.585589E-2,3.1176895E-1,8.101499E-2,6E0,5E0,-1.512486E-1,1.5601163E-1,3E0,2.25E1,-1.521258E-1,-2.379479E-2,4.323E3,9.682E3,1.6332076E-1,-1.3648397E-1,1.6054715E-1,2.3987086E-1,1.01581804E-1,-1.4798932E-1,-6.584466E-2,2.5163347E-1,2.5568217E-1,1.074267E-1,1.7398342E-2,2.3123287E-1],"split_indices":[1,8,17,16,0,6,1,0,0,14,2,0,0,19,5,18,21,4,0,0,0,14,1,0,0,9,16,0,0,7,1,0,0,0,0,0,0,0,0,0,0,0,0],"split_type":[0,0,0,0,0,0,0,0,0,0,0,0,0,0,0,0,0,0,0,0,0,0,0,0,0,0,0,0,0,0,0,0,0,0,0,0,0,0,0,0,0,0,0],"sum_hessian":[6.7378503E2,1.7822635E2,4.9555872E2,1.7676688E2,1.4594687E0,4.9265555E2,2.9031675E0,1.6285513E2,1.3911746E1,4.6285233E2,2.9803228E1,1.4483505E0,1.4548169E0,1.5896077E2,3.8943634E0,1.1042245E1,2.8695014E0,4.6136298E2,1.4893448E0,2.8322487E1,1.4807426E0,1.7330479E1,1.4163028E2,1.4343325E0,2.460031E0,3.2283583E0,7.813887E0,1.4448385E0,1.4246628E0,3.8798163E2,7.338135E1,1.5945217E1,1.385261E0,2.8770754E1,1.12859535E2,1.4187603E0,1.809598E0,1.9314462E0,5.8824406E0,3.820343E2,5.947329E0,9.292837E0,6.408851E1],"tree_param":{"num_deleted":"0","num_feature":"23","num_nodes":"43","size_leaf_vector":"1"}},{"base_weights":[-4.1401908E-1,-1.941101E-1,-4.630783E-1,1.14908265E-2,-3.774311E-1,-4.878851E-1,-3.2453763E-1,1.3125578E-1,-3.9229858E-1,-5.2041566E-1,-1.4789674E-1,-3.8510796E-1,-5.118976E-1,-2.2960486E-1,-1.904728E-1,4.194561E-2,5.465973E-1,-1.8348894E-1,-1.5524342E-2,-5.427824E-1,2.1181132E-3,1.18269935E-1,-4.4365737E-1,-4.2047203E-1,1.6486678E-1,-1.9873795E-1,-4.847559E-1,-3.8105717E-1,2.3629762E-1,3.315593E-1,-1.5362561E-1,-5.385343E-2,2.7743053E-1,1.833086E-1,-1.5193328E-1,-1.6990905E-1,-2.4262331E-2,-1.2326924E-1,4.3708742E-1,-1.7847249E-1,-4.039729E-2,-4.3914723E-1,3.4469776E-2,-1.2004448E-1,4.404968E-1,-3.5181096E-1,-5.273294E-1,-6.907417E-2,-5.5413836E-1,-1.4530127E-1,4.203776E-1,-4.9251422E-2,1.6384071E-1,-1.18679315E-1,1.05431974E-1,3.28405E-2,-1.504159E-1,2.1925667E-1,-3.6370877E-2,1.3803308E-1,-1.3558678E-1,-1.0491203E-1,-1.6835532E-1,2.869599E-1,-1.1818113E-1,-1.3890944E-1,-2.7567243E-2,-1.921047E-1,-1.4141534E-1,-9.528176E-2,1.3480958E-1,8.179896E-3,-1.9721618E-1,2.5751773E-1,-9.430639E-3],"categories":[],"categories_nodes":[],"categories_segments":[],"categories_sizes":[],"default_left":[0,0,0,0,0,0,0,0,0,0,0,0,0,0,0,0,0,0,0,0,0,0,0,0,0,0,0,0,0,0,0,0,0,0,0,0,0,0,0,0,0,0,0,0,0,0,0,0,0,0,0,0,0,0,0,0,0,0,0,0,0,0,0,0,0,0,0,0,0,0,0,0,0,0,0],"id":5,"left_children":[1,3,5,7,9,11,13,15,17,19,21,23,25,27,-1,29,31,-1,33,35,-1,37,39,41,43,-1,45,47,49,51,53,-1,-1,-1,-1,-1,-1,55,57,-1,59,61,-1,-1,63,65,67,69,71,-1,73,-1,-1,-1,-1,-1,-1,-1,-1,-1,-1,-1,-1,-1,-1,-1,-1,-1,-1,-1,-1,-1,-1,-1,-1],"loss_changes":[5.8269806E0,3.8396113E0,1.3802414E0,2.4179184E0,1.6894655E0,7.350235E-1,1.9454389E0,1.4048021E0,9.362571E-1,3.9040756E-1,1.7887269E0,1.5391302E0,9.176483E-1,4.0356445E0,0E0,1.906511E0,2.0136018E0,0E0,1.920264E0,2.9671764E-1,0E0,1.0086207E0,6.260054E-1,7.6320076E-1,9.991799E-1,0E0,1.2892609E0,2.2610717E0,2.105208E0,1.5280285E0,2.6124415E0,0E0,0E0,0E0,0E0,0E0,0E0,7.442928E-1,1.0012234E0,0E0,1.0277499E0,5.5788994E-1,0E0,0E0,2.1110637E0,1.8713884E0,9.333763E-1,2.247655E0,1.6534433E0,0E0,2.3926208E0,0E0,0E0,0E0,0E0,0E0,0E0,0E0,0E0,0E0,0E0,0E0,0E0,0E0,0E0,0E0,0E0,0E0,0E0,0E0,0E0,0E0,0E0,0E0,0E0],"parents":[2147483647,0,0,1,1,2,2,3,3,4,4,5,5,6,6,7,7,8,8,9,9,10,10,11,11,12,12,13,13,15,15,16,16,18,18,19,19,21,21,22,22,23,23,24,24,26,26,27,27,28,28,29,29,30,30,37,37,38,38,40,40,41,41,44,44,45,45,46,46,47,47,48,48,50,50],"right_children":[2,4,6,8,10,12,14,16,18,20,22,24,26,28,-1,30,32,-1,34,36,-1,38,40,42,44,-1,46,48,50,52,54,-1,-1,-1,-1,-1,-1,56,58,-1,60,62,-1,-1,64,66,68,70,72,-1,74,-1,-1,-1,-1,-1,-1,-1,-1,-1,-1,-1,-1,-1,-1,-1,-1,-1,-1,-1,-1,-1,-1,-1,-1],"split_conditions":[2E0,1.551312E9,2.8E1,4E0,5.4545456E-1,4.5E1,5.2029E4,1.5241824E9,1.2E1,2.15E1,1E0,1E1,1E0,1.4E1,-1.904728E-1,6E0,1E0,-1.8348894E-1,2.1E1,4E0,2.1181132E-3,4.5E0,9E0,6E0,2E0,-1.9873795E-1,3.3E2,1.4E1,1.7E1,1E0,4E0,-5.385343E-2,2.7743053E-1,1.833086E-1,-1.5193328E-1,-1.6990905E-1,-2.4262331E-2,1.6919712E9,6E0,-1.7847249E-1,1.3E1,5E0,3.4469776E-2,-1.2004448E-1,2.6E1,2.19E2,1.69E2,5.6E1,7.742782E1,-1.4530127E-1,6.487E3,-4.9251422E-2,1.6384071E-1,-1.18679315E-1,1.05431974E-1,3.28405E-2,-1.504159E-1,2.1925667E-1,-3.6370877E-2,1.3803308E-1,-1.3558678E-1,-1.0491203E-1,-1.6835532E-1,2.869599E-1,-1.1818113E-1,-1.3890944E-1,-2.7567243E-2,-1.921047E-1,-1.4141534E-1,-9.528176E-2,1.3480958E-1,8.179896E-3,-1.9721618E-1,2.5751773E-1,-9.430639E-3],"split_indices":[8,17,16,6,18,5,1,17,6,16,5,8,7,12,0,1,20,0,6,20,0,16,5,12,14,0,5,6,21,5,20,0,0,0,0,0,0,17,6,0,5,8,0,0,9,5,9,8,22,0,5,0,0,0,0,0,0,0,0,0,0,0,0,0,0,0,0,0,0,0,0,0,0,0,0],"split_type":[0,0,0,0,0,0,0,0,0,0,0,0,0,0,0,0,0,0,0,0,0,0,0,0,0,0,0,0,0,0,0,0,0,0,0,0,0,0,0,0,0,0,0,0,0,0,0,0,0,0,0,0,0,0,0,0,0,0,0,0,0,0,0,0,0,0,0,0,0,0,0,0,0,0,0],"sum_hessian":[5.47439E2,1.00755806E2,4.4668326E2,4.7933746E1,5.2822063E1,3.7670892E2,6.997431E1,3.7489273E1,1.0444471E1,3.1766426E1,2.1055635E1,7.457117E1,3.0213776E2,5.4916794E1,1.5057521E1,3.1760796E1,5.728478E0,6.2075467E0,4.236925E0,3.044638E1,1.3200458E0,1.1398127E1,9.657508E0,7.0287094E1,4.284075E0,4.257203E1,2.5956573E2,4.1581787E1,1.3335007E1,1.2522049E1,1.9238747E1,2.1416717E0,3.5868063E0,1.7538521E0,2.483073E0,2.8752392E1,1.6939884E0,6.833987E0,4.5641394E0,6.6776667E0,2.9798417E0,6.80916E1,2.1954904E0,1.256537E0,3.027538E0,6.520683E1,1.943589E2,1.5336487E1,2.62453E1,2.3813577E0,1.09536495E1,3.8537426E0,8.668306E0,1.3153683E1,6.0850644E0,4.6700077E0,2.1639793E0,2.7881212E0,1.7760179E0,1.2913845E0,1.6884574E0,4.152423E1,2.6567368E1,1.7802552E0,1.247283E0,4.51189E1,2.0087929E1,6.08944E1,1.3346451E2,1.0628657E1,4.7078295E0,4.0688906E0,2.2176409E1,5.104833E0,5.8488164E0],"tree_param":{"num_deleted":"0","num_feature":"23","num_nodes":"75","size_leaf_vector":"1"}},{"base_weights":[-5.0306255E-1,-5.180245E-1,-3.718684E-1,-5.1982987E-1,1.0063775E-2,-2.1975224E-1,-5.3130764E-1,-4.9771157E-1,-5.641985E-1,-3.4021685E-1,4.0499026E-1,-5.654936E-1,1.56791E-2,-5.0316954E-1,4.5185197E-2,1.1328726E-2,-5.7048976E-1,-1.7117923E-1,-1.6091359E-1,5.463099E-1,1.3058124E-3,-2.5080064E-1,-1.8015243E-1,-5.4518336E-1,-4.5222723E-1,-1.7306104E-1,-2.9033485E-1,2.7414614E-1,-2.847086E-1,2.1404844E-2,2.2640315E-1,-1.2875588E-1,3.022177E-2,-1.6517743E-1,1.7359173E-2,-1.2477373E-1,-1.8293117E-1,2.5444146E-2,-1.3490662E-1,1.8734924E-1,-9.8684E-2,-1.5594198E-1,-3.139856E-2],"categories":[],"categories_nodes":[],"categories_segments":[],"categories_sizes":[],"default_left":[0,0,0,0,0,0,0,0,0,0,0,0,0,0,0,0,0,0,0,0,0,0,0,0,0,0,0,0,0,0,0,0,0,0,0,0,0,0,0,0,0,0,0],"id":6,"left_children":[1,3,5,7,-1,9,11,13,15,17,19,21,-1,23,-1,-1,25,-1,27,29,-1,31,-1,33,35,-1,37,39,41,-1,-1,-1,-1,-1,-1,-1,-1,-1,-1,-1,-1,-1,-1],"loss_changes":[7.1048737E-1,4.2616272E-1,1.111527E0,1.2072754E-1,0E0,2.2166376E0,5.087819E-1,1.0720215E0,5.086937E-1,8.8721275E-1,2.7628374E-1,1.0036516E-1,0E0,3.514862E-1,0E0,0E0,6.0180664E-2,0E0,8.7087625E-1,3.0543733E-1,0E0,2.939302E-1,0E0,5.153923E-1,5.024662E-1,0E0,3.2803935E-1,1.0020671E0,4.5143563E-1,0E0,0E0,0E0,0E0,0E0,0E0,0E0,0E0,0E0,0E0,0E0,0E0,0E0,0E0],"parents":[2147483647,0,0,1,1,2,2,3,3,5,5,6,6,7,7,8,8,9,9,10,10,11,11,13,13,16,16,18,18,19,19,21,21,23,23,24,24,26,26,27,27,28,28],"right_children":[2,4,6,8,-1,10,12,14,16,18,20,22,-1,24,-1,-1,26,-1,28,30,-1,32,-1,34,36,-1,38,40,42,-1,-1,-1,-1,-1,-1,-1,-1,-1,-1,-1,-1,-1,-1],"split_conditions":[1.6629408E9,2.601E4,1E1,5.3333336E-1,1.0063775E-2,5E0,1.98E2,4.557E3,1.1917152E9,5E0,4.4E1,2E0,1.56791E-2,6E0,4.5185197E-2,1.1328726E-2,7.46E2,-1.7117923E-1,1.6E1,3.4E1,1.3058124E-3,9E0,-1.8015243E-1,4.98E2,2.3333333E0,-1.7306104E-1,1.071E3,1.6932672E9,2.3E1,2.1404844E-2,2.2640315E-1,-1.2875588E-1,3.022177E-2,-1.6517743E-1,1.7359173E-2,-1.2477373E-1,-1.8293117E-1,2.5444146E-2,-1.3490662E-1,1.8734924E-1,-9.8684E-2,-1.5594198E-1,-3.139856E-2],"split_indices":[17,2,6,19,0,7,11,14,17,5,9,20,0,16,0,0,13,0,1,1,0,14,0,20,18,0,2,17,5,0,0,0,0,0,0,0,0,0,0,0,0,0,0],"split_type":[0,0,0,0,0,0,0,0,0,0,0,0,0,0,0,0,0,0,0,0,0,0,0,0,0,0,0,0,0,0,0,0,0,0,0,0,0,0,0,0,0,0,0],"sum_hessian":[4.5909348E2,4.094495E2,4.9643982E1,4.0817102E2,1.2784549E0,2.662252E1,2.3021461E1,2.8053748E2,1.2763356E2,2.2700731E1,3.92179E0,2.1776745E1,1.2447169E0,2.784175E2,2.119963E0,1.2684027E0,1.2636516E2,8.980147E0,1.3720584E1,2.6303627E0,1.2914271E0,2.9976985E0,1.8779047E1,1.4726294E2,1.3115457E2,1.2251583E2,3.849328E0,2.7702882E0,1.0950295E1,1.211422E0,1.4189408E0,1.8420781E0,1.1556205E0,1.4604025E2,1.2226913E0,1.0954392E2,2.161065E1,1.287076E0,2.562252E0,1.7298719E0,1.0404165E0,3.9306896E0,7.0196056E0],"tree_param":{"num_deleted":"0","num_feature":"23","num_nodes":"43","size_leaf_vector":"1"}},{"base_weights":[5.980935E-1,4.9772534E-1,6.362345E-1,5.1454663E-1,-8.50545E-2,6.39463E-1,7.853443E-2,5.3533775E-1,7.4273525E-3,1.110589E-1,-3.858926E-1,6.200643E-1,7.577389E-1,7.861489E-2,-4.1068614E-2,5.42286E-1,-5.4998867E-2,-2.925139E-1,1.9065844E-1,-1.5263605E-1,-2.3209967E-2,6.307376E-1,-2.2646244E-1,2.9456997E-1,7.795918E-1,5.491376E-1,-4.9521822E-2,8.196749E-2,-5.129621E-1,6.362365E-1,-6.0887333E-2,-2.3733091E-1,1.8080008E-1,1.8049178E-1,-5.798097E-2,7.899778E-1,6.772402E-2,9.082225E-2,1.7103636E-1,-1.8425407E-1,-4.765487E-2,1.9202513E-1,-7.574173E-2,8.390105E-2,2.4083252E-1],"categories":[],"categories_nodes":[],"categories_segments":[],"categories_sizes":[],"default_left":[0,0,0,0,0,0,0,0,0,0,0,0,0,0,0,0,0,0,0,0,0,0,0,0,0,0,0,0,0,0,0,0,0,0,0,0,0,0,0,0,0,0,0,0,0],"id":7,"left_children":[1,3,5,7,9,11,13,15,17,-1,19,21,23,-1,-1,25,-1,27,-1,-1,-1,29,31,33,35,37,-1,-1,39,41,-1,-1,-1,-1,-1,43,-1,-1,-1,-1,-1,-1,-1,-1,-1],"loss_changes":[2.2505493E0,1.8991127E0,8.1829834E-1,1.9370232E0,9.875648E-1,6.30188E-1,1.9070281E-1,9.824066E-1,1.7428497E0,0E0,1.2000847E-1,3.9140625E0,4.0853882E-1,0E0,0E0,9.406738E-1,0E0,9.2313874E-1,0E0,0E0,0E0,2.0200195E0,3.254315E0,7.826107E-1,1.6450882E-1,7.266998E-1,0E0,0E0,7.6821566E-2,1.5634155E0,0E0,0E0,0E0,0E0,0E0,1.5494919E-1,0E0,0E0,0E0,0E0,0E0,0E0,0E0,0E0,0E0],"parents":[2147483647,0,0,1,1,2,2,3,3,4,4,5,5,6,6,7,7,8,8,10,10,11,11,12,12,15,15,17,17,21,21,22,22,23,23,24,24,25,25,28,28,29,29,35,35],"right_children":[2,4,6,8,10,12,14,16,18,-1,20,22,24,-1,-1,26,-1,28,-1,-1,-1,30,32,34,36,38,-1,-1,40,42,-1,-1,-1,-1,-1,44,-1,-1,-1,-1,-1,-1,-1,-1,-1],"split_conditions":[5.9E1,3.15E1,1.7057088E9,6E0,3E0,1.5573E4,9E0,1E0,1.8E1,1.110589E-1,1.6E1,2.3E1,1.16E2,7.861489E-2,-4.1068614E-2,1.8E1,-5.4998867E-2,1.3E1,1.9065844E-1,-1.5263605E-1,-2.3209967E-2,2.4E2,1.5849216E9,2.15E2,2.601E4,1.25E-1,-4.9521822E-2,8.196749E-2,7E0,3.24E2,-6.0887333E-2,-2.3733091E-1,1.8080008E-1,1.8049178E-1,-5.798097E-2,1.1E2,6.772402E-2,9.082225E-2,1.7103636E-1,-1.8425407E-1,-4.765487E-2,1.9202513E-1,-7.574173E-2,8.390105E-2,2.4083252E-1],"split_indices":[1,16,17,0,9,6,7,3,20,0,5,13,0,0,0,14,0,1,0,0,0,11,17,10,2,18,0,0,6,4,0,0,0,0,0,10,0,0,0,0,0,0,0,0,0],"split_type":[0,0,0,0,0,0,0,0,0,0,0,0,0,0,0,0,0,0,0,0,0,0,0,0,0,0,0,0,0,0,0,0,0,0,0,0,0,0,0,0,0,0,0,0,0],"sum_hessian":[6.6962067E2,1.8826102E2,4.8135965E2,1.8309332E2,5.167703E0,4.7844336E2,2.916298E0,1.7582896E2,7.2643533E0,1.9644301E0,3.2032733E0,4.163924E2,6.2050945E1,1.4579394E0,1.4583583E0,1.7438837E2,1.4406009E0,5.2781367E0,1.9862167E0,1.8266007E0,1.3766725E0,4.114595E2,4.932892E0,3.4481251E0,5.8602818E1,1.7293695E2,1.4514219E0,1.4128685E0,3.8652682E0,4.0899866E2,2.460852E0,2.961774E0,1.9711177E0,1.9729722E0,1.475153E0,5.71056E1,1.4972224E0,1.4782531E1,1.5815442E2,2.4348726E0,1.4303955E0,4.0751428E2,1.4843688E0,1.9561338E0,5.5149464E1],"tree_param":{"num_deleted":"0","num_feature":"23","num_nodes":"45","size_leaf_vector":"1"}},{"base_weights":[-3.4648928E-1,-1.4440411E-1,-3.9442083E-1,4.0975805E-2,-3.2001352E-1,-4.195589E-1,-2.5827023E-1,1.7041324E-1,-2.8418478E-1,-4.2619836E-1,-3.1994514E-2,-5.1643956E-1,-3.8955015E-1,-1.6670685E-1,-1.7498949E-1,-1.1267509E-1,3.1561616E-1,-3.6874732E-1,3.6713023E-2,-4.6829563E-1,7.54828E-2,1.2958662E-1,-3.6557546E-1,-3.0148062E-1,-1.8194425E-1,-2.4622239E-1,-4.614775E-1,-3.1421697E-1,2.467499E-1,1.8965942E-1,-4.3862155E-1,9.9821344E-2,6.4418256E-1,-2.714891E-2,-4.879158E-1,-5.238305E-1,-1.7533927E-1,5.8512014E-1,-9.717796E-2,9.502293E-3,-1.5093379E-1,-4.685105E-1,-6.446566E-2,-2.7127743E-1,1.7378184E-1,-5.8458054E-1,-4.0282217E-1,-2.4329288E-2,-4.9176103E-1,4.6212885E-1,-3.175776E-1,-4.7510255E-2,1.7257005E-1,1.6649347E-2,-1.7057195E-1,-2.114927E-2,2.534919E-1,2.4145196E-1,-1.5969763E-2,-1.1555735E-1,9.358758E-2,-1.7644411E-1,2.4593726E-2,-1.21222444E-1,-1.8236737E-1,-1.5283749E-1,6.453111E-2,2.6368475E-1,9.259134E-3,-1.0439844E-1,9.305112E-2,1.04750566E-1,-1.80215E-1,-1.2219813E-1,1.0130094E-1,1.2511569E-2,-9.556488E-2,-1.8071482E-1,-2.6121259E-2,1.641173E-2,-1.3344449E-1,-7.891898E-2,1.2932047E-1,2.0085448E-2,-1.8139248E-1,-1.1447463E-1,1.9013949E-1,-1.4044313E-1,1.4670794E-2],"categories":[],"categories_nodes":[],"categories_segments":[],"categories_sizes":[],"default_left":[0,0,0,0,0,0,0,0,0,0,0,0,0,0,0,0,0,0,0,0,0,0,0,0,0,0,0,0,0,0,0,0,0,0,0,0,0,0,0,0,0,0,0,0,0,0,0,0,0,0,0,0,0,0,0,0,0,0,0,0,0,0,0,0,0,0,0,0,0,0,0,0,0,0,0,0,0,0,0,0,0,0,0,0,0,0,0,0,0],"id":8,"left_children":[1,3,5,7,9,11,13,15,17,19,21,23,25,27,-1,29,31,33,-1,35,-1,37,39,41,-1,43,45,47,49,51,53,55,57,59,61,63,65,67,69,-1,-1,71,73,75,-1,77,79,81,83,85,87,-1,-1,-1,-1,-1,-1,-1,-1,-1,-1,-1,-1,-1,-1,-1,-1,-1,-1,-1,-1,-1,-1,-1,-1,-1,-1,-1,-1,-1,-1,-1,-1,-1,-1,-1,-1,-1,-1],"loss_changes":[4.6853447E0,3.120069E0,1.2440796E0,2.0397904E0,1.4887495E0,7.6392746E-1,1.8130636E0,1.4523636E0,5.2117157E-1,1.1396489E0,8.188814E-1,1.2772713E0,2.5412521E0,3.2173E0,0E0,1.3073556E0,1.5696702E0,4.6350992E-1,0E0,4.6238565E-1,0E0,1.1292137E0,2.854312E-1,9.30177E-1,0E0,1.9812827E0,9.9440765E-1,1.9635491E0,1.8602167E0,1.0495886E0,4.3478167E-1,1.9750781E0,1.0458884E0,6.164978E-1,5.4081535E-1,3.7589073E-2,1.0138793E0,5.579543E-1,9.036825E-1,0E0,0E0,1.7308478E0,1.6801193E0,1.289813E0,0E0,4.1475296E-1,2.3025723E0,1.8128035E0,1.5384827E0,1.7786705E0,2.7047428E-1,0E0,0E0,0E0,0E0,0E0,0E0,0E0,0E0,0E0,0E0,0E0,0E0,0E0,0E0,0E0,0E0,0E0,0E0,0E0,0E0,0E0,0E0,0E0,0E0,0E0,0E0,0E0,0E0,0E0,0E0,0E0,0E0,0E0,0E0,0E0,0E0,0E0,0E0],"parents":[2147483647,0,0,1,1,2,2,3,3,4,4,5,5,6,6,7,7,8,8,9,9,10,10,11,11,12,12,13,13,15,15,16,16,17,17,19,19,21,21,22,22,23,23,25,25,26,26,27,27,28,28,29,29,30,30,31,31,32,32,33,33,34,34,35,35,36,36,37,37,38,38,41,41,42,42,43,43,45,45,46,46,47,47,48,48,49,49,50,50],"right_children":[2,4,6,8,10,12,14,16,18,20,22,24,26,28,-1,30,32,34,-1,36,-1,38,40,42,-1,44,46,48,50,52,54,56,58,60,62,64,66,68,70,-1,-1,72,74,76,-1,78,80,82,84,86,88,-1,-1,-1,-1,-1,-1,-1,-1,-1,-1,-1,-1,-1,-1,-1,-1,-1,-1,-1,-1,-1,-1,-1,-1,-1,-1,-1,-1,-1,-1,-1,-1,-1,-1,-1,-1,-1,-1],"split_conditions":[2E0,1.551312E9,2.8E1,1.8E1,1.6708032E9,1E0,5.2029E4,1.460592E9,1E1,3.15E1,1.697328E9,5E0,3.3E2,1.4E1,-1.7498949E-1,1.25E-1,1E0,1.6666667E-1,3.6713023E-2,3E0,7.54828E-2,4E0,2.9411766E-1,1.7E1,-1.8194425E-1,6E0,1.69E2,1.4E1,1.56E2,1E0,1E0,6E0,4E0,2.7E1,2.05E1,2E0,1.6301952E9,1.6897248E9,3E0,9.502293E-3,-1.5093379E-1,1.25E-1,1.875E-1,2E0,1.7378184E-1,1.3E2,6E0,5.6E1,7.742782E1,1.7E1,2.0547E4,-4.7510255E-2,1.7257005E-1,1.6649347E-2,-1.7057195E-1,-2.114927E-2,2.534919E-1,2.4145196E-1,-1.5969763E-2,-1.1555735E-1,9.358758E-2,-1.7644411E-1,2.4593726E-2,-1.21222444E-1,-1.8236737E-1,-1.5283749E-1,6.453111E-2,2.6368475E-1,9.259134E-3,-1.0439844E-1,9.305112E-2,1.04750566E-1,-1.80215E-1,-1.2219813E-1,1.0130094E-1,1.2511569E-2,-9.556488E-2,-1.8071482E-1,-2.6121259E-2,1.641173E-2,-1.3344449E-1,-7.891898E-2,1.2932047E-1,2.0085448E-2,-1.8139248E-1,-1.1447463E-1,1.9013949E-1,-1.4044313E-1,1.4670794E-2],"split_indices":[8,17,16,1,17,7,1,17,21,16,17,8,5,12,0,18,6,18,0,20,0,1,22,5,0,11,9,6,12,9,15,20,6,1,16,9,17,17,0,0,0,18,19,7,0,20,21,8,22,21,1,0,0,0,0,0,0,0,0,0,0,0,0,0,0,0,0,0,0,0,0,0,0,0,0,0,0,0,0,0,0,0,0,0,0,0,0,0,0],"split_type":[0,0,0,0,0,0,0,0,0,0,0,0,0,0,0,0,0,0,0,0,0,0,0,0,0,0,0,0,0,0,0,0,0,0,0,0,0,0,0,0,0,0,0,0,0,0,0,0,0,0,0,0,0,0,0,0,0,0,0,0,0,0,0,0,0,0,0,0,0,0,0,0,0,0,0,0,0,0,0,0,0,0,0,0,0,0,0,0,0],"sum_hessian":[4.8859113E2,9.443873E1,3.941524E2,4.631429E1,4.812444E1,3.3096356E2,6.318884E1,3.346765E1,1.2846635E1,3.4810856E1,1.33135805E1,7.443786E1,2.565257E2,5.0480827E1,1.2708013E1,1.1422434E1,2.2045218E1,1.0711676E1,2.1349587E0,3.306628E1,1.7445769E0,9.381072E0,3.9325087E0,2.3259007E1,5.1178852E1,8.719589E1,1.693298E2,3.7383453E1,1.3097374E1,6.1427755E0,5.279659E0,1.4093043E1,7.952175E0,3.0879211E0,7.623755E0,2.713441E1,5.9318695E0,2.5926197E0,6.7884526E0,1.2093207E0,2.723188E0,1.3070918E1,1.0188089E1,8.527892E1,1.9169691E0,5.1750965E1,1.1757884E2,1.4631192E1,2.275226E1,9.610549E0,3.4868252E0,3.5383015E0,2.6044743E0,1.2186979E0,4.060961E0,1.2208048E1,1.8849953E0,6.338093E0,1.6140823E0,1.4359233E0,1.6519978E0,6.4562283E0,1.1675268E0,1.358612E1,1.3548291E1,3.0322342E0,2.8996353E0,1.3115225E0,1.2810972E0,4.291656E0,2.4967966E0,1.5908166E0,1.1480102E1,5.492372E0,4.695717E0,1.1205635E1,7.407329E1,4.975964E1,1.991323E0,9.858951E0,1.07719894E2,9.876144E0,4.7550483E0,3.8925598E0,1.8859701E1,1.4181131E0,8.192436E0,2.2748232E0,1.2120022E0],"tree_param":{"num_deleted":"0","num_feature":"23","num_nodes":"89","size_leaf_vector":"1"}},{"base_weights":[-4.5155773E-1,-4.6773723E-1,-3.1549054E-1,-4.6966746E-1,9.745295E-3,-1.6086096E-1,-4.87784E-1,-4.4539878E-1,-5.1978946E-1,-1.6136903E-1,4.4518463E-2,-5.2530336E-1,1.8411541E-2,-4.5591515E-1,-8.889951E-2,2.1083027E-2,-5.271481E-1,4.3239E-1,-1.3679348E-1,-2.0186502E-1,-1.7036538E-1,-4.725333E-1,-2.9464474E-1,4.3026954E-1,-3.7478024E-1,-1.6027713E-1,-2.3985638E-1,-2.4270192E-2,2.802291E-1,-2.4637769E-1,1.3836631E-1,-1.1860548E-1,4.9791437E-2,-1.4297894E-1,4.502023E-2,6.427537E-2,-1.6997756E-1,1.9679104E-1,1.4687661E-2,-1.5379594E-1,3.523608E-2,3.8657535E-2,-1.2413327E-1,1.09266326E-1,-1.1371923E-1,-6.724565E-4,-1.5813918E-1],"categories":[],"categories_nodes":[],"categories_segments":[],"categories_sizes":[],"default_left":[0,0,0,0,0,0,0,0,0,0,0,0,0,0,0,0,0,0,0,0,0,0,0,0,0,0,0,0,0,0,0,0,0,0,0,0,0,0,0,0,0,0,0,0,0,0,0],"id":9,"left_children":[1,3,5,7,-1,9,11,13,15,-1,17,19,-1,21,23,-1,25,27,29,31,-1,33,35,37,39,-1,41,43,-1,45,-1,-1,-1,-1,-1,-1,-1,-1,-1,-1,-1,-1,-1,-1,-1,-1,-1],"loss_changes":[7.1939087E-1,3.5308075E-1,1.118341E0,1.9252014E-1,0E0,1.9727491E0,4.598856E-1,8.6623E-1,5.048542E-1,0E0,1.2698555E0,1.5437746E-1,0E0,4.897499E-1,1.3742242E0,0E0,8.942032E-2,1.3341745E0,9.3223E-1,3.3776796E-1,0E0,6.0557175E-1,3.5232103E0,2.577132E-1,4.541626E-1,0E0,3.3465126E-1,6.854562E-1,0E0,7.670817E-1,0E0,0E0,0E0,0E0,0E0,0E0,0E0,0E0,0E0,0E0,0E0,0E0,0E0,0E0,0E0,0E0,0E0],"parents":[2147483647,0,0,1,1,2,2,3,3,5,5,6,6,7,7,8,8,10,10,11,11,13,13,14,14,16,16,17,17,18,18,19,19,21,21,22,22,23,23,24,24,26,26,27,27,29,29],"right_children":[2,4,6,8,-1,10,12,14,16,-1,18,20,-1,22,24,-1,26,28,30,32,-1,34,36,38,40,-1,42,44,-1,46,-1,-1,-1,-1,-1,-1,-1,-1,-1,-1,-1,-1,-1,-1,-1,-1,-1],"split_conditions":[1.6629408E9,2.601E4,1E1,5.3333336E-1,9.745295E-3,5E0,1.98E2,8E0,1.1917152E9,-1.6136903E-1,3E0,2.18E2,1.8411541E-2,1.956E3,7E0,2.1083027E-2,7.46E2,1.3E1,1.1E1,1.72E2,-1.7036538E-1,8.6E1,1E0,4.485E3,3.65E1,-1.6027713E-1,1.10017E6,8E0,2.802291E-1,1E0,1.3836631E-1,-1.1860548E-1,4.9791437E-2,-1.4297894E-1,4.502023E-2,6.427537E-2,-1.6997756E-1,1.9679104E-1,1.4687661E-2,-1.5379594E-1,3.523608E-2,3.8657535E-2,-1.2413327E-1,1.09266326E-1,-1.1371923E-1,-6.724565E-4,-1.5813918E-1],"split_indices":[17,2,6,19,0,5,11,4,17,0,8,1,0,5,3,0,13,5,14,1,0,10,2,5,16,0,5,1,0,21,0,0,0,0,0,0,0,0,0,0,0,0,0,0,0,0,0],"split_type":[0,0,0,0,0,0,0,0,0,0,0,0,0,0,0,0,0,0,0,0,0,0,0,0,0,0,0,0,0,0,0,0,0,0,0,0,0,0,0,0,0,0,0,0,0,0,0],"sum_hessian":[3.928038E2,3.4888144E2,4.392237E1,3.476012E2,1.2802418E0,2.4166822E1,1.9755548E1,2.4086328E2,1.06737915E2,7.9511147E0,1.6215708E1,1.853279E1,1.2227602E0,2.3369077E2,7.1725116E0,1.2094024E0,1.0552851E2,4.724352E0,1.1491355E1,2.8238783E0,1.5708911E1,2.101099E2,2.358088E1,2.3676722E0,4.804839E0,1.0214142E2,3.3870938E0,2.971384E0,1.7529681E0,1.0208658E1,1.2826966E0,1.8014765E0,1.0224018E0,2.0898056E2,1.1293256E0,8.28649E0,1.5294389E1,1.0348396E0,1.3328326E0,3.721092E0,1.0837471E0,1.168647E0,2.2184467E0,1.405654E0,1.56573E0,5.9995627E0,4.2090955E0],"tree_param":{"num_deleted":"0","num_feature":"23","num_nodes":"47","size_leaf_vector":"1"}},{"base_weights":[4.7815943E-1,3.554009E-1,5.04686E-1,2.4162224E-1,4.4985363E-1,4.8689663E-1,6.3761693E-1,2.94604E-1,-1.1952255E-1,4.7382045E-1,-3.4348857E-2,4.9499646E-1,-2.3242189E-1,2.4584943E-1,6.5706706E-1,1.1857178E-2,4.090638E-1,3.148035E-1,-5.2021843E-1,5.250966E-1,3.0021483E-1,4.9934575E-1,-6.702574E-2,-2.1813871E-1,1.5837014E-1,1.626322E-1,-6.272369E-2,6.019323E-2,6.6948134E-1,4.080204E-1,-1.9726391E-1,5.959094E-1,9.495066E-2,-4.8704136E-2,1.7638412E-1,-5.778326E-2,-1.835119E-1,5.808421E-1,1.987106E-1,1.6016793E-1,1.9165763E-1,5.024402E-1,-8.053237E-2,6.959035E-1,3.506077E-1,1.0504557E-3,1.9178419E-1,-1.358568E-1,3.4780994E-2,1.8895265E-1,2.1191021E-2,-4.4455018E-2,1.5451896E-1,1.793261E-1,2.5388278E-2,-5.997047E-2,1.365762E-1,-2.9010927E-2,1.5965621E-1,-2.0071939E-2,1.5152127E-1,2.1468447E-1,3.5689853E-2,-4.9754895E-2,1.8499205E-1],"categories":[],"categories_nodes":[],"categories_segments":[],"categories_sizes":[],"default_left":[0,0,0,0,0,0,0,0,0,0,0,0,0,0,0,0,0,0,0,0,0,0,0,0,0,0,0,0,0,0,0,0,0,0,0,0,0,0,0,0,0,0,0,0,0,0,0,0,0,0,0,0,0,0,0,0,0,0,0,0,0,0,0,0,0],"id":10,"left_children":[1,3,5,7,9,11,13,15,17,19,-1,21,23,25,27,29,31,33,35,37,39,41,-1,-1,-1,-1,-1,-1,43,45,47,49,51,-1,-1,-1,-1,53,55,57,-1,59,-1,61,63,-1,-1,-1,-1,-1,-1,-1,-1,-1,-1,-1,-1,-1,-1,-1,-1,-1,-1,-1,-1],"loss_changes":[1.8812256E0,1.1360073E0,9.1441345E-1,1.0817795E0,8.9453506E-1,2.801361E0,2.796917E-1,1.5481749E0,1.5053921E0,3.7458897E-1,0E0,1.5371704E0,2.5708776E0,6.97826E-1,1.7486382E-1,1.3114151E0,1.946497E0,6.587773E-1,1.365912E-2,7.000828E-1,6.549592E-1,1.2130814E0,0E0,0E0,0E0,0E0,0E0,0E0,1.9998741E-1,5.084676E-1,8.849409E-1,3.3356428E-1,1.4980615E0,0E0,0E0,0E0,0E0,2.6630974E-1,9.1508377E-1,1.2584703E0,0E0,7.112808E-1,0E0,4.5672798E-1,9.3318367E-1,0E0,0E0,0E0,0E0,0E0,0E0,0E0,0E0,0E0,0E0,0E0,0E0,0E0,0E0,0E0,0E0,0E0,0E0,0E0,0E0],"parents":[2147483647,0,0,1,1,2,2,3,3,4,4,5,5,6,6,7,7,8,8,9,9,11,11,12,12,13,13,14,14,15,15,16,16,17,17,18,18,19,19,20,20,21,21,28,28,29,29,30,30,31,31,32,32,37,37,38,38,39,39,41,41,43,43,44,44],"right_children":[2,4,6,8,10,12,14,16,18,20,-1,22,24,26,28,30,32,34,36,38,40,42,-1,-1,-1,-1,-1,-1,44,46,48,50,52,-1,-1,-1,-1,54,56,58,-1,60,-1,62,64,-1,-1,-1,-1,-1,-1,-1,-1,-1,-1,-1,-1,-1,-1,-1,-1,-1,-1,-1,-1],"split_conditions":[2E0,1.551312E9,1.5573E4,1.5241824E9,4.8333335E0,2.3E1,1.16E2,6E0,1E0,1.6708032E9,-3.4348857E-2,2.4E2,1.5849216E9,2E0,2E0,1E0,4E0,1.5342048E9,1.5437088E9,2E0,2E0,3.24E2,-6.702574E-2,-2.1813871E-1,1.5837014E-1,1.626322E-1,-6.272369E-2,6.019323E-2,2.2385E4,1.46448E9,5E0,1E1,1.7E1,-4.8704136E-2,1.7638412E-1,-5.778326E-2,-1.835119E-1,2.6E1,1E0,1.697328E9,1.9165763E-1,1.1917152E9,-8.053237E-2,2.7157144E2,2.363E3,1.0504557E-3,1.9178419E-1,-1.358568E-1,3.4780994E-2,1.8895265E-1,2.1191021E-2,-4.4455018E-2,1.5451896E-1,1.793261E-1,2.5388278E-2,-5.997047E-2,1.365762E-1,-2.9010927E-2,1.5965621E-1,-2.0071939E-2,1.5152127E-1,2.1468447E-1,3.5689853E-2,-4.9754895E-2,1.8499205E-1],"split_indices":[8,17,6,17,18,13,0,1,6,17,0,11,17,11,11,5,20,17,17,0,6,4,0,0,0,0,0,0,15,17,1,6,5,0,0,0,0,1,5,17,0,17,0,18,4,0,0,0,0,0,0,0,0,0,0,0,0,0,0,0,0,0,0,0,0],"split_type":[0,0,0,0,0,0,0,0,0,0,0,0,0,0,0,0,0,0,0,0,0,0,0,0,0,0,0,0,0,0,0,0,0,0,0,0,0,0,0,0,0,0,0,0,0,0,0,0,0,0,0,0,0,0,0,0,0,0,0,0,0,0,0,0,0],"sum_hessian":[6.317907E2,1.1482166E2,5.1696906E2,5.369649E1,6.1125175E1,4.600641E2,5.690493E1,4.6987446E1,6.709045E0,5.878894E1,2.3362374E0,4.5524966E2,4.8144417E0,3.3366947E0,5.3568233E1,1.3858003E1,3.312944E1,3.3222828E0,3.3867621E0,4.3821255E1,1.4967685E1,4.5281326E2,2.4364014E0,2.9431348E0,1.8713069E0,1.9046917E0,1.432003E0,1.8728658E0,5.169537E1,4.459229E0,9.398774E0,2.0210442E1,1.2919002E1,1.3571432E0,1.9651395E0,1.4172105E0,1.9695517E0,3.6762707E1,7.058548E0,1.1630738E1,3.336947E0,4.5133978E2,1.4734579E0,4.6647713E1,5.047655E0,1.9912637E0,2.4679651E0,4.9298205E0,4.468953E0,1.8797068E1,1.4133732E0,8.593129E0,4.3258724E0,3.53532E1,1.4095062E0,2.8504157E0,4.208132E0,7.3179307E0,4.312807E0,1.9634311E0,4.4937637E2,4.4874195E1,1.7735182E0,1.8441429E0,3.2035124E0],"tree_param":{"num_deleted":"0","num_feature":"23","num_nodes":"65","size_leaf_vector":"1"}},{"base_weights":[-2.8641647E-1,-1.375425E-1,-3.4864378E-1,-1.8475118E-1,3.054954E-1,-5.164803E-1,-3.1799728E-1,-4.520902E-2,-3.4922808E-1,9.063078E-2,6.5112066E-1,-5.736476E-1,2.2452028E-1,-1.8218105E-1,-3.717087E-1,2.3623551E-1,-1.9253504E-1,-4.3749222E-1,-2.2452018E-1,3.6107734E-1,-1.4597063E-1,2.6923877E-1,5.9064876E-2,-1.7831878E-1,2.5843058E-2,2.4504933E-1,-1.1826331E-1,-3.051547E-1,5.9334278E-2,-5.6545335E-1,-3.2315317E-1,3.208775E-1,-1.2794799E-1,-3.8093513E-1,-1.6429894E-2,-4.6377382E-1,3.0181287E-2,1.6176394E-1,-2.8575253E-1,-2.2211073E-2,6.184657E-1,8.876768E-2,-3.977985E-1,2.5510877E-1,-4.0584285E-2,-1.7663455E-1,2.9902644E-2,-3.6642218E-1,-3.3787422E-2,-7.186397E-2,1.2343363E-1,5.4105327E-2,-1.3534293E-1,2.2752969E-1,-2.9946454E-2,-1.5453911E-1,-4.279416E-2,-4.364861E-2,-1.386763E-1,1.0901164E-1,-1.13878846E-1,9.656643E-3,2.568325E-1,3.748757E-1,-7.066623E-2,-7.248409E-2,-1.7775029E-1,-6.996624E-2,1.6568236E-1,-1.4144766E-1,-8.071792E-2,9.436524E-2,-8.3857946E-2],"categories":[],"categories_nodes":[],"categories_segments":[],"categories_sizes":[],"default_left":[0,0,0,0,0,0,0,0,0,0,0,0,0,0,0,0,0,0,0,0,0,0,0,0,0,0,0,0,0,0,0,0,0,0,0,0,0,0,0,0,0,0,0,0,0,0,0,0,0,0,0,0,0,0,0,0,0,0,0,0,0,0,0,0,0,0,0,0,0,0,0,0,0],"id":11,"left_children":[1,3,5,7,9,11,13,15,17,19,21,23,25,27,29,31,33,35,37,39,-1,-1,-1,-1,-1,-1,-1,41,43,45,47,49,-1,51,53,55,-1,-1,57,59,61,63,65,-1,67,-1,-1,69,71,-1,-1,-1,-1,-1,-1,-1,-1,-1,-1,-1,-1,-1,-1,-1,-1,-1,-1,-1,-1,-1,-1,-1,-1],"loss_changes":[3.9870262E0,2.7762935E0,1.4123383E0,2.6957517E0,8.9892614E-1,2.0657263E0,1.8419895E0,2.7433343E0,4.970193E-1,1.5987186E0,3.5854316E-1,6.361685E-1,1.7855942E0,2.2797859E0,1.5730343E0,1.4161103E0,1.4290104E0,4.795661E-1,1.2982463E0,6.8276286E-1,0E0,0E0,0E0,0E0,0E0,0E0,0E0,1.8827095E0,2.1313574E0,6.183224E-1,1.885354E0,1.1539509E0,0E0,9.031935E-1,1.5880262E0,4.1079187E-1,0E0,0E0,5.0964475E-1,6.463924E-1,5.4252493E-1,4.230816E0,1.1086636E0,0E0,2.927844E0,0E0,0E0,1.2209454E0,1.8699247E0,0E0,0E0,0E0,0E0,0E0,0E0,0E0,0E0,0E0,0E0,0E0,0E0,0E0,0E0,0E0,0E0,0E0,0E0,0E0,0E0,0E0,0E0,0E0,0E0],"parents":[2147483647,0,0,1,1,2,2,3,3,4,4,5,5,6,6,7,7,8,8,9,9,10,10,11,11,12,12,13,13,14,14,15,15,16,16,17,17,18,18,19,19,27,27,28,28,29,29,30,30,31,31,33,33,34,34,35,35,38,38,39,39,40,40,41,41,42,42,44,44,47,47,48,48],"right_children":[2,4,6,8,10,12,14,16,18,20,22,24,26,28,30,32,34,36,38,40,-1,-1,-1,-1,-1,-1,-1,42,44,46,48,50,-1,52,54,56,-1,-1,58,60,62,64,66,-1,68,-1,-1,70,72,-1,-1,-1,-1,-1,-1,-1,-1,-1,-1,-1,-1,-1,-1,-1,-1,-1,-1,-1,-1,-1,-1,-1,-1],"split_conditions":[5.4E1,2.05E1,1E0,1.551312E9,3.2E1,5.5E1,3.3E2,5E0,1.6419456E9,1.3E1,1.5615936E9,6.7E1,1.93E2,2.9E1,2.4E1,1.6E1,3E0,1E0,1.6452288E9,2E0,-1.4597063E-1,2.6923877E-1,5.9064876E-2,-1.7831878E-1,2.5843058E-2,2.4504933E-1,-1.1826331E-1,8.9411766E1,2E0,1.6982784E9,1.6339968E9,1E0,-1.2794799E-1,1.4037408E9,1.2E1,2.1E1,3.0181287E-2,1.6176394E-1,1.3E1,1E0,2.5E1,1E1,7.5E0,2.5510877E-1,4.2E1,-1.7663455E-1,2.9902644E-2,1.5E1,6.5E1,-7.186397E-2,1.2343363E-1,5.4105327E-2,-1.3534293E-1,2.2752969E-1,-2.9946454E-2,-1.5453911E-1,-4.279416E-2,-4.364861E-2,-1.386763E-1,1.0901164E-1,-1.13878846E-1,9.656643E-3,2.568325E-1,3.748757E-1,-7.066623E-2,-7.248409E-2,-1.7775029E-1,-6.996624E-2,1.6568236E-1,-1.4144766E-1,-8.071792E-2,9.436524E-2,-8.3857946E-2],"split_indices":[1,16,7,17,1,20,5,5,17,5,17,16,9,8,14,1,14,11,17,21,0,0,0,0,0,0,0,22,7,17,17,20,0,17,1,5,0,0,1,6,16,6,16,0,14,0,0,16,20,0,0,0,0,0,0,0,0,0,0,0,0,0,0,0,0,0,0,0,0,0,0,0,0],"split_type":[0,0,0,0,0,0,0,0,0,0,0,0,0,0,0,0,0,0,0,0,0,0,0,0,0,0,0,0,0,0,0,0,0,0,0,0,0,0,0,0,0,0,0,0,0,0,0,0,0,0,0,0,0,0,0,0,0,0,0,0,0,0,0,0,0,0,0,0,0,0,0,0,0],"sum_hessian":[4.3455347E2,1.2904169E2,3.0551178E2,1.1714236E2,1.1899322E1,4.4724403E1,2.6078738E2,6.406472E1,5.3077637E1,8.116047E0,3.7832751E0,4.1730774E1,2.9936302E0,7.515078E1,1.8563661E2,2.1805347E1,4.2259373E1,2.9611473E1,2.3466164E1,5.781541E0,2.334506E0,1.8203232E0,1.9629519E0,4.0554577E1,1.1761954E0,1.3658922E0,1.627738E0,4.9621323E1,2.5529455E1,3.5067173E1,1.5056943E2,1.9793232E1,2.0121155E0,1.9855034E1,2.240434E1,2.8364233E1,1.2472386E0,1.1623609E0,2.2303804E1,2.6897786E0,3.0917623E0,9.456031E0,4.0165295E1,2.0207968E0,2.350866E1,3.398981E1,1.0773602E0,1.3075175E2,1.9817677E1,2.5248444E0,1.7268389E1,2.0330172E0,1.7822016E1,1.3903737E0,2.1013966E1,2.3932644E1,4.4315896E0,1.3444477E1,8.859327E0,1.2857879E0,1.4039905E0,1.2192526E0,1.8725097E0,1.4419742E0,8.014057E0,2.353062E1,1.6634672E1,1.8201195E1,5.307464E0,6.1038544E1,6.971321E1,8.081718E0,1.1735958E1],"tree_param":{"num_deleted":"0","num_feature":"23","num_nodes":"73","size_leaf_vector":"1"}},{"base_weights":[-4.0531704E-1,-4.2252323E-1,-2.671264E-1,-4.2467222E-1,1.4478163E-2,-1.1546698E-1,-4.489857E-1,-3.972014E-1,-4.8322204E-1,-1.529564E-1,8.0719836E-2,-4.906356E-1,2.158321E-2,-4.0357438E-1,5.0064456E-2,2.5954159E-2,-4.9171045E-1,-6.3480586E-2,4.7790793E-1,-1.5076792E-1,-1.6152203E-1,-4.5816013E-1,-3.400058E-1,-1.4990196E-1,-1.9742903E-1,1.3584995E-1,-1.6327532E-1,1.9459483E-1,3.9832448E-3,-1.0609088E-1,4.953064E-2,-1.394799E-1,2.7416987E-2,-8.84799E-2,-1.644201E-1,4.7757052E-2,-1.14783846E-1,-7.462578E-2,3.731751E-2],"categories":[],"categories_nodes":[],"categories_segments":[],"categories_sizes":[],"default_left":[0,0,0,0,0,0,0,0,0,0,0,0,0,0,0,0,0,0,0,0,0,0,0,0,0,0,0,0,0,0,0,0,0,0,0,0,0,0,0],"id":12,"left_children":[1,3,5,7,-1,9,11,13,15,-1,17,19,-1,21,-1,-1,23,25,27,29,-1,31,33,-1,35,-1,37,-1,-1,-1,-1,-1,-1,-1,-1,-1,-1,-1,-1],"loss_changes":[6.880684E-1,3.218193E-1,1.0518363E0,2.8508377E-1,0E0,1.8336031E0,4.2259002E-1,8.1324005E-1,4.7825813E-1,0E0,9.658477E-1,1.8926E-1,0E0,5.571556E-1,0E0,0E0,1.09724045E-1,7.368593E-1,3.458252E-1,2.7892628E-1,0E0,4.4321442E-1,7.648697E-1,0E0,3.2480004E-1,0E0,3.1413323E-1,0E0,0E0,0E0,0E0,0E0,0E0,0E0,0E0,0E0,0E0,0E0,0E0],"parents":[2147483647,0,0,1,1,2,2,3,3,5,5,6,6,7,7,8,8,10,10,11,11,13,13,16,16,17,17,18,18,19,19,21,21,22,22,24,24,26,26],"right_children":[2,4,6,8,-1,10,12,14,16,-1,18,20,-1,22,-1,-1,24,26,28,30,-1,32,34,-1,36,-1,38,-1,-1,-1,-1,-1,-1,-1,-1,-1,-1,-1,-1],"split_conditions":[1.6629408E9,2.601E4,1E1,5.3333336E-1,1.4478163E-2,5E0,1.98E2,4.557E3,1.1917152E9,-1.529564E-1,5E0,2E0,2.158321E-2,6E0,5.0064456E-2,2.5954159E-2,7.46E2,1.6720992E9,4.4E1,1.65E1,-1.6152203E-1,4.98E2,2.3333333E0,-1.4990196E-1,2.06E3,1.3584995E-1,1.01E2,1.9459483E-1,3.9832448E-3,-1.0609088E-1,4.953064E-2,-1.394799E-1,2.7416987E-2,-8.84799E-2,-1.644201E-1,4.7757052E-2,-1.14783846E-1,-7.462578E-2,3.731751E-2],"split_indices":[17,2,6,19,0,5,11,14,17,0,7,20,0,16,0,0,13,17,9,16,0,20,18,0,11,0,1,0,0,0,0,0,0,0,0,0,0,0,0],"split_type":[0,0,0,0,0,0,0,0,0,0,0,0,0,0,0,0,0,0,0,0,0,0,0,0,0,0,0,0,0,0,0,0,0,0,0,0,0,0,0],"sum_hessian":[3.3584973E2,2.9683334E2,3.901639E1,2.9558203E2,1.2512908E0,2.2166128E1,1.6850262E1,2.0648564E2,8.9096405E1,6.8323884E0,1.5333739E1,1.5656622E1,1.1936405E0,2.0446019E2,2.0254433E0,1.173006E0,8.79234E1,1.1865945E1,3.4677947E0,2.4416368E0,1.3214985E1,1.0666266E2,9.779754E1,8.492746E1,2.995935E0,1.3489839E0,1.051696E1,2.2462811E0,1.2215134E0,1.4139569E0,1.0276799E0,1.0551621E2,1.1464467E0,8.2370865E1,1.542667E1,1.0719619E0,1.9239732E0,8.212097E0,2.304864E0],"tree_param":{"num_deleted":"0","num_feature":"23","num_nodes":"39","size_leaf_vector":"1"}},{"base_weights":[3.901598E-1,3.277848E-1,4.4266772E-1,3.6049816E-1,5.856974E-2,5.4965234E-1,4.0515026E-1,3.7173936E-1,-2.7486938E-1,2.6722065E-1,-5.1105154E-1,-3.268572E-2,5.6984717E-1,4.580299E-2,4.2774972E-1,3.0148464E-1,4.663783E-1,2.0900097E-1,-2.644569E-1,3.4210646E-1,-1.6543972E-1,-2.5910944E-1,-1.0577674E-1,-1.4444147E-1,1.2622654E-1,3.007096E-1,6.1731887E-1,2.0135993E-1,-2.760547E-1,3.9199197E-1,5.8267736E-1,3.3172545E-1,-1.8972647E-1,5.7832575E-1,3.390272E-1,-2.2597494E-2,1.1836455E-1,5.95604E-2,1.982362E-1,1.3510256E-1,-4.253197E-1,5.551852E-1,-4.1402516E-1,6.3133043E-1,1.5318368E-2,-1.2215553E-1,4.9644646E-1,4.2567247E-1,5.722134E-2,6.159483E-1,2.5387383E-1,1.0414026E-1,-4.71746E-2,-1.8634306E-1,1.0548687E-1,1.8167952E-1,7.334068E-2,2.8126813E-3,1.4358339E-1,-5.9064317E-2,1.407411E-1,-2.1929729E-1,1.7292736E-2,-1.223016E-2,1.9300169E-1,-2.8138703E-1,1.2307207E-1,1.3763113E-1,2.0124358E-1,8.485074E-2,-2.241639E-1,1.8183924E-1,-2.964338E-3,1.3874884E-1,5.974012E-2,-7.4920654E-2,1.06172085E-1,1.9228384E-1,2.1658272E-2,-1.0172107E-1,1.6514392E-1],"categories":[],"categories_nodes":[],"categories_segments":[],"categories_sizes":[],"default_left":[0,0,0,0,0,0,0,0,0,0,0,0,0,0,0,0,0,0,0,0,0,0,0,0,0,0,0,0,0,0,0,0,0,0,0,0,0,0,0,0,0,0,0,0,0,0,0,0,0,0,0,0,0,0,0,0,0,0,0,0,0,0,0,0,0,0,0,0,0,0,0,0,0,0,0,0,0,0,0,0,0],"id":13,"left_children":[1,3,5,7,9,11,13,15,17,19,21,23,25,27,29,31,33,35,-1,37,-1,-1,39,-1,-1,41,43,45,-1,47,49,51,53,55,57,-1,-1,59,-1,-1,61,63,65,67,-1,69,71,73,75,77,79,-1,-1,-1,-1,-1,-1,-1,-1,-1,-1,-1,-1,-1,-1,-1,-1,-1,-1,-1,-1,-1,-1,-1,-1,-1,-1,-1,-1,-1,-1],"loss_changes":[1.7609863E0,2.3554287E0,1.0341339E0,1.8193092E0,3.7534235E0,9.4174004E-1,1.8939972E0,1.43293E0,1.5798912E0,1.5944347E0,1.1237245E0,9.304156E-1,7.8432274E-1,2.4486117E0,9.99073E-1,2.1226578E0,1.2154026E0,2.1190001E-1,0E0,1.9078224E0,0E0,0E0,1.0970012E0,0E0,0E0,2.654851E0,4.722576E-1,1.3774408E0,0E0,2.0398808E0,2.7567196E-1,1.04146E0,2.2450027E0,3.1878853E-1,2.237897E0,0E0,0E0,1.4117329E0,0E0,0E0,5.95778E-1,5.65202E-1,2.1439464E0,1.14393234E-1,0E0,2.080122E0,4.175774E-1,1.2942276E0,1.7176726E0,4.3169308E-1,1.124085E0,0E0,0E0,0E0,0E0,0E0,0E0,0E0,0E0,0E0,0E0,0E0,0E0,0E0,0E0,0E0,0E0,0E0,0E0,0E0,0E0,0E0,0E0,0E0,0E0,0E0,0E0,0E0,0E0,0E0,0E0],"parents":[2147483647,0,0,1,1,2,2,3,3,4,4,5,5,6,6,7,7,8,8,9,9,10,10,11,11,12,12,13,13,14,14,15,15,16,16,17,17,19,19,22,22,25,25,26,26,27,27,29,29,30,30,31,31,32,32,33,33,34,34,37,37,40,40,41,41,42,42,43,43,45,45,46,46,47,47,48,48,49,49,50,50],"right_children":[2,4,6,8,10,12,14,16,18,20,22,24,26,28,30,32,34,36,-1,38,-1,-1,40,-1,-1,42,44,46,-1,48,50,52,54,56,58,-1,-1,60,-1,-1,62,64,66,68,-1,70,72,74,76,78,80,-1,-1,-1,-1,-1,-1,-1,-1,-1,-1,-1,-1,-1,-1,-1,-1,-1,-1,-1,-1,-1,-1,-1,-1,-1,-1,-1,-1,-1,-1],"split_conditions":[1.5E1,2.05E1,2.2E1,1.4E1,5.6E1,5.5155254E1,1.764706E-1,5E0,2E0,5E0,5.74E2,1.4611104E9,3E0,1.5142464E9,1.075E3,2.9E1,1E0,1.5367968E9,-2.644569E-1,4.5E1,-1.6543972E-1,-2.5910944E-1,9.14E2,-1.4444147E-1,1.2622654E-1,5.1E1,5.23E2,9E0,-2.760547E-1,4.323E3,2.2385E4,8E0,4.1E1,5E0,1E0,-2.2597494E-2,1.1836455E-1,1.6328736E9,1.982362E-1,1.3510256E-1,6E0,2E0,7E1,6E0,1.5318368E-2,7E-1,4E1,1.3E1,1.5573E4,2.7157144E2,4.82E2,1.0414026E-1,-4.71746E-2,-1.8634306E-1,1.0548687E-1,1.8167952E-1,7.334068E-2,2.8126813E-3,1.4358339E-1,-5.9064317E-2,1.407411E-1,-2.1929729E-1,1.7292736E-2,-1.223016E-2,1.9300169E-1,-2.8138703E-1,1.2307207E-1,1.3763113E-1,2.0124358E-1,8.485074E-2,-2.241639E-1,1.8183924E-1,-2.964338E-3,1.3874884E-1,5.974012E-2,-7.4920654E-2,1.06172085E-1,1.9228384E-1,2.1658272E-2,-1.0172107E-1,1.6514392E-1],"split_indices":[6,16,14,6,8,22,19,8,10,18,1,17,20,17,10,5,7,17,0,1,0,0,1,0,0,6,8,10,0,7,15,0,5,21,16,0,0,17,0,0,9,9,6,15,0,18,10,4,6,18,3,0,0,0,0,0,0,0,0,0,0,0,0,0,0,0,0,0,0,0,0,0,0,0,0,0,0,0,0,0,0],"split_type":[0,0,0,0,0,0,0,0,0,0,0,0,0,0,0,0,0,0,0,0,0,0,0,0,0,0,0,0,0,0,0,0,0,0,0,0,0,0,0,0,0,0,0,0,0,0,0,0,0,0,0,0,0,0,0,0,0,0,0,0,0,0,0,0,0,0,0,0,0,0,0,0,0,0,0,0,0,0,0,0,0],"sum_hessian":[5.8097687E2,2.688492E2,3.1212762E2,2.3941759E2,2.943163E1,7.749442E1,2.3463321E2,2.3566307E2,3.7545273E0,2.192971E1,7.5019197E0,2.5766177E0,7.49178E1,1.4062142E1,2.2057108E2,1.3765858E2,9.800448E1,2.4532704E0,1.3012569E0,2.0625233E1,1.3044772E0,3.406575E0,4.095345E0,1.2638875E0,1.3127301E0,1.23327265E1,6.2585075E1,1.2793498E1,1.2686445E0,1.8207727E2,3.8493797E1,1.2998114E2,7.6774473E0,5.027195E1,4.773253E1,1.2033468E0,1.2499235E0,1.1561537E1,9.063696E0,1.3450856E0,2.7502594E0,9.259267E0,3.0734591E0,6.096171E1,1.6233668E0,6.382327E0,6.4111714E0,1.6518669E2,1.6890583E1,3.4163555E1,4.330243E0,1.2629147E2,3.689669E0,4.19051E0,3.4869375E0,4.572292E1,4.5490317E0,1.4516505E1,3.3216022E1,7.4292736E0,4.132263E0,1.369765E0,1.3804944E0,1.2624142E0,7.996853E0,1.7947338E0,1.2787254E0,1.3700665E1,4.7261044E1,4.205182E0,2.177145E0,5.107612E0,1.3035594E0,1.4119414E2,2.3992552E1,8.379369E0,8.511214E0,3.249111E1,1.6724448E0,1.3961118E0,2.9341314E0],"tree_param":{"num_deleted":"0","num_feature":"23","num_nodes":"81","size_leaf_vector":"1"}},{"base_weights":[-2.3297183E-1,-1.0238311E-1,-2.9411137E-1,-1.4536844E-1,2.937314E-1,-3.6380652E-1,-2.0698534E-1,-2.497346E-2,-2.9343492E-1,9.803895E-2,5.865652E-1,-3.8022414E-1,1.7881402E-1,2.1918852E-2,-3.6542967E-1,1.12483226E-1,-2.0967184E-1,-3.9909753E-1,-1.5430477E-1,3.3571196E-1,-1.3387142E-1,2.3665959E-1,5.676545E-2,-3.9315426E-1,6.413339E-2,-5.6047432E-2,4.7487426E-1,-1.2718198E-1,-4.3489662E-1,2.4845345E-1,-6.744998E-2,-3.4407946E-1,1.1731186E-1,-4.2655262E-1,3.6667563E-2,-2.1656384E-1,1.4890103E-1,-4.171853E-3,5.4551566E-1,-5.385074E-1,-3.4526715E-1,-1.2251662E-1,1.5532418E-1,1.9619311E-1,-2.0050208E-1,-1.2065404E-1,8.6649895E-1,-3.789765E-1,3.388433E-1,4.3787662E-2,-4.5003927E-1,1.790072E-2,1.5598507E-1,-7.687168E-2,9.9204466E-2,1.8954016E-2,-1.2359325E-1,-4.1043006E-2,2.7210888E-1,-7.274904E-2,-1.5198164E-1,1.2111499E-1,-9.331058E-2,1.0176573E-1,-1.0446313E-1,2.2518998E-1,5.5565047E-3,-1.6974214E-1,2.6466487E-2,-4.032746E-2,-1.2974113E-1,-2.2393176E-2,2.2664043E-1,-1.1240582E-1,7.207522E-2,3.1927618E-1,1.5808705E-2,4.5921247E-2,-1.3346407E-1,-6.1277106E-2,2.547148E-1,-1.7188816E-1,-1.0080083E-1],"categories":[],"categories_nodes":[],"categories_segments":[],"categories_sizes":[],"default_left":[0,0,0,0,0,0,0,0,0,0,0,0,0,0,0,0,0,0,0,0,0,0,0,0,0,0,0,0,0,0,0,0,0,0,0,0,0,0,0,0,0,0,0,0,0,0,0,0,0,0,0,0,0,0,0,0,0,0,0,0,0,0,0,0,0,0,0,0,0,0,0,0,0,0,0,0,0,0,0,0,0,0,0],"id":14,"left_children":[1,3,5,7,9,11,13,15,17,19,21,23,-1,25,27,29,31,33,35,37,-1,-1,-1,39,41,43,45,47,49,51,53,55,57,59,-1,61,-1,63,65,67,69,-1,-1,71,73,-1,75,77,79,-1,81,-1,-1,-1,-1,-1,-1,-1,-1,-1,-1,-1,-1,-1,-1,-1,-1,-1,-1,-1,-1,-1,-1,-1,-1,-1,-1,-1,-1,-1,-1,-1,-1],"loss_changes":[3.0725288E0,2.1788106E0,1.5286694E0,2.02206E0,6.6524255E-1,2.5184479E0,4.34984E0,1.6453905E0,6.875806E-1,1.2830969E0,2.4071133E-1,8.5027504E-1,0E0,1.7892692E0,1.116477E0,9.287126E-1,1.2536104E0,4.5767212E-1,1.0645797E0,4.7780603E-1,0E0,0E0,0E0,7.863102E-1,1.2660304E0,1.6235151E0,2.9022956E0,2.1698003E0,5.442114E-1,1.0681113E0,1.3497461E0,5.740428E-1,1.8876148E0,2.770176E-1,0E0,1.4299693E0,0E0,5.360587E-1,4.326328E-1,6.115751E-1,1.9248352E0,0E0,0E0,2.53104E0,2.2503462E0,0E0,8.2213974E-1,4.8067617E-1,2.0106483E0,0E0,5.5415726E-1,0E0,0E0,0E0,0E0,0E0,0E0,0E0,0E0,0E0,0E0,0E0,0E0,0E0,0E0,0E0,0E0,0E0,0E0,0E0,0E0,0E0,0E0,0E0,0E0,0E0,0E0,0E0,0E0,0E0,0E0,0E0,0E0],"parents":[2147483647,0,0,1,1,2,2,3,3,4,4,5,5,6,6,7,7,8,8,9,9,10,10,11,11,13,13,14,14,15,15,16,16,17,17,18,18,19,19,23,23,24,24,25,25,26,26,27,27,28,28,29,29,30,30,31,31,32,32,33,33,35,35,37,37,38,38,39,39,40,40,43,43,44,44,46,46,47,47,48,48,50,50],"right_children":[2,4,6,8,10,12,14,16,18,20,22,24,-1,26,28,30,32,34,36,38,-1,-1,-1,40,42,44,46,48,50,52,54,56,58,60,-1,62,-1,64,66,68,70,-1,-1,72,74,-1,76,78,80,-1,82,-1,-1,-1,-1,-1,-1,-1,-1,-1,-1,-1,-1,-1,-1,-1,-1,-1,-1,-1,-1,-1,-1,-1,-1,-1,-1,-1,-1,-1,-1,-1,-1],"split_conditions":[5.9E1,2.05E1,3E0,1.551312E9,3.2E1,3.1E1,6.487E3,1.8E1,1.6419456E9,1.3E1,1.5615936E9,6.65E1,1.7881402E-1,1.9E1,6.2E1,5E0,2.9E1,1E0,3.6E1,2E0,-1.3387142E-1,2.3665959E-1,5.676545E-2,1E0,1.595808E9,1.4514336E9,2E2,4.3E1,1E0,1.4877216E9,3E0,1E0,1E0,1.5839712E9,3.6667563E-2,1.647648E9,1.4890103E-1,8E0,1.6328736E9,5.5E1,8E0,-1.2251662E-1,1.5532418E-1,1.4068512E9,1.6466976E9,-1.2065404E-1,2.52E2,3.71E2,5.603E3,4.3787662E-2,6.7E1,1.790072E-2,1.5598507E-1,-7.687168E-2,9.9204466E-2,1.8954016E-2,-1.2359325E-1,-4.1043006E-2,2.7210888E-1,-7.274904E-2,-1.5198164E-1,1.2111499E-1,-9.331058E-2,1.0176573E-1,-1.0446313E-1,2.2518998E-1,5.5565047E-3,-1.6974214E-1,2.6466487E-2,-4.032746E-2,-1.2974113E-1,-2.2393176E-2,2.2664043E-1,-1.1240582E-1,7.207522E-2,3.1927618E-1,1.5808705E-2,4.5921247E-2,-1.3346407E-1,-6.1277106E-2,2.547148E-1,-1.7188816E-1,-1.0080083E-1],"split_indices":[1,16,12,17,1,18,5,1,17,5,17,16,0,11,21,5,5,11,5,21,0,0,0,7,17,17,7,21,11,17,20,15,7,17,0,17,0,1,17,20,15,0,0,17,17,0,0,9,6,0,11,0,0,0,0,0,0,0,0,0,0,0,0,0,0,0,0,0,0,0,0,0,0,0,0,0,0,0,0,0,0,0,0],"split_type":[0,0,0,0,0,0,0,0,0,0,0,0,0,0,0,0,0,0,0,0,0,0,0,0,0,0,0,0,0,0,0,0,0,0,0,0,0,0,0,0,0,0,0,0,0,0,0,0,0,0,0,0,0,0,0,0,0,0,0,0,0,0,0,0,0,0,0,0,0,0,0,0,0,0,0,0,0,0,0,0,0,0,0],"sum_hessian":[3.8760077E2,1.2445354E2,2.6314725E2,1.128413E2,1.1612235E1,1.4443391E2,1.1871333E2,6.2880737E1,4.996056E1,7.760745E0,3.8514895E0,1.4259874E2,1.8351756E0,4.8911972E1,6.980137E1,3.6275032E1,2.6605705E1,2.7333542E1,2.2627018E1,5.6685977E0,2.0921474E0,1.8992165E0,1.9522731E0,1.3867863E2,3.9201076E0,4.247679E1,6.4351797E0,1.639681E1,5.3404556E1,2.0444738E1,1.5830295E1,1.8818161E1,7.787544E0,2.6138752E1,1.1947914E0,2.1259844E1,1.3671743E0,2.5376682E0,3.1309295E0,3.1827217E1,1.0685141E2,1.9688687E0,1.9512389E0,1.53372965E1,2.7139494E1,1.9781361E0,4.4570436E0,1.07664585E1,5.6303515E0,1.1373676E0,5.226719E1,1.2778812E1,7.665926E0,1.0980077E1,4.850218E0,2.6989655E0,1.6119196E1,6.517159E0,1.2703844E0,9.144077E0,1.6994673E1,2.3773313E0,1.8882513E1,1.2770404E0,1.260628E0,1.9482572E0,1.1826723E0,3.059187E1,1.2353476E0,3.2006588E1,7.4844826E1,1.0917077E1,4.4202194E0,1.955953E1,7.579964E0,3.338123E0,1.1189206E0,1.0408585E0,9.725599E0,3.0177243E0,2.6126275E0,2.3216982E1,2.9050207E1],"tree_param":{"num_deleted":"0","num_feature":"23","num_nodes":"83","size_leaf_vector":"1"}},{"base_weights":[-3.6279058E-1,-4.7674233E-1,-3.3350912E-1,1.8518105E-2,-4.9069324E-1,-3.7193337E-1,-2.1928507E-1,-2.9334512E-1,-5.176655E-1,-3.801977E-1,1.7402473E-1,4.959182E-2,-2.917648E-1,-1.500238E-1,1.7482325E-1,-1.596911E-1,-1.835929E-1,-4.5555297E-1,-3.1856236E-1,1.8251614E-1,-9.28417E-2,-2.4142502E-1,8.4884316E-1,-4.8133302E-1,-1.7023699E-1,4.174702E-2,-1.1054017E-1,-1.6636775E-1,-3.3740032E-1,5.3374786E-2,-3.9169127E-1,-1.525959E-1,3.3161825E-1,4.260374E-1,-8.916389E-2,5.0549444E-2,-1.5999278E-1,-1.4418514E-1,-8.546873E-2,-1.20584056E-1,5.506217E-2,-3.8371593E-2,2.7295965E-1,-1.48455E-1,-9.017093E-2,1.4079754E-1,-6.52427E-2],"categories":[],"categories_nodes":[],"categories_segments":[],"categories_sizes":[],"default_left":[0,0,0,0,0,0,0,0,0,0,0,0,0,0,0,0,0,0,0,0,0,0,0,0,0,0,0,0,0,0,0,0,0,0,0,0,0,0,0,0,0,0,0,0,0,0,0],"id":15,"left_children":[1,3,5,-1,7,9,11,13,15,17,19,21,23,-1,-1,-1,25,27,29,-1,-1,31,33,35,37,-1,-1,-1,39,41,43,-1,-1,-1,-1,-1,-1,-1,45,-1,-1,-1,-1,-1,-1,-1,-1],"loss_changes":[8.0749893E-1,4.5763397E-1,9.444599E-1,0E0,1.4389896E-1,8.4895134E-1,1.2087207E0,1.919396E0,1.3491821E-1,6.5010834E-1,8.7565625E-1,3.4302006E0,1.0334249E0,0E0,0E0,0E0,2.6151744E-1,6.868324E-1,2.673067E0,0E0,0E0,4.500994E0,2.9903479E0,7.1017694E-1,7.758311E-1,0E0,0E0,0E0,1.3049493E0,2.7406106E0,6.183634E-1,0E0,0E0,0E0,0E0,0E0,0E0,0E0,1.9772557E0,0E0,0E0,0E0,0E0,0E0,0E0,0E0,0E0],"parents":[2147483647,0,0,1,1,2,2,4,4,5,5,6,6,7,7,8,8,9,9,10,10,11,11,12,12,16,16,17,17,18,18,21,21,22,22,23,23,24,24,28,28,29,29,30,30,38,38],"right_children":[2,4,6,-1,8,10,12,14,16,18,20,22,24,-1,-1,-1,26,28,30,-1,-1,32,34,36,38,-1,-1,-1,40,42,44,-1,-1,-1,-1,-1,-1,-1,46,-1,-1,-1,-1,-1,-1,-1,-1],"split_conditions":[9.631728E1,1.1111111E-1,1.61352E9,1.8518105E-2,2.6E1,7.46E2,1.6328736E9,1E1,1.701026E6,4E0,3.240758E6,2.31E2,1.6629408E9,-1.500238E-1,1.7482325E-1,-1.596911E-1,3.1E2,1.5161472E9,1.3E1,1.8251614E-1,-9.28417E-2,1.629072E9,2E0,3E0,5E0,4.174702E-2,-1.1054017E-1,-1.6636775E-1,1.4E1,6.3E1,1E1,-1.525959E-1,3.3161825E-1,4.260374E-1,-8.916389E-2,5.0549444E-2,-1.5999278E-1,-1.4418514E-1,3E0,-1.20584056E-1,5.506217E-2,-3.8371593E-2,2.7295965E-1,-1.48455E-1,-9.017093E-2,1.4079754E-1,-6.52427E-2],"split_indices":[22,19,17,0,1,13,17,14,5,7,1,8,17,0,0,0,13,17,9,0,0,17,13,1,5,0,0,0,6,8,16,0,0,0,0,0,0,0,8,0,0,0,0,0,0,0,0],"split_type":[0,0,0,0,0,0,0,0,0,0,0,0,0,0,0,0,0,0,0,0,0,0,0,0,0,0,0,0,0,0,0,0,0,0,0,0,0,0,0,0,0,0,0,0,0,0,0],"sum_hessian":[2.88659E2,5.5887177E1,2.327718E2,1.3248981E0,5.456228E1,1.7249081E2,6.0280987E1,7.9885116E0,4.6573765E1,1.7021779E2,2.2730234E0,1.2866422E1,4.7414566E1,6.810583E0,1.1779283E0,4.4050232E1,2.523536E0,7.370955E1,9.650825E1,1.0612845E0,1.211739E0,9.943728E0,2.9226928E0,1.7365646E1,3.004892E1,1.0091221E0,1.514414E0,3.809456E1,3.5614986E1,1.5901678E1,8.0606575E1,8.816701E0,1.1270278E0,1.7908543E0,1.1318386E0,1.1200795E0,1.6245567E1,5.4443994E0,2.460452E1,3.1891886E1,3.7231016E0,1.3826005E1,2.0756724E0,3.5728107E1,4.4878464E1,4.237982E0,2.0366539E1],"tree_param":{"num_deleted":"0","num_feature":"23","num_nodes":"47","size_leaf_vector":"1"}},{"base_weights":[3.1989557E-1,2.675555E-1,3.8181204E-1,2.9309908E-1,3.1174717E-2,5.5133104E-1,3.358734E-1,2.723488E-1,5.1247686E-1,2.2017853E-1,-5.918786E-1,5.8414745E-1,-1.0672692E-1,-2.2664203E-1,3.5169578E-1,2.500698E-1,5.272904E-1,1.9245169E-1,1.90335E-1,-3.151151E-1,3.5065007E-1,-2.715569E-1,-2.2803172E-2,6.1719114E-1,-2.3469983E-2,-3.4848708E-1,3.6540097E-1,2.6257265E-1,-2.627695E-1,-5.1261242E-3,5.6712306E-1,4.583652E-1,-1.10437915E-1,1.2798978E-1,-2.5525418E-1,-5.580111E-2,4.2463762E-1,-1.2128506E-1,1.1591425E-1,1.9179578E-1,1.9076975E-1,1.880622E-2,-2.0631742E-1,4.9820495E-1,3.0606556E-1,8.055064E-2,-1.2005162E-1,1.3899015E-1,-2.54605E-1,1.9063105E-1,4.7893405E-2,1.6852835E-1,1.458585E-2,-3.50631E-2,1.4091603E-1,1.1367395E-1,-2.5338396E-2,-1.1319717E-2,1.6497487E-1,-1.5440345E-2,1.03043176E-1],"categories":[],"categories_nodes":[],"categories_segments":[],"categories_sizes":[],"default_left":[0,0,0,0,0,0,0,0,0,0,0,0,0,0,0,0,0,0,0,0,0,0,0,0,0,0,0,0,0,0,0,0,0,0,0,0,0,0,0,0,0,0,0,0,0,0,0,0,0,0,0,0,0,0,0,0,0,0,0,0,0],"id":16,"left_children":[1,3,5,7,9,11,13,15,17,19,21,23,-1,-1,25,27,29,-1,31,33,35,-1,37,39,-1,41,43,45,47,-1,49,51,-1,-1,-1,-1,53,-1,-1,55,-1,-1,-1,57,59,-1,-1,-1,-1,-1,-1,-1,-1,-1,-1,-1,-1,-1,-1,-1,-1],"loss_changes":[1.6152611E0,1.7450542E0,1.6871185E0,1.0534267E0,3.5985484E0,1.687336E0,3.5762768E0,1.2401676E0,7.720766E-1,1.7395866E0,1.2498996E0,1.1064606E0,0E0,0E0,1.9473724E0,1.5055904E0,4.1108513E-1,0E0,1.3024687E0,2.3887968E0,8.424432E-1,0E0,7.1129483E-1,2.4540329E-1,0E0,6.2239504E-1,1.317215E0,9.689131E-1,2.87424E0,0E0,3.7951803E-1,2.0838118E-1,0E0,0E0,0E0,0E0,4.7486925E-1,0E0,0E0,2.0653965E-1,0E0,0E0,0E0,1.5728483E0,1.7766972E0,0E0,0E0,0E0,0E0,0E0,0E0,0E0,0E0,0E0,0E0,0E0,0E0,0E0,0E0,0E0,0E0],"parents":[2147483647,0,0,1,1,2,2,3,3,4,4,5,5,6,6,7,7,8,8,9,9,10,10,11,11,14,14,15,15,16,16,18,18,19,19,20,20,22,22,23,23,25,25,26,26,27,27,28,28,30,30,31,31,36,36,39,39,43,43,44,44],"right_children":[2,4,6,8,10,12,14,16,18,20,22,24,-1,-1,26,28,30,-1,32,34,36,-1,38,40,-1,42,44,46,48,-1,50,52,-1,-1,-1,-1,54,-1,-1,56,-1,-1,-1,58,60,-1,-1,-1,-1,-1,-1,-1,-1,-1,-1,-1,-1,-1,-1,-1,-1],"split_conditions":[3.3E2,2.16E2,8.05E2,3.5E1,3.3E1,5E0,1.144E3,1E0,5.2222223E0,5E0,1E0,4E1,-1.0672692E-1,-2.2664203E-1,6E0,5.1E1,1E0,1.9245169E-1,2E0,3E0,1.5384616E-1,-2.715569E-1,2.46E2,2E0,-2.3469983E-2,1.35E1,9.631728E1,7.2E1,2.6666668E-1,-5.1261242E-3,1.95E1,1.6665696E9,-1.10437915E-1,1.2798978E-1,-2.5525418E-1,-5.580111E-2,2.3E1,-1.2128506E-1,1.1591425E-1,4E0,1.9076975E-1,1.880622E-2,-2.0631742E-1,3.5714287E-1,9.889503E1,8.055064E-2,-1.2005162E-1,1.3899015E-1,-2.54605E-1,1.9063105E-1,4.7893405E-2,1.6852835E-1,1.458585E-2,-3.50631E-2,1.4091603E-1,1.1367395E-1,-2.5338396E-2,-1.1319717E-2,1.6497487E-1,-1.5440345E-2,1.03043176E-1],"split_indices":[5,5,5,9,20,4,1,2,18,6,2,16,0,0,9,6,15,0,10,20,19,0,5,9,0,16,22,7,19,0,16,17,0,0,0,0,8,0,0,6,0,0,0,19,22,0,0,0,0,0,0,0,0,0,0,0,0,0,0,0,0],"split_type":[0,0,0,0,0,0,0,0,0,0,0,0,0,0,0,0,0,0,0,0,0,0,0,0,0,0,0,0,0,0,0,0,0,0,0,0,0,0,0,0,0,0,0,0,0,0,0,0,0,0,0,0,0,0,0,0,0,0,0,0,0],"sum_hessian":[5.289488E2,2.89525E2,2.394238E2,2.6107318E2,2.8451813E1,4.87029E1,1.907209E2,2.405607E2,2.0512472E1,2.2325857E1,6.125956E0,4.7346046E1,1.3568554E0,2.0575085E0,1.8866339E2,2.230496E2,1.7511093E1,1.3938326E1,6.5741467E0,4.09791E0,1.8227947E1,3.5698833E0,2.5560725E0,4.5161335E1,2.184709E0,3.1529906E0,1.855104E2,2.1821754E2,4.8320656E0,1.2328771E0,1.6278215E1,4.5632687E0,2.0108778E0,1.8039279E0,2.293982E0,2.0251248E0,1.6202824E1,1.3290145E0,1.2270579E0,2.3764315E0,4.2784904E1,1.7938986E0,1.3590919E0,5.5004166E1,1.3050624E2,2.1687209E2,1.3454595E0,2.25139E0,2.5806756E0,1.3461895E1,2.8163214E0,3.3475442E0,1.2157245E0,1.1228641E0,1.5079959E1,1.1952537E0,1.1811777E0,4.8639865E0,5.014018E1,1.232679E1,1.1817945E2],"tree_param":{"num_deleted":"0","num_feature":"23","num_nodes":"61","size_leaf_vector":"1"}},{"base_weights":[-1.8453088E-1,-6.158686E-2,-2.4217409E-1,-1.00591704E-1,2.622609E-1,-4.834901E-1,-2.1168245E-1,7.5663785E-3,-2.4616495E-1,1.07079595E-1,1.780307E-1,-6.304101E-2,-1.646254E-1,-1.8817736E-1,-1.5776955E-1,8.2586646E-2,-3.1451878E-1,-3.4091845E-1,-1.2915249E-1,3.46883E-1,-1.3639957E-1,-1.2905061E-1,1.8784523E-1,-2.0638804E-1,3.8733277E-1,1.2172973E-1,-1.367251E-1,-4.5843646E-1,7.968641E-2,-3.7246907E-1,4.3490782E-2,1.4115684E-1,-1.9036597E-1,2.101496E-1,1.4504284E-1,4.1519366E-2,-2.379239E-1,2.9520178E-1,-2.3456141E-1,1.9646788E-2,2.4158993E-1,3.1362627E-2,-1.636385E-1,-1.3159694E-1,-5.3160903E-3,-1.6416876E-2,-1.1639062E-1,-1.09763205E-1,1.19414665E-1,8.66127E-2,-9.3381375E-2,-9.4845876E-2,-3.5094544E-2,2.9782908E-2,-1.1425396E-1],"categories":[],"categories_nodes":[],"categories_segments":[],"categories_sizes":[],"default_left":[0,0,0,0,0,0,0,0,0,0,0,0,0,0,0,0,0,0,0,0,0,0,0,0,0,0,0,0,0,0,0,0,0,0,0,0,0,0,0,0,0,0,0,0,0,0,0,0,0,0,0,0,0,0,0],"id":17,"left_children":[1,3,5,7,9,11,13,15,17,19,-1,21,-1,23,-1,25,27,29,31,33,-1,-1,-1,35,37,39,-1,41,-1,43,-1,-1,45,-1,47,49,51,-1,53,-1,-1,-1,-1,-1,-1,-1,-1,-1,-1,-1,-1,-1,-1,-1,-1],"loss_changes":[2.46E0,1.4513941E0,1.644556E0,1.598539E0,5.7392627E-1,6.748214E-1,1.4709167E0,1.4552486E0,4.3557954E-1,1.45987E0,0E0,1.4341673E0,0E0,2.1689076E0,0E0,1.0831428E0,1.0721434E0,4.1106796E-1,8.591659E-1,4.2240566E-1,0E0,0E0,0E0,1.5254669E0,2.6283548E0,1.7253988E0,0E0,5.218288E-1,0E0,5.123577E-1,0E0,0E0,5.077426E-1,0E0,9.128351E-1,2.07197E0,1.5915728E0,0E0,2.3174702E-1,0E0,0E0,0E0,0E0,0E0,0E0,0E0,0E0,0E0,0E0,0E0,0E0,0E0,0E0,0E0,0E0],"parents":[2147483647,0,0,1,1,2,2,3,3,4,4,5,5,6,6,7,7,8,8,9,9,11,11,13,13,15,15,16,16,17,17,18,18,19,19,23,23,24,24,25,25,27,27,29,29,32,32,34,34,35,35,36,36,38,38],"right_children":[2,4,6,8,10,12,14,16,18,20,-1,22,-1,24,-1,26,28,30,32,34,-1,-1,-1,36,38,40,-1,42,-1,44,-1,-1,46,-1,48,50,52,-1,54,-1,-1,-1,-1,-1,-1,-1,-1,-1,-1,-1,-1,-1,-1,-1,-1],"split_conditions":[5.4E1,2.05E1,5E0,1.551312E9,4E0,5E0,2.7035E4,4E0,1.6419456E9,8E0,1.780307E-1,6.2E1,-1.646254E-1,9.31E2,-1.5776955E-1,1E0,7E0,1E0,1.6452288E9,2.25E1,-1.3639957E-1,-1.2905061E-1,1.8784523E-1,1E0,2.128E3,2E0,-1.367251E-1,1E0,7.968641E-2,2.1E1,4.3490782E-2,1.4115684E-1,1.3E1,2.101496E-1,2.75E1,3.3E2,5E0,2.9520178E-1,9.68E2,1.9646788E-2,2.4158993E-1,3.1362627E-2,-1.636385E-1,-1.3159694E-1,-5.3160903E-3,-1.6416876E-2,-1.1639062E-1,-1.09763205E-1,1.19414665E-1,8.66127E-2,-9.3381375E-2,-9.4845876E-2,-3.5094544E-2,2.9782908E-2,-1.1425396E-1],"split_indices":[1,16,9,17,0,8,7,6,17,14,0,5,0,12,0,10,9,11,17,16,0,0,0,16,12,7,0,5,0,5,0,0,1,0,16,5,12,0,7,0,0,0,0,0,0,0,0,0,0,0,0,0,0,0,0],"split_type":[0,0,0,0,0,0,0,0,0,0,0,0,0,0,0,0,0,0,0,0,0,0,0,0,0,0,0,0,0,0,0,0,0,0,0,0,0,0,0,0,0,0,0,0,0,0,0,0,0,0,0,0,0,0,0],"sum_hessian":[3.482245E2,1.11813034E2,2.3641145E2,1.0040897E2,1.1404061E1,2.485424E1,2.1155722E2,5.8151535E1,4.2257435E1,8.666472E0,2.7375894E0,3.6036305E0,2.125061E1,1.9832062E2,1.3236607E1,4.7768787E1,1.0382747E1,2.2292252E1,1.9965183E1,6.3417363E0,2.3247356E0,2.5963883E0,1.0072422E0,1.928594E2,5.461209E0,4.525232E1,2.5164695E0,8.487102E0,1.8956457E0,2.1152184E1,1.140069E0,1.2299029E0,1.873528E1,1.4066982E0,4.935038E0,2.1728931E1,1.7113048E2,2.4899585E0,2.97125E0,4.2824738E1,2.4275827E0,1.10934E0,7.3777614E0,1.762691E1,3.5252743E0,1.1866522E1,6.868758E0,1.4866923E0,3.448346E0,1.2883499E1,8.845433E0,1.0293496E2,6.819552E1,1.0031984E0,1.9680518E0],"tree_param":{"num_deleted":"0","num_feature":"23","num_nodes":"55","size_leaf_vector":"1"}},{"base_weights":[-3.2242715E-1,-4.4556892E-1,-2.9243034E-1,2.3524776E-2,-4.6166208E-1,-3.3168846E-1,-1.81036E-1,-3.058157E-1,-1.5222314E-1,-4.237954E-1,-2.609387E-1,7.221474E-2,-2.5404552E-1,-4.2606032E-1,1.0567812E-1,-1.6126172E-1,-2.9570845E-1,7.255885E-2,-3.3280283E-1,-2.0147811E-1,6.697777E-1,-4.5570183E-1,-1.3485034E-1,3.3067632E-2,-1.5105294E-1,-3.6473864E-1,1.8784666E-1,-9.1735E-2,6.9688475E-1,-1.5685663E-1,-2.5879687E-1,-1.4734794E-1,3.1619537E-1,3.2006797E-1,-8.671612E-2,5.1846933E-2,-1.5455769E-1,-1.3739145E-1,-5.348375E-2,4.2490184E-2,-1.17826015E-1,3.1742388E-1,-1.2194424E-1,1.8995452E-1,-1.2275663E-1,2.9541215E-1,3.2113314E-2,-9.2972507E-4,-9.652618E-2,1.272983E-1,-5.373614E-2],"categories":[],"categories_nodes":[],"categories_segments":[],"categories_sizes":[],"default_left":[0,0,0,0,0,0,0,0,0,0,0,0,0,0,0,0,0,0,0,0,0,0,0,0,0,0,0,0,0,0,0,0,0,0,0,0,0,0,0,0,0,0,0,0,0,0,0,0,0,0,0],"id":18,"left_children":[1,3,5,-1,7,9,11,13,-1,15,17,19,21,23,-1,-1,25,27,29,31,33,35,37,-1,-1,39,41,43,45,-1,47,-1,-1,-1,-1,-1,-1,-1,49,-1,-1,-1,-1,-1,-1,-1,-1,-1,-1,-1,-1],"loss_changes":[7.9989815E-1,4.3605232E-1,8.382168E-1,0E0,1.738596E-1,8.713074E-1,1.0487319E0,1.17797E0,0E0,7.713728E-1,2.1289067E0,2.3018348E0,9.8361397E-1,5.304768E-1,0E0,0E0,1.1452584E0,1.7451211E0,8.834238E-1,4.1021113E0,1.9812129E0,6.7726684E-1,7.3128986E-1,0E0,0E0,4.608829E-1,2.8556201E0,3.4484985E0,4.940331E-1,0E0,8.700807E-1,0E0,0E0,0E0,0E0,0E0,0E0,0E0,1.5225134E0,0E0,0E0,0E0,0E0,0E0,0E0,0E0,0E0,0E0,0E0,0E0,0E0],"parents":[2147483647,0,0,1,1,2,2,4,4,5,5,6,6,7,7,9,9,10,10,11,11,12,12,13,13,16,16,17,17,18,18,19,19,20,20,21,21,22,22,25,25,26,26,27,27,28,28,30,30,38,38],"right_children":[2,4,6,-1,8,10,12,14,-1,16,18,20,22,24,-1,-1,26,28,30,32,34,36,38,-1,-1,40,42,44,46,-1,48,-1,-1,-1,-1,-1,-1,-1,50,-1,-1,-1,-1,-1,-1,-1,-1,-1,-1,-1,-1],"split_conditions":[9.631728E1,1.1111111E-1,1.61352E9,2.3524776E-2,3.846154E-1,4E0,1.6328736E9,3E0,-1.5222314E-1,1.5161472E9,1.3E1,2.31E2,1.6629408E9,1.2721536E9,1.0567812E-1,-1.6126172E-1,1.4E1,6.3E1,5.5E0,1.6301952E9,2.3E1,3E0,5E0,3.3067632E-2,-1.5105294E-1,1.5195168E9,3E0,1.3333334E-1,5.74E2,-1.5685663E-1,2.9E1,-1.4734794E-1,3.1619537E-1,3.2006797E-1,-8.671612E-2,5.1846933E-2,-1.5455769E-1,-1.3739145E-1,3E0,4.2490184E-2,-1.17826015E-1,3.1742388E-1,-1.2194424E-1,1.8995452E-1,-1.2275663E-1,2.9541215E-1,3.2113314E-2,-9.2972507E-4,-9.652618E-2,1.272983E-1,-5.373614E-2],"split_indices":[22,19,17,0,19,7,17,2,0,17,9,8,17,17,0,0,6,8,16,17,11,1,5,0,0,17,20,19,1,0,7,0,0,0,0,0,0,0,8,0,0,0,0,0,0,0,0,0,0,0,0],"split_type":[0,0,0,0,0,0,0,0,0,0,0,0,0,0,0,0,0,0,0,0,0,0,0,0,0,0,0,0,0,0,0,0,0,0,0,0,0,0,0,0,0,0,0,0,0,0,0,0,0,0,0],"sum_hessian":[2.5082202E2,4.6417362E1,2.0440466E2,1.2677416E0,4.514962E1,1.4967712E2,5.472753E1,1.1989822E1,3.3159798E1,6.2856316E1,8.682081E1,1.2249197E1,4.2478336E1,1.0435584E1,1.5542382E0,3.1599072E1,3.1257244E1,1.5390219E1,7.143059E1,8.855897E0,3.3933008E0,1.4731759E1,2.7746576E1,1.2634996E0,9.172085E0,2.756754E1,3.689705E0,1.2859306E1,2.5309122E0,1.8319569E1,5.3111023E1,7.690253E0,1.1656439E0,2.3198116E0,1.0734892E0,1.109083E0,1.3622676E1,4.6504235E0,2.3096153E1,1.2325851E0,2.6334953E1,1.1806551E0,2.50905E0,3.6134057E0,9.245901E0,1.2510129E0,1.2798991E0,1.0700506E1,4.2410515E1,4.3136E0,1.8782553E1],"tree_param":{"num_deleted":"0","num_feature":"23","num_nodes":"51","size_leaf_vector":"1"}},{"base_weights":[2.597479E-1,2.4176893E-1,4.5236567E-1,2.6252994E-1,4.7416184E-3,7.2630845E-2,4.840203E-1,2.0899577E-1,3.620498E-1,-8.3207175E-2,1.5779942E-1,1.3103774E-1,-1.3951522E-1,8.5405685E-2,5.17805E-1,2.2865343E-1,-1.3129003E-1,5.379064E-1,2.8704238E-1,2.3776776E-1,-2.813742E-1,-1.2747528E-1,1.3588957E-1,5.593058E-1,1.4065827E-1,2.0832019E-1,4.9172223E-1,-6.86762E-1,2.521348E-1,5.751446E-1,-2.8764214E-2,-2.0624991E-1,3.1447342E-1,-1.1919597E-1,3.7060514E-1,-2.5488457E-1,-3.46378E-2,1.7652269E-1,-1.2787974E-3,-1.1409177E-1,1.3745359E-1,6.630628E-2,-6.643259E-2,-3.1685766E-2,1.6199055E-1,-2.624409E-2,-2.9967538E-1,1.5648101E-1,-4.801101E-3,5.241827E-2,1.786386E-1,-7.0060834E-2,1.0369309E-1,-2.9918587E-2,1.5040743E-1,1.6824956E-1,-1.2493806E-1],"categories":[],"categories_nodes":[],"categories_segments":[],"categories_sizes":[],"default_left":[0,0,0,0,0,0,0,0,0,0,0,0,0,0,0,0,0,0,0,0,0,0,0,0,0,0,0,0,0,0,0,0,0,0,0,0,0,0,0,0,0,0,0,0,0,0,0,0,0,0,0,0,0,0,0,0,0],"id":19,"left_children":[1,3,5,7,9,11,13,15,17,19,-1,-1,-1,21,23,25,27,29,31,33,35,-1,-1,37,39,41,43,45,47,49,-1,-1,51,-1,53,-1,55,-1,-1,-1,-1,-1,-1,-1,-1,-1,-1,-1,-1,-1,-1,-1,-1,-1,-1,-1,-1],"loss_changes":[1.5702629E0,2.192278E0,4.4876385E-1,2.1078262E0,1.736197E0,1.0400405E0,4.5384312E-1,1.8284321E0,1.7184486E0,2.131005E0,0E0,0E0,0E0,9.591233E-1,4.5187664E-1,1.2590809E0,3.435639E0,1.0300713E0,2.93427E0,1.2380023E0,2.8478496E0,0E0,0E0,4.978485E-1,9.510771E-1,1.3480558E0,5.621495E-1,1.133079E0,7.160118E-1,2.145338E-1,0E0,0E0,1.7816744E0,0E0,7.3939264E-1,0E0,3.7238915E0,0E0,0E0,0E0,0E0,0E0,0E0,0E0,0E0,0E0,0E0,0E0,0E0,0E0,0E0,0E0,0E0,0E0,0E0,0E0,0E0],"parents":[2147483647,0,0,1,1,2,2,3,3,4,4,5,5,6,6,7,7,8,8,9,9,13,13,14,14,15,15,16,16,17,17,18,18,19,19,20,20,23,23,24,24,25,25,26,26,27,27,28,28,29,29,32,32,34,34,36,36],"right_children":[2,4,6,8,10,12,14,16,18,20,-1,-1,-1,22,24,26,28,30,32,34,36,-1,-1,38,40,42,44,46,48,50,-1,-1,52,-1,54,-1,56,-1,-1,-1,-1,-1,-1,-1,-1,-1,-1,-1,-1,-1,-1,-1,-1,-1,-1,-1,-1],"split_conditions":[1.5573E4,7E0,5.833333E-1,3.3E2,8.638461E1,6.444E3,2.529E3,3.8E1,8.05E2,7E0,1.5779942E-1,1.3103774E-1,-1.3951522E-1,2.7E1,2.2385E4,4E1,1.4317344E9,4E1,1.144E3,1.734E3,7.456E3,-1.2747528E-1,1.3588957E-1,2.7157144E2,4.82E2,5E1,1E0,1.3417056E9,8.3E1,2E0,-2.8764214E-2,-2.0624991E-1,9E0,-1.1919597E-1,1E1,-2.5488457E-1,2.07E2,1.7652269E-1,-1.2787974E-3,-1.1409177E-1,1.3745359E-1,6.630628E-2,-6.643259E-2,-3.1685766E-2,1.6199055E-1,-2.624409E-2,-2.9967538E-1,1.5648101E-1,-4.801101E-3,5.241827E-2,1.786386E-1,-7.0060834E-2,1.0369309E-1,-2.9918587E-2,1.5040743E-1,1.6824956E-1,-1.2493806E-1],"split_indices":[6,4,19,5,18,14,8,20,5,11,0,0,0,4,15,9,17,16,1,1,5,0,0,18,3,8,16,17,20,9,0,0,6,0,4,0,10,0,0,0,0,0,0,0,0,0,0,0,0,0,0,0,0,0,0,0,0],"split_type":[0,0,0,0,0,0,0,0,0,0,0,0,0,0,0,0,0,0,0,0,0,0,0,0,0,0,0,0,0,0,0,0,0,0,0,0,0,0,0,0,0,0,0,0,0,0,0,0,0,0,0,0,0,0,0,0,0],"sum_hessian":[4.8401224E2,4.4475403E2,3.925823E1,4.0883676E2,3.591726E1,3.2742455E0,3.5983986E1,2.678524E2,1.4098436E2,3.1451061E1,4.4661965E0,2.0639849E0,1.2102607E0,3.0871851E0,3.2896797E1,2.5353427E2,1.4318131E1,4.0308582E1,1.0067578E2,1.1929227E1,1.9521833E1,1.2272327E0,1.8599526E0,2.9200603E1,3.6961951E0,2.3700726E2,1.6527E1,5.5241323E0,8.793999E0,3.8159073E1,2.1495109E0,2.097435E0,9.857835E1,1.7191327E0,1.0210094E1,5.170534E0,1.43513E1,2.7724792E1,1.475812E0,1.3248087E0,2.3713865E0,2.3067583E2,6.331432E0,1.1462313E0,1.538077E1,2.3304138E0,3.1937184E0,3.9146526E0,4.8793464E0,2.3062994E0,3.585277E1,4.9558716E0,9.3622475E1,2.2725906E0,7.937504E0,5.4238014E0,8.927499E0],"tree_param":{"num_deleted":"0","num_feature":"23","num_nodes":"57","size_leaf_vector":"1"}},{"base_weights":[-1.4036122E-1,1.6240884E-2,-1.810966E-1,1.6245446E-1,-1.582102E-1,-4.7541484E-1,-1.6147923E-1,8.1806466E-2,4.921048E-1,-2.819243E-1,1.7734693E-1,-2.3277344E-1,-1.573091E-1,-1.2783499E-1,-3.5505345E-1,2.2162E-1,-1.1928926E-1,-2.9917909E-2,2.0378283E-1,-3.8203305E-1,1.2070384E-1,4.1850194E-1,-2.4161172E-1,-1.2439304E-1,5.512576E-2,-1.916759E-1,5.1998258E-2,-1.5871513E-1,-2.1209675E-1,-9.511963E-2,3.4414488E-1,-3.2362816E-1,2.4601755E-1,-2.2258268E-1,-1.5608317E-1,-1.8760766E-1,1.2395595E-1,6.566623E-1,7.362181E-2,2.426901E-2,-1.1640391E-1,-1.0917355E-1,-3.7433413E-1,1.9497524E-1,-1.0406999E-1,6.8835266E-2,-1.49188E-1,-1.02315135E-1,1.3190606E-1,-1.494164E-1,1.5430716E-1,7.381073E-2,-1.534209E-1,2.2714433E-1,-3.9053872E-2,-1.1443098E-1,1.00756235E-1,-9.7296566E-2,1.8056663E-2,2.6477012E-1,3.2130316E-2,-9.648248E-2,1.2322792E-1,-4.27352E-2,2.5290638E-1,-1.6229679E-1,-3.6295984E-2,-1.53264925E-2,1.20647736E-1,-1.2323819E-1,7.459245E-2,-7.7076785E-2,2.0280275E-1],"categories":[],"categories_nodes":[],"categories_segments":[],"categories_sizes":[],"default_left":[0,0,0,0,0,0,0,0,0,0,0,0,0,0,0,0,0,0,0,0,0,0,0,0,0,0,0,0,0,0,0,0,0,0,0,0,0,0,0,0,0,0,0,0,0,0,0,0,0,0,0,0,0,0,0,0,0,0,0,0,0,0,0,0,0,0,0,0,0,0,0,0,0],"id":20,"left_children":[1,3,5,7,9,11,13,15,17,19,21,23,-1,25,27,29,31,-1,-1,33,35,37,39,-1,-1,41,43,-1,45,47,49,51,53,55,-1,57,-1,59,61,-1,-1,63,65,67,69,71,-1,-1,-1,-1,-1,-1,-1,-1,-1,-1,-1,-1,-1,-1,-1,-1,-1,-1,-1,-1,-1,-1,-1,-1,-1,-1,-1],"loss_changes":[2.0384407E0,1.7291713E0,1.385705E0,9.38783E-1,1.3351696E0,5.9824467E-2,1.5110302E0,8.920358E-1,8.4748876E-1,9.7337043E-1,1.0056791E0,4.071586E-1,0E0,2.3653488E0,7.539959E-1,7.510975E-1,1.0706502E0,0E0,0E0,2.956128E-1,5.5913275E-1,4.484446E-1,2.1575433E-1,0E0,0E0,2.244048E0,1.2372398E0,0E0,1.6996402E0,9.32086E-1,2.200591E0,1.0827469E0,1.1235466E0,1.052024E0,0E0,1.3090256E-1,0E0,3.3396614E-1,6.1137855E-1,0E0,0E0,3.4743505E0,1.9090161E0,1.4893041E0,2.9935791E0,2.4185796E0,0E0,0E0,0E0,0E0,0E0,0E0,0E0,0E0,0E0,0E0,0E0,0E0,0E0,0E0,0E0,0E0,0E0,0E0,0E0,0E0,0E0,0E0,0E0,0E0,0E0,0E0,0E0],"parents":[2147483647,0,0,1,1,2,2,3,3,4,4,5,5,6,6,7,7,8,8,9,9,10,10,11,11,13,13,14,14,15,15,16,16,19,19,20,20,21,21,22,22,25,25,26,26,28,28,29,29,30,30,31,31,32,32,33,33,35,35,37,37,38,38,41,41,42,42,43,43,44,44,45,45],"right_children":[2,4,6,8,10,12,14,16,18,20,22,24,-1,26,28,30,32,-1,-1,34,36,38,40,-1,-1,42,44,-1,46,48,50,52,54,56,-1,58,-1,60,62,-1,-1,64,66,68,70,72,-1,-1,-1,-1,-1,-1,-1,-1,-1,-1,-1,-1,-1,-1,-1,-1,-1,-1,-1,-1,-1,-1,-1,-1,-1,-1,-1],"split_conditions":[1.8E1,1.551312E9,2E0,1.5241824E9,1.6782336E9,1.4980896E9,3.691E3,5E0,7E0,4E0,1.697328E9,1.4825376E9,-1.573091E-1,5E0,9.4E1,1E0,3E0,-2.9917909E-2,2.0378283E-1,1.6225056E9,1.1E1,4E0,2.9411766E-1,-1.2439304E-1,5.512576E-2,7E1,1.491E3,-1.5871513E-1,2.7035E4,2E0,1.3947552E9,1.4037408E9,6.5E0,1.6103232E9,-1.5608317E-1,1.6E1,1.2395595E-1,1.6897248E9,1.6932672E9,2.426901E-2,-1.1640391E-1,6.6E1,1.5E1,7.2727275E-1,4.701E3,2.45E2,-1.49188E-1,-1.02315135E-1,1.3190606E-1,-1.494164E-1,1.5430716E-1,7.381073E-2,-1.534209E-1,2.2714433E-1,-3.9053872E-2,-1.1443098E-1,1.00756235E-1,-9.7296566E-2,1.8056663E-2,2.6477012E-1,3.2130316E-2,-9.648248E-2,1.2322792E-1,-4.27352E-2,2.5290638E-1,-1.6229679E-1,-3.6295984E-2,-1.53264925E-2,1.20647736E-1,-1.2323819E-1,7.459245E-2,-7.7076785E-2,2.0280275E-1],"split_indices":[1,17,14,17,17,17,8,5,1,14,17,17,0,12,11,5,20,0,0,17,1,1,22,0,0,8,6,0,7,6,17,17,16,17,0,16,0,17,17,0,0,8,16,19,6,4,0,0,0,0,0,0,0,0,0,0,0,0,0,0,0,0,0,0,0,0,0,0,0,0,0,0,0],"split_type":[0,0,0,0,0,0,0,0,0,0,0,0,0,0,0,0,0,0,0,0,0,0,0,0,0,0,0,0,0,0,0,0,0,0,0,0,0,0,0,0,0,0,0,0,0,0,0,0,0,0,0,0,0,0,0,0,0,0,0,0,0,0,0,0,0,0,0,0,0,0,0,0,0],"sum_hessian":[3.1808142E2,6.578408E1,2.5229735E2,3.58259E1,2.9958176E1,1.4313803E1,2.3798355E2,2.9786808E1,6.039094E0,2.2005108E1,7.953069E0,3.368993E0,1.0944809E1,2.0415985E2,3.3823696E1,1.7510452E1,1.2276355E1,1.5632683E0,4.475826E0,1.7664251E1,4.340856E0,5.0483184E0,2.9047508E0,2.3482037E0,1.0207894E0,1.5062282E2,5.353704E1,1.4037481E1,1.9786215E1,4.9466133E0,1.256384E1,7.945842E0,4.330513E0,9.415043E0,8.249208E0,2.2878056E0,2.0530508E0,2.4514294E0,2.5968888E0,1.0466063E0,1.8581445E0,1.0485845E2,4.576436E1,2.7810257E1,2.5726782E1,1.0349807E1,9.436407E0,3.6366098E0,1.3100036E0,1.788479E0,1.0775361E1,1.8929163E0,6.0529256E0,1.4066691E0,2.9238439E0,7.576714E0,1.8383287E0,1.2753478E0,1.0124576E0,1.3078647E0,1.1435646E0,1.2166553E0,1.3802336E0,1.02139305E2,2.7191455E0,2.6920412E1,1.8843946E1,1.3056737E1,1.4753521E1,1.3672375E1,1.2054407E1,7.1113276E0,3.238479E0],"tree_param":{"num_deleted":"0","num_feature":"23","num_nodes":"73","size_leaf_vector":"1"}},{"base_weights":[-2.850865E-1,-4.1932446E-1,-2.5391915E-1,-2.369441E-1,-4.9444237E-1,-2.940307E-1,-1.444017E-1,2.8912482E-1,-1.4771706E-1,-1.5588534E-1,-3.4273744E-2,-3.9409128E-1,-2.196677E-1,9.344424E-2,-2.1695234E-1,6.2486804E-1,-9.77997E-2,-1.5725103E-1,-2.5621688E-1,9.08953E-2,-2.939236E-1,-1.6373031E-1,5.623086E-1,-4.3090013E-1,-1.00845896E-1,-8.671312E-2,3.2623073E-1,-3.3004826E-1,2.0929049E-1,2.3732923E-1,-1.250795E-1,-1.5255964E-1,-2.156333E-1,-1.4177006E-1,2.6297596E-1,2.7898064E-1,-5.0839903E-3,4.9812432E-2,-1.4964418E-1,-1.3099745E-1,-2.2979524E-2,-1.1602719E-1,8.8459775E-3,3.0941755E-1,-1.1732167E-1,-1.1785106E-1,1.23248056E-1,-3.8638853E-2,-1.322177E-1,6.1365876E-2,-8.326613E-2],"categories":[],"categories_nodes":[],"categories_segments":[],"categories_sizes":[],"default_left":[0,0,0,0,0,0,0,0,0,0,0,0,0,0,0,0,0,0,0,0,0,0,0,0,0,0,0,0,0,0,0,0,0,0,0,0,0,0,0,0,0,0,0,0,0,0,0,0,0,0,0],"id":21,"left_children":[1,3,5,7,9,11,13,15,-1,-1,-1,17,19,21,23,25,-1,-1,27,29,31,33,35,37,39,-1,-1,41,43,45,-1,-1,47,-1,-1,-1,-1,-1,-1,-1,49,-1,-1,-1,-1,-1,-1,-1,-1,-1,-1],"loss_changes":[8.1790733E-1,4.3217278E-1,7.563677E-1,1.9722857E0,2.0365953E-1,8.9659595E-1,8.953639E-1,1.253053E0,0E0,0E0,0E0,8.534069E-1,1.8268352E0,1.6056216E0,9.29317E-1,1.8487934E0,0E0,0E0,1.0551788E0,1.2758372E0,9.5275784E-1,3.2674606E0,1.0106037E0,6.2891674E-1,6.8787086E-1,0E0,0E0,5.2422476E-1,2.643914E0,1.5741057E0,0E0,0E0,8.827696E-1,0E0,0E0,0E0,0E0,0E0,0E0,0E0,1.3729084E0,0E0,0E0,0E0,0E0,0E0,0E0,0E0,0E0,0E0,0E0],"parents":[2147483647,0,0,1,1,2,2,3,3,4,4,5,5,6,6,7,7,11,11,12,12,13,13,14,14,15,15,18,18,19,19,20,20,21,21,22,22,23,23,24,24,27,27,28,28,29,29,32,32,40,40],"right_children":[2,4,6,8,10,12,14,16,-1,-1,-1,18,20,22,24,26,-1,-1,28,30,32,34,36,38,40,-1,-1,42,44,46,-1,-1,48,-1,-1,-1,-1,-1,-1,-1,50,-1,-1,-1,-1,-1,-1,-1,-1,-1,-1],"split_conditions":[9.631728E1,6.4E1,1.61352E9,1.46448E9,1.701026E6,4E0,1.6328736E9,1.6666666E1,-1.4771706E-1,-1.5588534E-1,-3.4273744E-2,1.5161472E9,1.3E1,2.31E2,1.6629408E9,5E0,-9.77997E-2,-1.5725103E-1,1.4E1,1.5551136E9,5.5E0,1.6301952E9,1E0,3E0,5E0,-8.671312E-2,3.2623073E-1,8E0,1.1E2,1.3E1,-1.250795E-1,-1.5255964E-1,2.75E1,-1.4177006E-1,2.6297596E-1,2.7898064E-1,-5.0839903E-3,4.9812432E-2,-1.4964418E-1,-1.3099745E-1,1.6E1,-1.1602719E-1,8.8459775E-3,3.0941755E-1,-1.1732167E-1,-1.1785106E-1,1.23248056E-1,-3.8638853E-2,-1.322177E-1,6.1365876E-2,-8.326613E-2],"split_indices":[22,5,17,17,5,7,17,22,0,0,0,17,9,8,17,5,0,0,6,17,16,17,3,1,5,0,0,14,1,5,0,0,16,0,0,0,0,0,0,0,8,0,0,0,0,0,0,0,0,0,0],"split_type":[0,0,0,0,0,0,0,0,0,0,0,0,0,0,0,0,0,0,0,0,0,0,0,0,0,0,0,0,0,0,0,0,0,0,0,0,0,0,0,0,0,0,0,0,0,0,0,0,0,0,0],"sum_hessian":[2.1994106E2,3.9096832E1,1.8084422E2,1.2617303E1,2.647953E1,1.3113158E2,4.971265E1,4.080999E0,8.536304E0,2.4491096E1,1.9884324E0,5.4073025E1,7.7058556E1,1.1552288E1,3.8160362E1,2.6297843E0,1.4512143E0,2.6381435E1,2.7691591E1,1.4826226E1,6.2232327E1,7.880556E0,3.6717324E0,1.24702835E1,2.5690077E1,1.0098059E0,1.6199785E0,2.4151981E1,3.5396109E0,1.1921323E1,2.9049037E0,1.516546E1,4.7066868E1,6.4974265E0,1.3831296E0,1.8758299E0,1.7959024E0,1.126225E0,1.1344059E1,3.9683013E0,2.1721775E1,2.0796116E1,3.3558643E0,1.1909064E0,2.3487043E0,2.3006904E0,9.620632E0,3.5098576E1,1.196829E1,1.157384E1,1.0147935E1],"tree_param":{"num_deleted":"0","num_feature":"23","num_nodes":"51","size_leaf_vector":"1"}},{"base_weights":[2.1070254E-1,1.9889288E-1,5.126721E-1,2.1012583E-1,-2.239206E-2,1.6612178E-1,6.1251274E-3,1.6830783E-1,3.1081313E-1,-4.7354817E-1,5.970676E-2,1.784153E-1,-4.0463802E-1,4.103462E-1,1.9971794E-1,-1.8849574E-2,-1.9002372E-1,2.3975424E-1,-2.5151637E-1,1.9104959E-1,-1.815912E-1,-2.3888995E-1,7.740495E-4,-6.222166E-2,4.4399443E-1,1.0864026E-3,3.9254096E-1,1.6299725E-1,-2.2367615E-1,1.1261484E-1,-5.0811815E-1,4.414021E-2,1.1274233E-1,-3.3916703E-1,3.5779014E-2,1.1695354E-1,-1.2571111E-1,1.2582149E-1,-1.6718942E-1,1.5711382E-1,7.26595E-2,-2.0067264E-1,2.5953168E-2,5.913434E-2,1.5874997E-1,-1.6419676E-1,1.1567E-1,-2.3364954E-1,9.665779E-2],"categories":[],"categories_nodes":[],"categories_segments":[],"categories_sizes":[],"default_left":[0,0,0,0,0,0,0,0,0,0,0,0,0,0,0,0,0,0,0,0,0,0,0,0,0,0,0,0,0,0,0,0,0,0,0,0,0,0,0,0,0,0,0,0,0,0,0,0,0],"id":22,"left_children":[1,3,5,7,9,-1,-1,11,13,15,17,19,21,23,25,-1,-1,27,29,31,33,-1,35,37,39,41,43,-1,45,-1,47,-1,-1,-1,-1,-1,-1,-1,-1,-1,-1,-1,-1,-1,-1,-1,-1,-1,-1],"loss_changes":[1.4847527E0,1.0731125E0,3.1440973E-1,1.6704559E0,8.3086467E-1,0E0,0E0,1.758955E0,1.2326393E0,1.8659407E-1,1.1373249E0,1.3397064E0,8.5095614E-1,1.0096369E0,2.2259145E0,0E0,0E0,1.9065659E0,1.4024007E0,2.1976948E0,3.058499E0,0E0,7.5635076E-1,1.4216783E0,8.025799E-1,1.754017E0,6.8314886E-1,0E0,1.3409189E0,0E0,1.5477759E0,0E0,0E0,0E0,0E0,0E0,0E0,0E0,0E0,0E0,0E0,0E0,0E0,0E0,0E0,0E0,0E0,0E0,0E0],"parents":[2147483647,0,0,1,1,2,2,3,3,4,4,7,7,8,8,9,9,10,10,11,11,12,12,13,13,14,14,17,17,18,18,19,19,20,20,22,22,23,23,24,24,25,25,26,26,28,28,30,30],"right_children":[2,4,6,8,10,-1,-1,12,14,16,18,20,22,24,26,-1,-1,28,30,32,34,-1,36,38,40,42,44,-1,46,-1,48,-1,-1,-1,-1,-1,-1,-1,-1,-1,-1,-1,-1,-1,-1,-1,-1,-1,-1],"split_conditions":[8.888E4,7.1E1,2.601E4,1E0,2.7E1,1.6612178E-1,6.1251274E-3,3.3857143E1,1.5E1,4.1666666E-1,7.04E2,4.733E3,1.4E1,2E0,1.4760576E9,-1.8849574E-2,-1.9002372E-1,1.95E1,1.405E3,3.3E2,6.22E2,-2.3888995E-1,5.17E2,1.407456E9,4E0,1.6E1,2.061E3,1.6299725E-1,9.61E2,1.1261484E-1,2.742E3,4.414021E-2,1.1274233E-1,-3.3916703E-1,3.5779014E-2,1.1695354E-1,-1.2571111E-1,1.2582149E-1,-1.6718942E-1,1.5711382E-1,7.26595E-2,-2.0067264E-1,2.5953168E-2,5.913434E-2,1.5874997E-1,-1.6419676E-1,1.1567E-1,-2.3364954E-1,9.665779E-2],"split_indices":[6,2,2,2,21,0,0,18,16,19,12,5,7,15,17,0,0,16,20,5,8,0,6,17,4,16,5,0,14,0,12,0,0,0,0,0,0,0,0,0,0,0,0,0,0,0,0,0,0],"split_type":[0,0,0,0,0,0,0,0,0,0,0,0,0,0,0,0,0,0,0,0,0,0,0,0,0,0,0,0,0,0,0,0,0,0,0,0,0,0,0,0,0,0,0,0,0,0,0,0,0],"sum_hessian":[4.4393707E2,4.288249E2,1.5112156E1,4.0815634E2,2.0668573E1,1.3833197E1,1.2789588E0,2.9027094E2,1.1788541E2,2.4480152E0,1.8220558E1,2.8591562E2,4.3553095E0,6.075751E1,5.7127895E1,1.076178E0,1.3718373E0,1.168832E1,6.532239E0,2.7667514E2,9.240486E0,1.7248179E0,2.6304917E0,3.9821122E0,5.67754E1,2.8635464E1,2.849243E1,6.9580536E0,4.7302666E0,1.7627636E0,4.769475E0,2.2499252E2,5.1682602E1,1.5604969E0,7.6799893E0,1.4022753E0,1.2282163E0,2.0959506E0,1.8861616E0,3.955442E1,1.7220982E1,2.4657502E0,2.6169714E1,1.272853E1,1.5763901E1,3.1555743E0,1.5746924E0,3.6435394E0,1.1259359E0],"tree_param":{"num_deleted":"0","num_feature":"23","num_nodes":"49","size_leaf_vector":"1"}},{"base_weights":[-1.0445455E-1,-2.2887706E-3,-1.6019227E-1,3.875671E-2,-2.694578E-1,-4.0601835E-1,-1.2256635E-1,7.975727E-3,6.833109E-1,-3.862841E-1,1.2019619E-1,-4.8906288E-1,2.0553614E-1,-9.0908915E-2,-4.0243027E-1,6.482685E-2,-2.5447172E-1,3.1721897E-2,2.6531258E-1,-1.5592225E-1,8.91771E-2,-1.5721357E-1,3.2931972E-2,1.7726798E-1,-9.624162E-2,-1.1167155E-1,4.157519E-1,-1.4251545E-1,-1.5017536E-1,1.4027825E-2,3.3590984E-1,-4.7297156E-1,1.6177435E-1,-1.3624568E-1,2.80979E-1,3.3449817E-1,-2.0092243E-1,-1.2595506E-1,8.730866E-2,-6.682652E-3,1.2914196E-1,3.5656746E-2,2.853803E-1,-1.6061717E-1,-2.4199108E-2,6.9186557E-3,-6.878471E-2,1.544202E-1,-1.1661821E-1,-1.1809494E-1,5.9600525E-2],"categories":[],"categories_nodes":[],"categories_segments":[],"categories_sizes":[],"default_left":[0,0,0,0,0,0,0,0,0,0,0,0,0,0,0,0,0,0,0,0,0,0,0,0,0,0,0,0,0,0,0,0,0,0,0,0,0,0,0,0,0,0,0,0,0,0,0,0,0,0,0],"id":23,"left_children":[1,3,5,7,9,11,13,15,17,19,-1,21,23,25,27,29,31,-1,-1,-1,-1,-1,-1,-1,-1,33,35,37,-1,39,41,43,-1,45,47,-1,49,-1,-1,-1,-1,-1,-1,-1,-1,-1,-1,-1,-1,-1,-1],"loss_changes":[1.6766698E0,1.1615472E0,1.7125506E0,1.8171484E0,1.2589786E0,1.3630252E0,1.4401014E0,1.3397824E0,3.9135706E-1,1.2966018E0,0E0,5.222311E-1,9.352028E-1,1.6351764E0,3.5332394E-1,1.0101277E0,3.028884E0,0E0,0E0,0E0,0E0,0E0,0E0,0E0,0E0,1.4457903E0,2.878994E0,8.3891904E-1,0E0,9.6368366E-1,1.4345537E0,2.7697206E-1,0E0,2.0499399E0,1.5962048E0,0E0,3.9542055E-1,0E0,0E0,0E0,0E0,0E0,0E0,0E0,0E0,0E0,0E0,0E0,0E0,0E0,0E0],"parents":[2147483647,0,0,1,1,2,2,3,3,4,4,5,5,6,6,7,7,8,8,9,9,11,11,12,12,13,13,14,14,15,15,16,16,25,25,26,26,27,27,29,29,30,30,31,31,33,33,34,34,36,36],"right_children":[2,4,6,8,10,12,14,16,18,20,-1,22,24,26,28,30,32,-1,-1,-1,-1,-1,-1,-1,-1,34,36,38,-1,40,42,44,-1,46,48,-1,50,-1,-1,-1,-1,-1,-1,-1,-1,-1,-1,-1,-1,-1,-1],"split_conditions":[5.9E1,5E0,1E0,2.9E1,1.1E1,5.5E1,1.0386E4,4E0,2E0,1E1,1.2019619E-1,6.7E1,1.93E2,5.627E3,8.5E0,2E0,2.05E1,3.1721897E-2,2.6531258E-1,-1.5592225E-1,8.91771E-2,-1.5721357E-1,3.2931972E-2,1.7726798E-1,-9.624162E-2,8.1E1,1.3729824E9,1.59E2,-1.5017536E-1,6E0,1.3E1,1.2E1,1.6177435E-1,3.3E2,5.16E2,3.3449817E-1,1.5312E4,-1.2595506E-1,8.730866E-2,-6.682652E-3,1.2914196E-1,3.5656746E-2,2.853803E-1,-1.6061717E-1,-2.4199108E-2,6.9186557E-3,-6.878471E-2,1.544202E-1,-1.1661821E-1,-1.1809494E-1,5.9600525E-2],"split_indices":[1,8,7,5,9,20,7,6,15,8,0,16,9,7,16,6,16,0,0,0,0,0,0,0,0,2,17,18,0,20,5,6,0,5,2,0,9,0,0,0,0,0,0,0,0,0,0,0,0,0,0],"split_type":[0,0,0,0,0,0,0,0,0,0,0,0,0,0,0,0,0,0,0,0,0,0,0,0,0,0,0,0,0,0,0,0,0,0,0,0,0,0,0,0,0,0,0,0,0,0,0,0,0,0,0],"sum_hessian":[2.9350177E2,1.0396949E2,1.8953229E2,9.086477E1,1.3104722E1,2.3859186E1,1.6567311E2,8.768949E1,3.175278E0,1.151991E1,1.584812E0,2.118299E1,2.6761963E0,1.5002727E2,1.5645838E1,7.26953E1,1.4994196E1,1.2139686E0,1.9613093E0,9.838622E0,1.6812879E0,2.0131836E1,1.0511531E0,1.4742168E0,1.2019795E0,1.4487018E2,5.1570945E0,4.960986E0,1.0684852E1,6.2108376E1,1.0586922E1,1.2074393E1,2.9198031E0,1.3695201E2,7.918165E0,2.0380692E0,3.1190255E0,3.0448236E0,1.9161624E0,5.7998875E1,4.109501E0,8.70838E0,1.8785417E0,1.0102322E1,1.9720715E0,5.077E1,8.618201E1,6.0410094E0,1.877156E0,2.114193E0,1.0048324E0],"tree_param":{"num_deleted":"0","num_feature":"23","num_nodes":"51","size_leaf_vector":"1"}},{"base_weights":[-2.5002423E-1,-3.955159E-1,-2.1799347E-1,-2.09324E-1,-4.7771183E-1,-2.5873587E-1,-1.1057528E-1,2.7149925E-1,-1.4268386E-1,-1.5243584E-1,-2.3565434E-2,-3.6713448E-1,-1.8097648E-1,1.2802337E-1,-1.8501581E-1,-1.5734687E-1,2.0909414E-1,-1.5397783E-1,-2.2169033E-1,3.6948834E-2,-2.7645555E-1,-1.184575E-1,3.3295393E-1,-1.4253397E-1,-9.338386E-2,2.724509E-2,-9.328565E-2,-2.9847834E-1,2.2103386E-1,-9.7040996E-2,2.821658E-1,-3.610682E-1,-3.136223E-2,4.6070936E-1,-8.6304046E-2,1.5075706E-1,-2.2779097E-1,-1.07608296E-1,1.3460529E-2,2.6171696E-1,-1.1198525E-1,2.5494127E-2,-1.3965273E-1,-1.528266E-1,-5.7972983E-2,1.7885184E-1,-1.1709418E-1,3.704099E-2,2.3373248E-1,-2.8701892E-2,2.0710756E-1,-1.3343917E-1,1.8628114E-3],"categories":[],"categories_nodes":[],"categories_segments":[],"categories_sizes":[],"default_left":[0,0,0,0,0,0,0,0,0,0,0,0,0,0,0,0,0,0,0,0,0,0,0,0,0,0,0,0,0,0,0,0,0,0,0,0,0,0,0,0,0,0,0,0,0,0,0,0,0,0,0,0,0],"id":24,"left_children":[1,3,5,7,9,11,13,15,-1,-1,-1,17,19,21,23,25,-1,-1,27,29,31,-1,33,-1,35,-1,-1,37,39,41,-1,43,45,47,-1,49,51,-1,-1,-1,-1,-1,-1,-1,-1,-1,-1,-1,-1,-1,-1,-1,-1],"loss_changes":[8.30822E-1,4.2459774E-1,6.869602E-1,1.7011468E0,2.3924875E-1,9.264598E-1,8.532845E-1,1.0243132E0,0E0,0E0,0E0,9.1128874E-1,1.4784594E0,1.3849775E0,9.1285E-1,1.5450214E-1,0E0,0E0,9.4757605E-1,2.8008413E0,1.0086622E0,0E0,8.419242E-1,0E0,9.7317255E-1,0E0,0E0,4.8179817E-1,2.0318782E0,1.4074998E0,0E0,8.0949545E-1,3.3225923E0,7.417635E-1,0E0,1.496871E0,9.59971E-1,0E0,0E0,0E0,0E0,0E0,0E0,0E0,0E0,0E0,0E0,0E0,0E0,0E0,0E0,0E0,0E0],"parents":[2147483647,0,0,1,1,2,2,3,3,4,4,5,5,6,6,7,7,11,11,12,12,13,13,14,14,15,15,18,18,19,19,20,20,22,22,24,24,27,27,28,28,29,29,31,31,32,32,33,33,35,35,36,36],"right_children":[2,4,6,8,10,12,14,16,-1,-1,-1,18,20,22,24,26,-1,-1,28,30,32,-1,34,-1,36,-1,-1,38,40,42,-1,44,46,48,-1,50,52,-1,-1,-1,-1,-1,-1,-1,-1,-1,-1,-1,-1,-1,-1,-1,-1],"split_conditions":[9.631728E1,6.4E1,1.61352E9,1.46448E9,1.701026E6,4E0,1.6328736E9,2.3529412E-1,-1.4268386E-1,-1.5243584E-1,-2.3565434E-2,1.5161472E9,2.7E1,3.6363637E-1,1.6517952E9,1.1111111E-1,2.0909414E-1,-1.5397783E-1,1.4E1,3.1E1,1.4E1,-1.184575E-1,2E0,-1.4253397E-1,3E0,2.724509E-2,-9.328565E-2,8E0,6E0,1.5E1,2.821658E-1,2.57E3,1.7E1,1.52E2,-8.6304046E-2,2E0,9E0,-1.07608296E-1,1.3460529E-2,2.6171696E-1,-1.1198525E-1,2.5494127E-2,-1.3965273E-1,-1.528266E-1,-5.7972983E-2,1.7885184E-1,-1.1709418E-1,3.704099E-2,2.3373248E-1,-2.8701892E-2,2.0710756E-1,-1.3343917E-1,1.8628114E-3],"split_indices":[22,5,17,17,5,7,17,19,0,0,0,17,9,18,17,19,0,0,6,15,4,0,13,0,9,0,0,14,9,6,0,5,11,8,0,9,16,0,0,0,0,0,0,0,0,0,0,0,0,0,0,0,0],"split_type":[0,0,0,0,0,0,0,0,0,0,0,0,0,0,0,0,0,0,0,0,0,0,0,0,0,0,0,0,0,0,0,0,0,0,0,0,0,0,0,0,0,0,0,0,0,0,0,0,0,0,0,0,0],"sum_hessian":[1.9578143E2,3.3277714E1,1.6250372E2,1.1277759E1,2.1999954E1,1.1679582E2,4.57079E1,4.0126925E0,7.265066E0,2.0189007E1,1.8109475E0,4.7231907E1,6.956391E1,1.0698141E1,3.5009758E1,2.312298E0,1.7003945E0,2.2299313E1,2.4932596E1,2.1379498E1,4.8184418E1,2.7513256E0,7.946816E0,7.399302E0,2.7610456E1,1.0403227E0,1.2719754E0,2.1525017E1,3.4075785E0,1.9395992E1,1.9835052E0,3.5467068E1,1.2717346E1,6.80393E0,1.1428863E0,9.760166E0,1.785029E1,1.8275219E1,3.2497983E0,1.4025447E0,2.0050337E0,1.3497609E1,5.898384E0,1.7745218E1,1.7721851E1,4.3869743E0,8.330372E0,3.9781575E0,2.825772E0,7.2650123E0,2.495154E0,8.794056E0,9.056235E0],"tree_param":{"num_deleted":"0","num_feature":"23","num_nodes":"53","size_leaf_vector":"1"}},{"base_weights":[1.682307E-1,1.513965E-1,3.7436017E-1,1.718071E-1,-7.495833E-2,-3.1438775E-3,4.1398218E-1,1.3169543E-1,3.0255416E-1,-4.254227E-1,5.68816E-2,1.1127115E-1,-1.2999447E-1,6.14944E-2,4.50599E-1,1.3835181E-1,-2.1737935E-1,3.3059734E-1,-1.2988575E-1,2.0851858E-2,-2.7212095E-1,4.1778573E-1,-2.2918981E-1,1.1615219E-1,-1.02500245E-1,5.0412595E-1,4.9839396E-2,1.534872E-1,-2.5805274E-1,-2.353613E-1,3.5478994E-1,-4.99755E-1,2.2828868E-1,-1.7094037E-1,3.205482E-1,-3.8883373E-2,4.9464613E-1,2.764149E-1,-5.013494E-1,1.6236392E-1,-1.1934648E-2,-1.1067034E-1,1.14621766E-1,3.3389777E-2,1.0560981E-1,-2.0263453E-1,1.3950875E-1,2.8234197E-2,-1.5335071E-1,1.286794E-1,2.7981216E-2,-4.386555E-2,-1.809021E-1,1.14085995E-1,-2.235772E-2,1.3298081E-1,-9.622735E-3,1.6219018E-1,1.9464865E-2,-5.7005394E-2,1.4164147E-1,-2.5439277E-1,-1.5674796E-2],"categories":[],"categories_nodes":[],"categories_segments":[],"categories_sizes":[],"default_left":[0,0,0,0,0,0,0,0,0,0,0,0,0,0,0,0,0,0,0,0,0,0,0,0,0,0,0,0,0,0,0,0,0,0,0,0,0,0,0,0,0,0,0,0,0,0,0,0,0,0,0,0,0,0,0,0,0,0,0,0,0,0,0],"id":25,"left_children":[1,3,5,7,9,11,13,15,17,19,21,-1,-1,23,25,27,-1,29,31,33,-1,35,37,-1,-1,39,41,43,45,47,49,51,53,-1,55,-1,57,59,61,-1,-1,-1,-1,-1,-1,-1,-1,-1,-1,-1,-1,-1,-1,-1,-1,-1,-1,-1,-1,-1,-1,-1,-1],"loss_changes":[1.3749361E0,1.7827883E0,4.5706224E-1,1.8047018E0,1.5204605E0,7.861208E-1,3.2831335E-1,1.6444049E0,1.0349145E0,1.9469787E0,2.616258E0,0E0,0E0,6.2516636E-1,5.0751114E-1,1.6575131E0,0E0,1.1391497E0,8.6913764E-1,1.1798676E0,0E0,5.331801E-1,2.1013985E0,0E0,0E0,4.6116924E-1,7.023389E-1,2.1417575E0,3.4198818E0,3.8994884E-1,1.4013538E0,2.5628626E-2,1.9320735E-1,0E0,2.0363873E-1,0E0,1.6224122E-1,6.04234E-1,1.4545066E0,0E0,0E0,0E0,0E0,0E0,0E0,0E0,0E0,0E0,0E0,0E0,0E0,0E0,0E0,0E0,0E0,0E0,0E0,0E0,0E0,0E0,0E0,0E0,0E0],"parents":[2147483647,0,0,1,1,2,2,3,3,4,4,5,5,6,6,7,7,8,8,9,9,10,10,13,13,14,14,15,15,17,17,18,18,19,19,21,21,22,22,25,25,26,26,27,27,28,28,29,29,30,30,31,31,32,32,34,34,36,36,37,37,38,38],"right_children":[2,4,6,8,10,12,14,16,18,20,22,-1,-1,24,26,28,-1,30,32,34,-1,36,38,-1,-1,40,42,44,46,48,50,52,54,-1,56,-1,58,60,62,-1,-1,-1,-1,-1,-1,-1,-1,-1,-1,-1,-1,-1,-1,-1,-1,-1,-1,-1,-1,-1,-1,-1,-1],"split_conditions":[1.5573E4,7E0,5.833333E-1,1E0,9.682E3,6.444E3,2.529E3,1.36E2,6.5E1,2.1E1,3.618E3,1.1127115E-1,-1.2999447E-1,8.216783E1,2.2385E4,4.733E3,-2.1737935E-1,2E0,3.2E1,5.82E2,-2.7212095E-1,3E0,1.851E3,1.1615219E-1,-1.02500245E-1,2.7157144E2,4.82E2,3.3E2,1.18E2,2E2,2.8E1,2.4E1,3.1E1,-1.7094037E-1,7.19E2,-3.8883373E-2,1.6E1,2.41E4,7.8E2,1.6236392E-1,-1.1934648E-2,-1.1067034E-1,1.14621766E-1,3.3389777E-2,1.0560981E-1,-2.0263453E-1,1.3950875E-1,2.8234197E-2,-1.5335071E-1,1.286794E-1,2.7981216E-2,-4.386555E-2,-1.809021E-1,1.14085995E-1,-2.235772E-2,1.3298081E-1,-9.622735E-3,1.6219018E-1,1.9464865E-2,-5.7005394E-2,1.4164147E-1,-2.5439277E-1,-1.5674796E-2],"split_indices":[6,4,19,2,1,14,8,0,2,12,9,0,0,22,15,5,0,9,21,5,0,3,7,0,0,18,3,5,14,1,16,0,12,0,8,0,13,1,20,0,0,0,0,0,0,0,0,0,0,0,0,0,0,0,0,0,0,0,0,0,0,0,0],"split_type":[0,0,0,0,0,0,0,0,0,0,0,0,0,0,0,0,0,0,0,0,0,0,0,0,0,0,0,0,0,0,0,0,0,0,0,0,0,0,0,0,0,0,0,0,0,0,0,0,0,0,0,0,0,0,0,0,0,0,0,0,0,0,0],"sum_hessian":[4.115652E2,3.820947E2,2.947047E1,3.5071173E2,3.1382973E1,2.886795E0,2.6583675E1,2.6991287E2,8.079884E1,7.9699607E0,2.3413012E1,1.6178219E0,1.2689731E0,2.753813E0,2.3829863E1,2.6866287E2,1.2500196E0,7.60994E1,4.699443E0,4.633477E0,3.3364837E0,1.0148883E1,1.3264129E1,1.54522E0,1.208593E0,2.079454E1,3.0353217E0,2.593724E2,9.290465E0,2.7617896E0,7.3337616E1,2.1175098E0,2.581933E0,1.2562835E0,3.3771935E0,1.1650581E0,8.983825E0,4.6359863E0,8.628143E0,1.9471786E1,1.3227544E0,1.2940087E0,1.7413129E0,2.1520511E2,4.416729E1,5.9320774E0,3.3583882E0,1.5586371E0,1.2031524E0,5.6639908E1,1.6697706E1,1.0247794E0,1.0927305E0,1.548714E0,1.033219E0,2.3146005E0,1.0625929E0,7.882373E0,1.1014519E0,1.3789432E0,3.257043E0,4.368365E0,4.259778E0],"tree_param":{"num_deleted":"0","num_feature":"23","num_nodes":"63","size_leaf_vector":"1"}},{"base_weights":[-7.338725E-2,-4.9106214E-2,-2.974556E-1,-8.708198E-2,1.0754956E-1,-1.496083E-1,-1.4086966E-1,-3.922546E-2,-3.6785725E-1,1.4801006E-1,-1.2778881E-1,9.373027E-2,-1.3725689E-1,-5.677285E-3,-2.5272685E-1,-4.3328667E-1,3.515422E-2,6.270686E-2,5.029863E-1,-2.8050247E-1,4.4220373E-1,-2.469214E-2,4.525941E-1,-1.5100384E-1,1.0582959E-1,3.0386845E-2,-4.5970976E-1,3.6703265E-1,-1.0587906E-1,2.8331274E-1,-2.9347926E-1,6.85972E-1,-2.2695342E-2,5.970288E-2,-1.2929621E-1,9.9850826E-2,2.7578384E-1,1.625466E-2,-4.1284204E-2,2.9292074E-1,8.784495E-4,-5.0720688E-2,2.2313689E-1,-1.4906529E-1,-8.1905965E-3,1.3159315E-1,3.3864763E-2,1.3963756E-1,-1.655593E-2,-1.3352545E-1,1.0045489E-1,-1.3255418E-2,2.8855875E-1,1.8539113E-1,-1.09807335E-1],"categories":[],"categories_nodes":[],"categories_segments":[],"categories_sizes":[],"default_left":[0,0,0,0,0,0,0,0,0,0,0,0,0,0,0,0,0,0,0,0,0,0,0,0,0,0,0,0,0,0,0,0,0,0,0,0,0,0,0,0,0,0,0,0,0,0,0,0,0,0,0,0,0,0,0],"id":26,"left_children":[1,3,5,7,9,-1,11,13,15,17,-1,19,-1,21,23,25,27,29,31,33,35,37,39,-1,41,-1,43,45,-1,47,49,51,-1,-1,-1,53,-1,-1,-1,-1,-1,-1,-1,-1,-1,-1,-1,-1,-1,-1,-1,-1,-1,-1,-1],"loss_changes":[1.4833784E0,1.4943409E0,7.717767E-1,2.6925952E0,1.1240253E0,0E0,1.2628045E0,1.2394352E0,7.856808E-1,1.3743347E0,0E0,1.4624424E0,0E0,1.3247248E0,2.165244E0,4.0268993E-1,7.7429414E-1,3.1142673E0,9.892657E-1,4.8701128E-1,8.395958E-1,1.3050067E0,1.4238396E0,0E0,1.966381E0,0E0,3.755226E-1,8.517474E-3,0E0,1.5257943E0,1.601256E0,1.4174075E0,0E0,0E0,0E0,1.2983755E0,0E0,0E0,0E0,0E0,0E0,0E0,0E0,0E0,0E0,0E0,0E0,0E0,0E0,0E0,0E0,0E0,0E0,0E0,0E0],"parents":[2147483647,0,0,1,1,2,2,3,3,4,4,6,6,7,7,8,8,9,9,11,11,13,13,14,14,15,15,16,16,17,17,18,18,19,19,20,20,21,21,22,22,24,24,26,26,27,27,29,29,30,30,31,31,35,35],"right_children":[2,4,6,8,10,-1,12,14,16,18,-1,20,-1,22,24,26,28,30,32,34,36,38,40,-1,42,-1,44,46,-1,48,50,52,-1,-1,-1,54,-1,-1,-1,-1,-1,-1,-1,-1,-1,-1,-1,-1,-1,-1,-1,-1,-1,-1,-1],"split_conditions":[3.691E3,5E0,9.4E1,1E0,7.3E1,-1.496083E-1,2.7035E4,7E1,3.5E1,1.3E1,-1.2778881E-1,2.9E1,-1.3725689E-1,5.6E1,1.6E1,1E0,1.3E1,1E0,4.1666668E1,1.1E1,6.62749E5,1.551312E9,2.72E2,-1.5100384E-1,1.8E1,3.0386845E-2,6.22E2,1.2E1,-1.0587906E-1,2.4E1,3.15E1,7E0,-2.2695342E-2,5.970288E-2,-1.2929621E-1,2.56E2,2.7578384E-1,1.625466E-2,-4.1284204E-2,2.9292074E-1,8.784495E-4,-5.0720688E-2,2.2313689E-1,-1.4906529E-1,-8.1905965E-3,1.3159315E-1,3.3864763E-2,1.3963756E-1,-1.655593E-2,-1.3352545E-1,1.0045489E-1,-1.3255418E-2,2.8855875E-1,1.8539113E-1,-1.09807335E-1],"split_indices":[8,12,11,2,4,0,7,8,16,4,0,3,0,8,16,15,6,13,18,2,1,17,5,0,10,0,8,14,0,12,16,2,0,0,0,0,0,0,0,0,0,0,